{"learner":{"attributes":{"best_iteration":"499","best_score":"548.5801173373484"},"feature_names":[],"feature_types":[],"gradient_booster":{"model":{"cats":{"enc":[],"feature_segments":[],"sorted_idx":[]},"gbtree_model_param":{"num_parallel_tree":"1","num_trees":"500"},"iteration_indptr":[0,1,2,3,4,5,6,7,8,9,10,11,12,13,14,15,16,17,18,19,20,21,22,23,24,25,26,27,28,29,30,31,32,33,34,35,36,37,38,39,40,41,42,43,44,45,46,47,48,49,50,51,52,53,54,55,56,57,58,59,60,61,62,63,64,65,66,67,68,69,70,71,72,73,74,75,76,77,78,79,80,81,82,83,84,85,86,87,88,89,90,91,92,93,94,95,96,97,98,99,100,101,102,103,104,105,106,107,108,109,110,111,112,113,114,115,116,117,118,119,120,121,122,123,124,125,126,127,128,129,130,131,132,133,134,135,136,137,138,139,140,141,142,143,144,145,146,147,148,149,150,151,152,153,154,155,156,157,158,159,160,161,162,163,164,165,166,167,168,169,170,171,172,173,174,175,176,177,178,179,180,181,182,183,184,185,186,187,188,189,190,191,192,193,194,195,196,197,198,199,200,201,202,203,204,205,206,207,208,209,210,211,212,213,214,215,216,217,218,219,220,221,222,223,224,225,226,227,228,229,230,231,232,233,234,235,236,237,238,239,240,241,242,243,244,245,246,247,248,249,250,251,252,253,254,255,256,257,258,259,260,261,262,263,264,265,266,267,268,269,270,271,272,273,274,275,276,277,278,279,280,281,282,283,284,285,286,287,288,289,290,291,292,293,294,295,296,297,298,299,300,301,302,303,304,305,306,307,308,309,310,311,312,313,314,315,316,317,318,319,320,321,322,323,324,325,326,327,328,329,330,331,332,333,334,335,336,337,338,339,340,341,342,343,344,345,346,347,348,349,350,351,352,353,354,355,356,357,358,359,360,361,362,363,364,365,366,367,368,369,370,371,372,373,374,375,376,377,378,379,380,381,382,383,384,385,386,387,388,389,390,391,392,393,394,395,396,397,398,399,400,401,402,403,404,405,406,407,408,409,410,411,412,413,414,415,416,417,418,419,420,421,422,423,424,425,426,427,428,429,430,431,432,433,434,435,436,437,438,439,440,441,442,443,444,445,446,447,448,449,450,451,452,453,454,455,456,457,458,459,460,461,462,463,464,465,466,467,468,469,470,471,472,473,474,475,476,477,478,479,480,481,482,483,484,485,486,487,488,489,490,491,492,493,494,495,496,497,498,499,500],"tree_info":[0,0,0,0,0,0,0,0,0,0,0,0,0,0,0,0,0,0,0,0,0,0,0,0,0,0,0,0,0,0,0,0,0,0,0,0,0,0,0,0,0,0,0,0,0,0,0,0,0,0,0,0,0,0,0,0,0,0,0,0,0,0,0,0,0,0,0,0,0,0,0,0,0,0,0,0,0,0,0,0,0,0,0,0,0,0,0,0,0,0,0,0,0,0,0,0,0,0,0,0,0,0,0,0,0,0,0,0,0,0,0,0,0,0,0,0,0,0,0,0,0,0,0,0,0,0,0,0,0,0,0,0,0,0,0,0,0,0,0,0,0,0,0,0,0,0,0,0,0,0,0,0,0,0,0,0,0,0,0,0,0,0,0,0,0,0,0,0,0,0,0,0,0,0,0,0,0,0,0,0,0,0,0,0,0,0,0,0,0,0,0,0,0,0,0,0,0,0,0,0,0,0,0,0,0,0,0,0,0,0,0,0,0,0,0,0,0,0,0,0,0,0,0,0,0,0,0,0,0,0,0,0,0,0,0,0,0,0,0,0,0,0,0,0,0,0,0,0,0,0,0,0,0,0,0,0,0,0,0,0,0,0,0,0,0,0,0,0,0,0,0,0,0,0,0,0,0,0,0,0,0,0,0,0,0,0,0,0,0,0,0,0,0,0,0,0,0,0,0,0,0,0,0,0,0,0,0,0,0,0,0,0,0,0,0,0,0,0,0,0,0,0,0,0,0,0,0,0,0,0,0,0,0,0,0,0,0,0,0,0,0,0,0,0,0,0,0,0,0,0,0,0,0,0,0,0,0,0,0,0,0,0,0,0,0,0,0,0,0,0,0,0,0,0,0,0,0,0,0,0,0,0,0,0,0,0,0,0,0,0,0,0,0,0,0,0,0,0,0,0,0,0,0,0,0,0,0,0,0,0,0,0,0,0,0,0,0,0,0,0,0,0,0,0,0,0,0,0,0,0,0,0,0,0,0,0,0,0,0,0,0,0,0,0,0,0,0,0,0,0,0,0,0,0,0,0,0,0,0,0,0,0,0,0,0,0,0,0,0,0,0,0,0,0,0,0,0,0,0,0,0,0,0,0,0,0,0,0,0,0,0,0,0,0,0,0,0,0,0,0],"trees":[{"base_weights":[-1.3923904E0,-1.5340749E2,1.9870807E2,-2.126318E2,-8.874E1,1.315608E2,3.4090277E2,-7.435569E-1,-5.5356467E-1,-1.16107765E2,-4.407872E1,8.614731E1,5.5485296E-1,8.1344485E-1,1.1423724E0,-3.8173887E-1,-2.6607677E-1,-5.427024E1,-1.5890541E1,5.710899E1,3.2336044E-1,-5.806145E1,-7.661236E-2,-7.774624E0,-1.0592177E-1,3.7887844E1,2.068797E-1,-1.8532832E-1,-7.318666E-2,-5.76833E-2,5.0883833E-3,4.294735E-2,1.2847686E-1],"categories":[],"categories_nodes":[],"categories_segments":[],"categories_sizes":[],"default_left":[0,0,0,0,0,0,0,0,0,0,0,0,0,0,0,0,0,0,0,0,0,0,0,0,0,0,0,0,0,0,0,0,0],"id":0,"left_children":[1,3,5,7,9,11,13,-1,-1,15,17,19,-1,-1,-1,-1,-1,21,23,25,-1,27,-1,29,-1,31,-1,-1,-1,-1,-1,-1,-1],"loss_changes":[2.2722558E7,1.597455E6,3.011904E6,1.49662E5,2.4348562E5,5.1313E5,1.30251E5,0E0,0E0,2.1678875E4,2.1825484E4,6.7726E4,0E0,0E0,0E0,0E0,0E0,4.140047E3,3.2871753E3,8.7124375E3,0E0,4.0461875E3,0E0,2.0573647E3,0E0,1.9263047E3,0E0,0E0,0E0,0E0,0E0,0E0,0E0],"parents":[2147483647,0,0,1,1,2,2,3,3,4,4,5,5,6,6,9,9,10,10,11,11,17,17,18,18,19,19,21,21,23,23,25,25],"right_children":[2,4,6,8,10,12,14,-1,-1,16,18,20,-1,-1,-1,-1,-1,22,24,26,-1,28,-1,30,-1,32,-1,-1,-1,-1,-1,-1,-1],"split_conditions":[1.1685E3,1.0049E3,1.3965E3,9.36E2,1.0754E3,1.29585E3,1.49115E3,-7.435569E-1,-5.5356467E-1,1.057E3,1.12365E3,1.23515E3,5.5485296E-1,8.1344485E-1,1.1423724E0,-3.8173887E-1,-2.6607677E-1,1.12525E3,1.0792748E7,1.21065E3,3.2336044E-1,6.655024E1,-7.661236E-2,1.1142928E3,-1.0592177E-1,1.4034791E-2,2.068797E-1,-1.8532832E-1,-7.318666E-2,-5.76833E-2,5.0883833E-3,4.294735E-2,1.2847686E-1],"split_indices":[3,3,3,3,3,3,3,0,0,1,3,3,0,0,0,0,0,0,8,3,0,11,0,6,0,14,0,0,0,0,0,0,0],"split_type":[0,0,0,0,0,0,0,0,0,0,0,0,0,0,0,0,0,0,0,0,0,0,0,0,0,0,0,0,0,0,0,0,0],"sum_hessian":[7.44E2,4.23E2,3.21E2,2.19E2,2.04E2,2.2E2,1.01E2,9.2E1,1.27E2,1.25E2,7.9E1,1.21E2,9.9E1,4.1E1,6E1,8.5E1,4E1,5.7E1,2.2E1,5.4E1,6.7E1,4.9E1,8E0,1.7E1,5E0,2.3E1,3.1E1,4.3E1,6E0,7E0,1E1,5E0,1.8E1],"tree_param":{"num_deleted":"0","num_feature":"16","num_nodes":"33","size_leaf_vector":"1"}},{"base_weights":[1.0662175E0,-1.514155E2,2.0477316E2,-1.9785626E2,-6.923703E1,1.3254738E2,3.369665E2,-2.3468031E2,-4.756534E-1,-3.0963615E-1,-4.0737385E1,9.016393E1,5.4404217E-1,8.030406E-1,1.1254635E0,-8.4347004E-1,-6.4680517E-1,-5.558722E1,-3.9649026E0,5.4790436E1,3.2709983E-1,-6.4165016E1,-4.301647E1,4.669971E-2,-1.3678505E1,4.459507E-2,5.9516556E1,-1.0348211E-1,-2.101391E-1,-1.4353006E-1,-6.790959E-2,-1.1198544E-1,6.434701E-3,1.887748E-1,8.61741E-2],"categories":[],"categories_nodes":[],"categories_segments":[],"categories_sizes":[],"default_left":[0,0,0,0,0,0,0,0,0,0,0,0,0,0,0,0,0,0,0,0,0,0,0,0,0,0,0,0,0,0,0,0,0,0,0],"id":1,"left_children":[1,3,5,7,9,11,13,15,-1,-1,17,19,-1,-1,-1,-1,-1,21,23,25,-1,27,29,-1,31,-1,33,-1,-1,-1,-1,-1,-1,-1,-1],"loss_changes":[2.2892308E7,1.588051E6,2.945277E6,3.32768E5,1.4327738E5,4.0255325E5,1.41676E5,2.9172E4,0E0,0E0,4.6898094E4,6.6781E4,0E0,0E0,0E0,0E0,0E0,2.4805469E3,5.346808E3,6.684914E3,0E0,2.2112031E3,1.2704062E3,0E0,7.046745E3,0E0,1.2152188E3,0E0,0E0,0E0,0E0,0E0,0E0,0E0,0E0],"parents":[2147483647,0,0,1,1,2,2,3,3,4,4,5,5,6,6,7,7,10,10,11,11,17,17,18,18,19,19,21,21,22,22,24,24,26,26],"right_children":[2,4,6,8,10,12,14,16,-1,-1,18,20,-1,-1,-1,-1,-1,22,24,26,-1,28,30,-1,32,-1,34,-1,-1,-1,-1,-1,-1,-1,-1],"split_conditions":[1.196E3,1.04E3,1.4124E3,9.7235E2,1.08975E3,1.312E3,1.49775E3,9.138E2,-4.756534E-1,-3.0963615E-1,1.12945E3,1.25265E3,5.4404217E-1,8.030406E-1,1.1254635E0,-8.4347004E-1,-6.4680517E-1,1.0966786E3,-2.3596012E1,-1.8964293E1,3.2709983E-1,1.055762E3,2.37E1,4.669971E-2,-1.2360893E-1,4.459507E-2,1.2469E3,-1.0348211E-1,-2.101391E-1,-1.4353006E-1,-6.790959E-2,-1.1198544E-1,6.434701E-3,1.887748E-1,8.61741E-2],"split_indices":[1,1,1,1,1,1,1,1,0,0,0,1,0,0,0,0,0,6,12,12,0,7,15,0,12,0,5,0,0,0,0,0,0,0,0],"split_type":[0,0,0,0,0,0,0,0,0,0,0,0,0,0,0,0,0,0,0,0,0,0,0,0,0,0,0,0,0,0,0,0,0,0,0],"sum_hessian":[7.34E2,4.2E2,3.14E2,2.67E2,1.53E2,2.05E2,1.09E2,1.34E2,1.33E2,6.8E1,8.5E1,1.12E2,9.3E1,4.3E1,6.6E1,3.3E1,1.01E2,6E1,2.5E1,4.1E1,7.1E1,3.2E1,2.8E1,8E0,1.7E1,5E0,3.6E1,7E0,2.5E1,2.1E1,7E0,6E0,1.1E1,3.1E1,5E0],"tree_param":{"num_deleted":"0","num_feature":"16","num_nodes":"35","size_leaf_vector":"1"}},{"base_weights":[-6.118265E0,-1.5291759E2,2.0262303E2,-2.03649E2,-7.346613E1,1.2760712E2,3.3761475E2,-2.3830167E2,-4.9419197E-1,-3.201842E-1,-4.368642E1,8.5721756E1,5.36377E-1,8.0595684E-1,1.1535794E0,-8.3213186E-1,-6.488941E-1,-5.5091724E1,-1.5171437E1,4.1990665E1,3.0990565E-1,-5.8692055E1,-7.377307E-2,-3.1238534E0,-2.4967102E1,3.2951895E-2,4.793678E1,-6.6970445E-2,-1.8454804E-1,-5.8699768E-2,2.5827462E-2,-2.4961662E-2,-1.0246924E-1,8.88321E-2,1.6630949E-1],"categories":[],"categories_nodes":[],"categories_segments":[],"categories_sizes":[],"default_left":[0,0,0,0,0,0,0,0,0,0,0,0,0,0,0,0,0,0,0,0,0,0,0,0,0,0,0,0,0,0,0,0,0,0,0],"id":2,"left_children":[1,3,5,7,9,11,13,15,-1,-1,17,19,-1,-1,-1,-1,-1,21,23,25,-1,27,-1,29,31,-1,33,-1,-1,-1,-1,-1,-1,-1,-1],"loss_changes":[2.252317E7,1.716772E6,3.008732E6,2.95091E5,1.6187662E5,4.004065E5,1.92757E5,2.64595E4,0E0,0E0,2.8822297E4,7.919981E4,0E0,0E0,0E0,0E0,0E0,5.0194375E3,3.243603E3,5.565051E3,0E0,3.8372031E3,0E0,3.0511533E3,1.9404922E3,0E0,1.4462695E3,0E0,0E0,0E0,0E0,0E0,0E0,0E0,0E0],"parents":[2147483647,0,0,1,1,2,2,3,3,4,4,5,5,6,6,7,7,10,10,11,11,17,17,18,18,19,19,21,21,23,23,24,24,26,26],"right_children":[2,4,6,8,10,12,14,16,-1,-1,18,20,-1,-1,-1,-1,-1,22,24,26,-1,28,-1,30,32,-1,34,-1,-1,-1,-1,-1,-1,-1,-1],"split_conditions":[1.1685E3,1.02395E3,1.39185E3,9.541E2,1.08975E3,1.29585E3,1.49115E3,9.138E2,-4.9419197E-1,-3.201842E-1,1.12365E3,1.2263E3,5.36377E-1,8.0595684E-1,1.1535794E0,-8.3213186E-1,-6.488941E-1,1.122E3,1.1206738E3,-1.6426935E1,3.0990565E-1,9.295865E-3,-7.377307E-2,1.1142928E3,1.12845E3,3.2951895E-2,1.4993545E-2,-6.6970445E-2,-1.8454804E-1,-5.8699768E-2,2.5827462E-2,-2.4961662E-2,-1.0246924E-1,8.88321E-2,1.6630949E-1],"split_indices":[3,3,3,3,1,3,3,1,0,0,3,3,0,0,0,0,0,0,7,12,0,14,0,6,5,0,14,0,0,0,0,0,0,0,0],"split_type":[0,0,0,0,0,0,0,0,0,0,0,0,0,0,0,0,0,0,0,0,0,0,0,0,0,0,0,0,0,0,0,0,0,0,0],"sum_hessian":[7.32E2,4.3E2,3.02E2,2.61E2,1.69E2,1.96E2,1.06E2,1.34E2,1.27E2,7.8E1,9.1E1,1.1E2,8.6E1,4.7E1,5.9E1,4.2E1,9.2E1,6.4E1,2.7E1,3.3E1,7.7E1,5.6E1,8E0,1.3E1,1.4E1,6E0,2.7E1,5E0,5.1E1,5E0,8E0,6E0,8E0,1E1,1.7E1],"tree_param":{"num_deleted":"0","num_feature":"16","num_nodes":"35","size_leaf_vector":"1"}},{"base_weights":[3.9991891E0,-1.5267918E2,2.0440598E2,-2.1419875E2,-9.4600136E1,1.314086E2,3.4535858E2,-7.40953E-1,-5.548091E-1,-1.2314763E2,-4.9421967E1,8.934629E1,5.6635225E-1,8.122094E-1,3.8299405E2,-3.9746392E-1,-2.848066E-1,-5.8523308E1,-1.5389046E1,4.745642E1,1.0293262E2,1.1805177E0,5.6600577E-1,-7.059154E-2,-6.072123E1,-7.676035E-2,-4.062105E0,3.0058655E1,5.4726875E1,2.5359413E-1,3.4435502E-1,-1.8867034E-1,-9.580663E-2,-3.7310965E-2,1.570441E-2,1.15640394E-1,3.6020327E-2,1.8522646E-1,6.95848E-2],"categories":[],"categories_nodes":[],"categories_segments":[],"categories_sizes":[],"default_left":[0,0,0,0,0,0,0,0,0,0,0,0,0,0,0,0,0,0,0,0,0,0,0,0,0,0,0,0,0,0,0,0,0,0,0,0,0,0,0],"id":3,"left_children":[1,3,5,7,9,11,13,-1,-1,15,17,19,-1,-1,21,-1,-1,23,25,27,29,-1,-1,-1,31,-1,33,35,37,-1,-1,-1,-1,-1,-1,-1,-1,-1,-1],"loss_changes":[2.3580674E7,1.475593E6,3.32216E6,1.26677E5,2.7394762E5,5.04401E5,1.57539E5,0E0,0E0,1.628925E4,2.574439E4,6.635994E4,0E0,0E0,3.2591E4,0E0,0E0,3.1167969E3,2.2090693E3,1.8878906E3,6.4721875E3,0E0,0E0,0E0,9.4234375E2,0E0,9.9377405E2,1.3692754E3,2.820461E3,0E0,0E0,0E0,0E0,0E0,0E0,0E0,0E0,0E0,0E0],"parents":[2147483647,0,0,1,1,2,2,3,3,4,4,5,5,6,6,9,9,10,10,11,11,14,14,17,17,18,18,19,19,20,20,24,24,26,26,27,27,28,28],"right_children":[2,4,6,8,10,12,14,-1,-1,16,18,20,-1,-1,22,-1,-1,24,26,28,30,-1,-1,-1,32,-1,34,36,38,-1,-1,-1,-1,-1,-1,-1,-1,-1,-1],"split_conditions":[1.1685E3,9.965E2,1.3965E3,9.36E2,1.06715E3,1.3041E3,1.49115E3,-7.40953E-1,-5.548091E-1,1.04455E3,1.12365E3,1.2263E3,5.6635225E-1,8.122094E-1,9.876647E-1,-3.9746392E-1,-2.848066E-1,9.194374E-3,1.12525E3,1.4747837E-2,1.25795E3,1.1805177E0,5.6600577E-1,-7.059154E-2,7.193683E1,-7.676035E-2,1.5148858E-2,9.375484E6,1.5195E2,2.5359413E-1,3.4435502E-1,-1.8867034E-1,-9.580663E-2,-3.7310965E-2,1.570441E-2,1.15640394E-1,3.6020327E-2,1.8522646E-1,6.95848E-2],"split_indices":[3,0,3,3,3,3,3,0,0,3,3,3,0,0,13,0,0,14,0,14,3,0,0,0,11,0,14,8,15,0,0,0,0,0,0,0,0,0,0],"split_type":[0,0,0,0,0,0,0,0,0,0,0,0,0,0,0,0,0,0,0,0,0,0,0,0,0,0,0,0,0,0,0,0,0,0,0,0,0,0,0],"sum_hessian":[7.48E2,4.2E2,3.28E2,2.02E2,2.18E2,2.18E2,1.1E2,9E1,1.12E2,1.32E2,8.6E1,1.28E2,9E1,4.1E1,6.9E1,9.5E1,3.7E1,6.7E1,1.9E1,3.3E1,9.5E1,6.4E1,5E0,5E0,6.2E1,9E0,1E1,1.2E1,2.1E1,4.2E1,5.3E1,5.6E1,6E0,5E0,5E0,7E0,5E0,1.6E1,5E0],"tree_param":{"num_deleted":"0","num_feature":"16","num_nodes":"39","size_leaf_vector":"1"}},{"base_weights":[-5.47709E0,-1.5368689E2,2.0138066E2,-2.1673286E2,-9.565777E1,1.3256702E2,3.5406058E2,-7.6163816E-1,-5.673919E-1,-1.234589E2,-4.978908E1,8.336467E1,1.8602715E2,8.038675E-1,1.1716384E0,-3.9935994E-1,-2.8539732E-1,-6.057655E1,-3.4715002E0,3.914962E1,9.668893E1,4.753828E-1,6.2203574E-1,-6.703878E1,-1.216973E-1,-1.4250957E1,5.9106994E-2,3.0872354E-2,1.3757016E-1,2.2616592E-1,3.255244E-1,-6.7514695E-2,-2.1304132E-1,-7.120502E-2,-5.7101464E-3],"categories":[],"categories_nodes":[],"categories_segments":[],"categories_sizes":[],"default_left":[0,0,0,0,0,0,0,0,0,0,0,0,0,0,0,0,0,0,0,0,0,0,0,0,0,0,0,0,0,0,0,0,0,0,0],"id":4,"left_children":[1,3,5,7,9,11,13,-1,-1,15,17,19,21,-1,-1,-1,-1,23,25,27,29,-1,-1,31,-1,33,-1,-1,-1,-1,-1,-1,-1,-1,-1],"loss_changes":[2.3024852E7,1.569465E6,3.223322E6,1.41712E5,2.8469625E5,5.514455E5,1.46123E5,0E0,0E0,1.997825E4,4.439678E4,6.2942375E4,1.150175E4,0E0,0E0,0E0,0E0,5.2853125E3,5.0419453E3,4.9965234E3,9.9913125E3,0E0,0E0,6.8870625E3,0E0,1.5105884E3,0E0,0E0,0E0,0E0,0E0,0E0,0E0,0E0,0E0],"parents":[2147483647,0,0,1,1,2,2,3,3,4,4,5,5,6,6,9,9,10,10,11,11,12,12,17,17,18,18,19,19,20,20,23,23,25,25],"right_children":[2,4,6,8,10,12,14,-1,-1,16,18,20,22,-1,-1,-1,-1,24,26,28,30,-1,-1,32,-1,34,-1,-1,-1,-1,-1,-1,-1,-1,-1],"split_conditions":[1.1685E3,9.9775E2,1.41165E3,9.2935E2,1.06715E3,1.29585E3,1.49115E3,-7.6163816E-1,-5.673919E-1,1.04455E3,1.12965E3,1.22025E3,1.3441E3,8.038675E-1,1.1716384E0,-3.9935994E-1,-2.8539732E-1,1.109E3,1.1781143E3,-1.6426935E1,1.249E3,4.753828E-1,6.2203574E-1,9.295865E-3,-1.216973E-1,-4.8852932E-1,5.9106994E-2,3.0872354E-2,1.3757016E-1,2.2616592E-1,3.255244E-1,-6.7514695E-2,-2.1304132E-1,-7.120502E-2,-5.7101464E-3],"split_indices":[3,3,3,3,3,3,3,0,0,3,3,3,3,0,0,0,0,3,7,12,3,0,0,14,0,12,0,0,0,0,0,0,0,0,0],"split_type":[0,0,0,0,0,0,0,0,0,0,0,0,0,0,0,0,0,0,0,0,0,0,0,0,0,0,0,0,0,0,0,0,0,0,0],"sum_hessian":[7.48E2,4.36E2,3.12E2,2.07E2,2.29E2,2.17E2,9.5E1,8.3E1,1.24E2,1.41E2,8.8E1,1.15E2,1.02E2,3.2E1,6.3E1,1.01E2,4E1,7.1E1,1.7E1,2.8E1,8.7E1,5E1,5.2E1,5.1E1,2E1,1.2E1,5E0,6E0,2.2E1,3.5E1,5.2E1,5E0,4.6E1,6E0,6E0],"tree_param":{"num_deleted":"0","num_feature":"16","num_nodes":"35","size_leaf_vector":"1"}},{"base_weights":[2.903227E0,-1.4933247E2,2.0207497E2,-2.1244148E2,-8.891566E1,1.3512671E2,3.6023306E2,-7.2997296E-1,-5.364897E-1,-1.175827E2,-4.384005E1,8.256628E1,1.846452E2,8.3772564E-1,1.1714107E0,-3.896549E-1,-2.6770452E-1,-5.6972157E1,-1.6062326E1,5.3676723E1,1.0191566E2,4.6684846E-1,6.285167E-1,-1.9428779E-1,-1.2269949E-1,2.9033058E0,-4.027497E1,9.071271E-2,1.7328914E-1,3.1458566E-1,1.5015656E-1,-3.2077905E-2,9.145925E-2,-1.493873E-1,-5.5545285E-2],"categories":[],"categories_nodes":[],"categories_segments":[],"categories_sizes":[],"default_left":[0,0,0,0,0,0,0,0,0,0,0,0,0,0,0,0,0,0,0,0,0,0,0,0,0,0,0,0,0,0,0,0,0,0,0],"id":5,"left_children":[1,3,5,7,9,11,13,-1,-1,15,17,19,21,-1,-1,-1,-1,23,25,27,29,-1,-1,-1,-1,31,33,-1,-1,-1,-1,-1,-1,-1,-1],"loss_changes":[2.2922502E7,1.60544E6,3.394638E6,1.51115E5,2.7847062E5,5.82236E5,7.2702E4,0E0,0E0,2.94985E4,3.0903078E4,5.6342625E4,3.6578E4,0E0,0E0,0E0,0E0,3.4662969E3,1.418498E4,2.1124062E3,2.4256875E3,0E0,0E0,0E0,0E0,7.428789E3,1.4070215E3,0E0,0E0,0E0,0E0,0E0,0E0,0E0,0E0],"parents":[2147483647,0,0,1,1,2,2,3,3,4,4,5,5,6,6,9,9,10,10,11,11,12,12,17,17,18,18,19,19,20,20,25,25,26,26],"right_children":[2,4,6,8,10,12,14,-1,-1,16,18,20,22,-1,-1,-1,-1,24,26,28,30,-1,-1,-1,-1,32,34,-1,-1,-1,-1,-1,-1,-1,-1],"split_conditions":[1.15035E3,9.933E2,1.41165E3,9.322E2,1.0754E3,1.28675E3,1.49115E3,-7.2997296E-1,-5.364897E-1,1.057E3,1.12995E3,1.25265E3,1.3441E3,8.3772564E-1,1.1714107E0,-3.896549E-1,-2.6770452E-1,1.08635E3,1.1364E3,1.1188619E3,1.3395619E3,4.6684846E-1,6.285167E-1,-1.9428779E-1,-1.2269949E-1,1.1077203E7,1.128E3,9.071271E-2,1.7328914E-1,3.1458566E-1,1.5015656E-1,-3.2077905E-2,9.145925E-2,-1.493873E-1,-5.5545285E-2],"split_indices":[2,2,3,2,3,3,3,0,0,1,1,1,3,0,0,0,0,2,5,7,7,0,0,0,0,8,2,0,0,0,0,0,0,0,0],"split_type":[0,0,0,0,0,0,0,0,0,0,0,0,0,0,0,0,0,0,0,0,0,0,0,0,0,0,0,0,0,0,0,0,0,0,0],"sum_hessian":[7.53E2,4.27E2,3.26E2,2.07E2,2.2E2,2.31E2,9.5E1,1.03E2,1.04E2,1.33E2,8.7E1,1.14E2,1.17E2,3E1,6.5E1,8.9E1,4.4E1,5.8E1,2.9E1,4.8E1,6.6E1,5.9E1,5.8E1,3.6E1,2.2E1,1.7E1,1.2E1,9E0,3.9E1,6.1E1,5E0,1.2E1,5E0,7E0,5E0],"tree_param":{"num_deleted":"0","num_feature":"16","num_nodes":"35","size_leaf_vector":"1"}},{"base_weights":[-5.6020226E0,-1.5583064E2,1.9433466E2,-2.1160446E2,-9.1292404E1,1.20393074E2,3.3709787E2,-7.4571025E-1,-5.423942E-1,-1.1684812E2,-4.824443E1,7.810796E1,1.7783722E2,7.998546E-1,3.7618365E2,-3.8582602E-1,-2.7234733E-1,-5.7284798E1,-1.9352335E1,4.8848103E1,1.00957306E2,4.0032774E-1,5.66046E-1,1.1591672E0,5.831042E-1,-1.9513945E-1,-1.2853129E-1,4.529813E-3,-3.5884975E1,3.347683E1,1.8817079E-1,1.4195788E-1,3.1218424E-1,-1.3104333E-1,-5.937692E-2,4.7774944E-2,1.4674474E-1],"categories":[],"categories_nodes":[],"categories_segments":[],"categories_sizes":[],"default_left":[0,0,0,0,0,0,0,0,0,0,0,0,0,0,0,0,0,0,0,0,0,0,0,0,0,0,0,0,0,0,0,0,0,0,0,0,0],"id":6,"left_children":[1,3,5,7,9,11,13,-1,-1,15,17,19,21,-1,23,-1,-1,25,27,29,31,-1,-1,-1,-1,-1,-1,-1,33,35,-1,-1,-1,-1,-1,-1,-1],"loss_changes":[2.2227164E7,1.4918E6,3.290652E6,1.8934E5,2.0990175E5,4.9287925E5,1.45627E5,0E0,0E0,2.03235E4,1.831089E4,7.582444E4,4.8085E3,0E0,8.823E3,0E0,0E0,2.2539375E3,7.155337E3,9.104531E3,4.0038125E3,0E0,0E0,0E0,0E0,0E0,0E0,0E0,1.3962402E2,7.089551E3,0E0,0E0,0E0,0E0,0E0,0E0,0E0],"parents":[2147483647,0,0,1,1,2,2,3,3,4,4,5,5,6,6,9,9,10,10,11,11,12,12,14,14,17,17,18,18,19,19,20,20,28,28,29,29],"right_children":[2,4,6,8,10,12,14,-1,-1,16,18,20,22,-1,24,-1,-1,26,28,30,32,-1,-1,-1,-1,-1,-1,-1,34,36,-1,-1,-1,-1,-1,-1,-1],"split_conditions":[1.15355E3,9.933E2,1.39185E3,9.342E2,1.0754E3,1.2909E3,1.49115E3,-7.4571025E-1,-5.423942E-1,1.04455E3,1.12995E3,1.226E3,1.31915E3,7.998546E-1,1.0241756E7,-3.8582602E-1,-2.7234733E-1,1.0966786E3,1.11515E3,1.2138E3,5.3148405E-3,4.0032774E-1,5.66046E-1,1.1591672E0,5.831042E-1,-1.9513945E-1,-1.2853129E-1,4.529813E-3,1.1162E3,1.5148858E-2,1.8817079E-1,1.4195788E-1,3.1218424E-1,-1.3104333E-1,-5.937692E-2,4.7774944E-2,1.4674474E-1],"split_indices":[3,2,3,3,3,3,3,0,0,3,1,2,3,0,8,0,0,6,5,3,13,0,0,0,0,0,0,0,2,14,0,0,0,0,0,0,0],"split_type":[0,0,0,0,0,0,0,0,0,0,0,0,0,0,0,0,0,0,0,0,0,0,0,0,0,0,0,0,0,0,0,0,0,0,0,0,0],"sum_hessian":[7.37E2,4.21E2,3.16E2,2.24E2,1.97E2,2.1E2,1.06E2,9.7E1,1.27E2,1.22E2,7.5E1,1.23E2,8.7E1,4.2E1,6.4E1,8E1,4.2E1,5.6E1,1.9E1,5.6E1,6.7E1,2.1E1,6.6E1,5.9E1,5E0,3.3E1,2.3E1,9E0,1E1,2.9E1,2.7E1,5E0,6.2E1,5E0,5E0,1.5E1,1.4E1],"tree_param":{"num_deleted":"0","num_feature":"16","num_nodes":"37","size_leaf_vector":"1"}},{"base_weights":[-7.1422184E-1,-1.536799E2,1.9910455E2,-2.1340929E2,-9.144806E1,1.26358635E2,3.357978E2,-7.251463E-1,-5.405694E-1,-1.2387724E2,-4.9330276E1,8.1080635E1,1.7417908E2,7.828961E-1,3.7323248E2,-3.9864632E-1,-3.0245647E-1,-6.187913E1,-1.8530468E1,5.7672066E1,1.0237232E2,4.138327E-1,5.6461096E-1,1.153069E0,5.198435E-1,-6.632526E1,-1.11141324E-1,-3.1854668E1,-1.4446037E0,3.9665054E1,6.501065E1,1.4163026E-1,3.188253E-1,-2.0756546E-1,-1.15825914E-1,-5.8874E-2,-1.1327127E-1,-3.3918492E-2,3.0022256E-2,5.6354724E-2,1.3906486E-1,1.0217853E-1,2.0430657E-1],"categories":[],"categories_nodes":[],"categories_segments":[],"categories_sizes":[],"default_left":[0,0,0,0,0,0,0,0,0,0,0,0,0,0,0,0,0,0,0,0,0,0,0,0,0,0,0,0,0,0,0,0,0,0,0,0,0,0,0,0,0,0,0],"id":7,"left_children":[1,3,5,7,9,11,13,-1,-1,15,17,19,21,-1,23,-1,-1,25,27,29,31,-1,-1,-1,-1,33,-1,35,37,39,41,-1,-1,-1,-1,-1,-1,-1,-1,-1,-1,-1,-1],"loss_changes":[2.30158E7,1.556026E6,3.182983E6,1.38205E5,2.7969262E5,4.45394E5,1.68984E5,0E0,0E0,4.48625E3,3.4796453E4,4.7697312E4,1.362125E4,0E0,5.9074E4,0E0,0E0,3.6459531E3,6.6434814E3,3.7199219E3,4.8376875E3,0E0,0E0,0E0,0E0,3.0735938E2,0E0,7.3884766E1,1.8074028E3,1.5508887E3,1.944375E2,0E0,0E0,0E0,0E0,0E0,0E0,0E0,0E0,0E0,0E0,0E0,0E0],"parents":[2147483647,0,0,1,1,2,2,3,3,4,4,5,5,6,6,9,9,10,10,11,11,12,12,14,14,17,17,18,18,19,19,20,20,25,25,27,27,28,28,29,29,30,30],"right_children":[2,4,6,8,10,12,14,-1,-1,16,18,20,22,-1,24,-1,-1,26,28,30,32,-1,-1,-1,-1,34,-1,36,38,40,42,-1,-1,-1,-1,-1,-1,-1,-1,-1,-1,-1,-1],"split_conditions":[1.15035E3,9.933E2,1.4124E3,9.5135E2,1.0799E3,1.302E3,1.49775E3,-7.251463E-1,-5.405694E-1,1.0261E3,1.12995E3,1.2587E3,1.311E3,7.828961E-1,6.7985195E-1,-3.9864632E-1,-3.0245647E-1,1.0953E3,6.956096E-1,1.2225E3,5.3148405E-3,4.138327E-1,5.6461096E-1,1.153069E0,5.198435E-1,6.655024E1,-1.11141324E-1,1.1215714E3,7.332464E6,1.1119048E3,1.914985E-1,1.4163026E-1,3.188253E-1,-2.0756546E-1,-1.15825914E-1,-5.8874E-2,-1.1327127E-1,-3.3918492E-2,3.0022256E-2,5.6354724E-2,1.3906486E-1,1.0217853E-1,2.0430657E-1],"split_indices":[2,2,1,1,1,1,1,0,0,2,1,1,2,0,9,0,0,2,13,1,13,0,0,0,0,11,0,6,8,7,13,0,0,0,0,0,0,0,0,0,0,0,0],"split_type":[0,0,0,0,0,0,0,0,0,0,0,0,0,0,0,0,0,0,0,0,0,0,0,0,0,0,0,0,0,0,0,0,0,0,0,0,0,0,0,0,0,0,0],"sum_hessian":[7.5E2,4.25E2,3.25E2,2.15E2,2.1E2,2.14E2,1.11E2,1.11E2,1.04E2,1.17E2,9.3E1,1.12E2,1.02E2,4.1E1,7E1,7.9E1,3.8E1,6.5E1,2.8E1,5.6E1,5.6E1,3.3E1,6.9E1,6.5E1,5E0,5.3E1,1.2E1,1.5E1,1.3E1,1.9E1,3.7E1,5E0,5.1E1,4.6E1,7E0,7E0,8E0,7E0,6E0,6E0,1.3E1,5E0,3.2E1],"tree_param":{"num_deleted":"0","num_feature":"16","num_nodes":"43","size_leaf_vector":"1"}},{"base_weights":[1.9292016E0,-1.5198123E2,2.0260065E2,-2.1335378E2,-9.267348E1,1.3240216E2,3.51332E2,-7.518239E-1,-5.628416E-1,-1.22157906E2,-5.1925648E1,8.4552246E1,5.725957E-1,8.1300586E-1,1.1508718E0,-3.9369434E-1,-2.8158706E-1,-6.0610558E1,-1.6559093E1,4.7445126E1,1.02579285E2,-2.0414458E-1,-1.350629E-1,-6.6017375E0,-9.745449E-2,6.3302144E-2,5.0041775E1,2.2947897E-1,3.2726842E-1,-4.378588E-2,4.8139417E-3,8.1835166E-2,1.6139448E-1],"categories":[],"categories_nodes":[],"categories_segments":[],"categories_sizes":[],"default_left":[0,0,0,0,0,0,0,0,0,0,0,0,0,0,0,0,0,0,0,0,0,0,0,0,0,0,0,0,0,0,0,0,0],"id":8,"left_children":[1,3,5,7,9,11,13,-1,-1,15,17,19,-1,-1,-1,-1,-1,21,23,25,27,-1,-1,29,-1,-1,31,-1,-1,-1,-1,-1,-1],"loss_changes":[2.294774E7,1.500876E6,3.297306E6,1.26487E5,2.5057675E5,5.95401E5,1.09877E5,0E0,0E0,1.3465125E4,2.720586E4,7.5966625E4,0E0,0E0,0E0,0E0,0E0,4.0315312E3,2.9252598E3,1.3847266E3,1.4753125E3,0E0,0E0,9.876033E2,0E0,0E0,1.0826562E3,0E0,0E0,0E0,0E0,0E0,0E0],"parents":[2147483647,0,0,1,1,2,2,3,3,4,4,5,5,6,6,9,9,10,10,11,11,17,17,18,18,19,19,20,20,23,23,26,26],"right_children":[2,4,6,8,10,12,14,-1,-1,16,18,20,-1,-1,-1,-1,-1,22,24,26,28,-1,-1,30,-1,-1,32,-1,-1,-1,-1,-1,-1],"split_conditions":[1.15355E3,9.967E2,1.41165E3,9.2935E2,1.063E3,1.2977E3,1.49115E3,-7.518239E-1,-5.628416E-1,1.04455E3,1.12365E3,1.23205E3,5.725957E-1,8.1300586E-1,1.1508718E0,-3.9369434E-1,-2.8158706E-1,1.0966786E3,1.1299E3,1.1476929E3,1.249E3,-2.0414458E-1,-1.350629E-1,7.679193E6,-9.745449E-2,6.3302144E-2,1.3621481E-2,2.2947897E-1,3.2726842E-1,-4.378588E-2,4.8139417E-3,8.1835166E-2,1.6139448E-1],"split_indices":[3,3,3,3,3,3,3,0,0,3,3,3,0,0,0,0,0,6,5,6,3,0,0,8,0,0,14,0,0,0,0,0,0],"split_type":[0,0,0,0,0,0,0,0,0,0,0,0,0,0,0,0,0,0,0,0,0,0,0,0,0,0,0,0,0,0,0,0,0],"sum_hessian":[7.4E2,4.19E2,3.21E2,2.04E2,2.15E2,2.2E2,1.01E2,7.8E1,1.26E2,1.23E2,9.2E1,1.23E2,9.7E1,3.3E1,6.8E1,8.9E1,3.4E1,7.3E1,1.9E1,4.2E1,8.1E1,4.6E1,2.7E1,1.3E1,6E0,5E0,3.7E1,2E1,6.1E1,6E0,7E0,7E0,3E1],"tree_param":{"num_deleted":"0","num_feature":"16","num_nodes":"33","size_leaf_vector":"1"}},{"base_weights":[-2.655062E0,-1.5010013E2,1.9717493E2,-2.0943878E2,-8.856384E1,1.3612964E2,3.543072E2,-7.4226785E-1,-5.464341E-1,-1.1380875E2,-3.9184723E1,8.256101E1,1.8884225E2,8.2110757E-1,1.1519471E0,-3.825021E-1,-2.6088932E-1,-5.1584667E1,-1.1222506E1,5.536868E1,1.0204901E2,4.9012122E-1,6.412936E-1,-1.7117748E-1,-2.8087107E1,-2.948402E1,9.838631E0,7.010483E-2,5.9612507E1,3.144452E-1,1.5821478E-1,-1.2214435E-1,-3.45371E-2,-3.86033E-2,-1.1092723E-1,-4.0487934E-2,8.43227E-2,1.1482128E-1,2.0256525E-1],"categories":[],"categories_nodes":[],"categories_segments":[],"categories_sizes":[],"default_left":[0,0,0,0,0,0,0,0,0,0,0,0,0,0,0,0,0,0,0,0,0,0,0,0,0,0,0,0,0,0,0,0,0,0,0,0,0,0,0],"id":9,"left_children":[1,3,5,7,9,11,13,-1,-1,15,17,19,21,-1,-1,-1,-1,23,25,27,29,-1,-1,-1,31,33,35,-1,37,-1,-1,-1,-1,-1,-1,-1,-1,-1,-1],"loss_changes":[2.1685658E7,1.518548E6,2.925161E6,1.54737E5,2.556985E5,6.18988E5,4.9193E4,0E0,0E0,3.4255125E4,2.461E4,5.2715E4,1.96195E4,0E0,0E0,0E0,0E0,4.0837188E3,9.85999E3,4.8960625E3,6.265625E2,0E0,0E0,0E0,1.9079482E3,9.618613E2,5.8992E3,0E0,3.623375E3,0E0,0E0,0E0,0E0,0E0,0E0,0E0,0E0,0E0,0E0],"parents":[2147483647,0,0,1,1,2,2,3,3,4,4,5,5,6,6,9,9,10,10,11,11,12,12,17,17,18,18,19,19,20,20,24,24,25,25,26,26,28,28],"right_children":[2,4,6,8,10,12,14,-1,-1,16,18,20,22,-1,-1,-1,-1,24,26,28,30,-1,-1,-1,32,34,36,-1,38,-1,-1,-1,-1,-1,-1,-1,-1,-1,-1],"split_conditions":[1.15035E3,9.933E2,1.40425E3,9.439E2,1.06565E3,1.312E3,1.52445E3,-7.4226785E-1,-5.464341E-1,1.057E3,1.13855E3,1.226E3,1.3367E3,8.2110757E-1,1.1519471E0,-3.825021E-1,-2.6088932E-1,6.655024E1,7.7053386E-1,7.129723E-2,1.3101E3,4.9012122E-1,6.412936E-1,-1.7117748E-1,-2.3076478E-1,-2.6651678E1,-6.5349005E-2,7.010483E-2,1.2225E3,3.144452E-1,1.5821478E-1,-1.2214435E-1,-3.45371E-2,-3.86033E-2,-1.1092723E-1,-4.0487934E-2,8.43227E-2,1.1482128E-1,2.0256525E-1],"split_indices":[2,2,2,1,2,1,1,0,0,1,1,2,2,0,0,0,0,11,13,13,5,0,0,0,9,12,9,0,1,0,0,0,0,0,0,0,0,0,0],"split_type":[0,0,0,0,0,0,0,0,0,0,0,0,0,0,0,0,0,0,0,0,0,0,0,0,0,0,0,0,0,0,0,0,0,0,0,0,0,0,0],"sum_hessian":[7.33E2,4.22E2,3.11E2,2.13E2,2.09E2,2.26E2,8.5E1,8.4E1,1.29E2,1.37E2,7.2E1,1.14E2,1.12E2,2.7E1,5.8E1,8.7E1,5E1,4.9E1,2.3E1,5E1,6.4E1,6.1E1,5.1E1,3.8E1,1.1E1,1.2E1,1.1E1,7E0,4.3E1,5.9E1,5E0,5E0,6E0,5E0,7E0,5E0,6E0,1.4E1,2.9E1],"tree_param":{"num_deleted":"0","num_feature":"16","num_nodes":"39","size_leaf_vector":"1"}},{"base_weights":[4.7795537E-1,-1.4436263E2,2.035257E2,-2.0694046E2,-8.542857E1,1.26498055E2,3.372639E2,-7.264131E-1,-5.285299E-1,-1.1553449E2,-3.9629448E1,8.626531E1,5.302406E-1,7.741248E-1,1.1177723E0,-3.819183E-1,-2.61048E-1,-5.5644924E1,-6.505551E0,5.5570766E1,3.1532753E-1,-6.235993E1,-1.3034785E-1,-1.6873968E1,1.4620338E1,5.0896496E-2,5.951143E1,-1.9606513E-1,-9.8934636E-2,-2.1389844E-2,-1.0476805E-1,-2.9754063E-2,1.0740048E-1,1.9067337E-1,9.6294425E-2],"categories":[],"categories_nodes":[],"categories_segments":[],"categories_sizes":[],"default_left":[0,0,0,0,0,0,0,0,0,0,0,0,0,0,0,0,0,0,0,0,0,0,0,0,0,0,0,0,0,0,0,0,0,0,0],"id":10,"left_children":[1,3,5,7,9,11,13,-1,-1,15,17,19,-1,-1,-1,-1,-1,21,23,25,-1,27,-1,29,31,-1,33,-1,-1,-1,-1,-1,-1,-1,-1],"loss_changes":[2.2498272E7,1.62013E6,3.216998E6,1.69313E5,3.1369338E5,3.9052975E5,1.78969E5,0E0,0E0,3.01935E4,4.958253E4,5.8606438E4,0E0,0E0,0E0,0E0,0E0,1.1254375E3,7.489146E3,5.7040625E3,0E0,5.7296875E1,0E0,3.579309E3,6.511946E3,0E0,1.6445781E3,0E0,0E0,0E0,0E0,0E0,0E0,0E0,0E0],"parents":[2147483647,0,0,1,1,2,2,3,3,4,4,5,5,6,6,9,9,10,10,11,11,17,17,18,18,19,19,21,21,23,23,24,24,26,26],"right_children":[2,4,6,8,10,12,14,-1,-1,16,18,20,-1,-1,-1,-1,-1,22,24,26,-1,28,-1,30,32,-1,34,-1,-1,-1,-1,-1,-1,-1,-1],"split_conditions":[1.16955E3,9.933E2,1.37855E3,9.5135E2,1.08975E3,1.312E3,1.49775E3,-7.264131E-1,-5.285299E-1,1.057E3,1.12995E3,1.226E3,5.302406E-1,7.741248E-1,1.1177723E0,-3.819183E-1,-2.61048E-1,1.08635E3,6.23E1,-1.3617615E1,3.1532753E-1,6.711062E1,-1.3034785E-1,1.8089014E-1,1.2593407E10,5.0896496E-2,1.2469E3,-1.9606513E-1,-9.8934636E-2,-2.1389844E-2,-1.0476805E-1,-2.9754063E-2,1.0740048E-1,1.9067337E-1,9.6294425E-2],"split_indices":[2,2,2,1,1,1,1,0,0,1,1,2,0,0,0,0,0,2,15,12,0,11,0,9,10,0,5,0,0,0,0,0,0,0,0],"split_type":[0,0,0,0,0,0,0,0,0,0,0,0,0,0,0,0,0,0,0,0,0,0,0,0,0,0,0,0,0,0,0,0,0,0,0],"sum_hessian":[7.62E2,4.45E2,3.17E2,2.14E2,2.31E2,2.03E2,1.14E2,9.5E1,1.19E2,1.38E2,9.3E1,1.15E2,8.8E1,3.9E1,7.5E1,9.4E1,4.4E1,6.2E1,3.1E1,4.6E1,6.9E1,3.6E1,2.6E1,2.1E1,1E1,5E0,4.1E1,3.1E1,5E0,1.5E1,6E0,5E0,5E0,3.4E1,7E0],"tree_param":{"num_deleted":"0","num_feature":"16","num_nodes":"35","size_leaf_vector":"1"}},{"base_weights":[1.7307475E0,-1.45965E2,1.9402336E2,-2.0065494E2,-7.968551E1,1.11567566E2,3.0494543E2,-7.1308273E-1,-5.0543606E-1,-1.10668594E2,-4.182692E1,7.447044E1,1.540196E2,7.136988E-1,1.070552E0,-3.6592045E-1,-2.7104276E-1,-5.6580956E1,-7.266652E0,4.1062294E1,2.5994056E-1,3.442576E-1,5.0683105E-1,-1.7968066E-1,-6.0889643E-2,-1.933831E1,8.287596E0,2.4102015E1,1.5476929E-1,-3.8559236E-2,-7.9002336E-2,7.39306E-2,-1.701191E-2,9.089394E-2,4.3109782E-2],"categories":[],"categories_nodes":[],"categories_segments":[],"categories_sizes":[],"default_left":[0,0,0,0,0,0,0,0,0,0,0,0,0,0,0,0,0,0,0,0,0,0,0,0,0,0,0,0,0,0,0,0,0,0,0],"id":11,"left_children":[1,3,5,7,9,11,13,-1,-1,15,17,19,21,-1,-1,-1,-1,23,25,27,-1,-1,-1,-1,-1,29,31,33,-1,-1,-1,-1,-1,-1,-1],"loss_changes":[2.1215282E7,1.507476E6,2.916855E6,2.14597E5,2.2001225E5,2.7963125E5,3.51103E5,0E0,0E0,7.684875E3,4.5013234E4,3.6753312E4,2.1582625E4,0E0,0E0,0E0,0E0,5.6807656E3,5.592826E3,3.573043E3,0E0,0E0,0E0,0E0,0E0,2.3696436E2,3.2935635E3,2.1680957E2,0E0,0E0,0E0,0E0,0E0,0E0,0E0],"parents":[2147483647,0,0,1,1,2,2,3,3,4,4,5,5,6,6,9,9,10,10,11,11,12,12,17,17,18,18,19,19,25,25,26,26,27,27],"right_children":[2,4,6,8,10,12,14,-1,-1,16,18,20,22,-1,-1,-1,-1,24,26,28,-1,-1,-1,-1,-1,30,32,34,-1,-1,-1,-1,-1,-1,-1],"split_conditions":[1.1685E3,1.0131E3,1.36E3,9.4335E2,1.0754E3,1.27585E3,1.4578E3,-7.1308273E-1,-5.0543606E-1,1.04455E3,1.11375E3,1.22025E3,1.3041E3,7.136988E-1,1.070552E0,-3.6592045E-1,-2.7104276E-1,1.122E3,1.1513E3,1.4993545E-2,2.5994056E-1,3.442576E-1,5.0683105E-1,-1.7968066E-1,-6.0889643E-2,1.3467785E0,1.12845E3,1.2297881E3,1.5476929E-1,-3.8559236E-2,-7.9002336E-2,7.39306E-2,-1.701191E-2,9.089394E-2,4.3109782E-2],"split_indices":[3,3,3,3,3,3,3,0,0,3,3,3,3,0,0,0,0,0,3,14,0,0,0,0,0,12,5,7,0,0,0,0,0,0,0],"split_type":[0,0,0,0,0,0,0,0,0,0,0,0,0,0,0,0,0,0,0,0,0,0,0,0,0,0,0,0,0,0,0,0,0,0,0],"sum_hessian":[7.44E2,4.21E2,3.23E2,2.29E2,1.92E2,1.87E2,1.36E2,1.02E2,1.27E2,1.04E2,8.8E1,1.02E2,8.5E1,6.3E1,7.3E1,6.2E1,4.2E1,6.1E1,2.7E1,2.9E1,7.3E1,2.7E1,5.8E1,5.5E1,6E0,1.5E1,1.2E1,1.3E1,1.6E1,1E1,5E0,5E0,7E0,6E0,7E0],"tree_param":{"num_deleted":"0","num_feature":"16","num_nodes":"35","size_leaf_vector":"1"}},{"base_weights":[-1.6396276E0,-1.5068964E2,1.940098E2,-2.1430663E2,-8.632543E1,1.25178764E2,3.404128E2,-8.02391E-1,-1.9417262E2,-1.1769466E2,-4.4402008E1,8.42976E1,5.339093E-1,7.961745E-1,1.1477432E0,-6.1540765E-1,-4.8878142E-1,-3.8777325E-1,-2.6458114E-1,-5.516935E1,-1.3239727E1,5.2745213E1,1.0291128E2,-7.4244075E-2,-5.6923313E1,-2.4431356E1,2.21866E0,3.887312E1,1.8818334E-1,3.1713393E-1,1.635062E-1,-1.7862429E-1,-8.654236E-2,-2.9778235E-2,-8.973329E-2,5.5779237E-2,-5.1514544E-2,4.174264E-2,1.4725363E-1],"categories":[],"categories_nodes":[],"categories_segments":[],"categories_sizes":[],"default_left":[0,0,0,0,0,0,0,0,0,0,0,0,0,0,0,0,0,0,0,0,0,0,0,0,0,0,0,0,0,0,0,0,0,0,0,0,0,0,0],"id":12,"left_children":[1,3,5,7,9,11,13,-1,15,17,19,21,-1,-1,-1,-1,-1,-1,-1,23,25,27,29,-1,31,33,35,37,-1,-1,-1,-1,-1,-1,-1,-1,-1,-1,-1],"loss_changes":[2.2221206E7,1.743159E6,3.256429E6,1.53764E5,2.7818038E5,4.6629275E5,1.78222E5,0E0,5.4945E3,2.500725E4,3.0941094E4,6.848575E4,0E0,0E0,0E0,0E0,0E0,0E0,0E0,1.6404375E3,4.6681484E3,3.463875E3,2.25325E3,0E0,2.2293594E3,7.826865E2,4.4478345E3,5.4683203E3,0E0,0E0,0E0,0E0,0E0,0E0,0E0,0E0,0E0,0E0,0E0],"parents":[2147483647,0,0,1,1,2,2,3,3,4,4,5,5,6,6,8,8,9,9,10,10,11,11,19,19,20,20,21,21,22,22,24,24,25,25,26,26,27,27],"right_children":[2,4,6,8,10,12,14,-1,16,18,20,22,-1,-1,-1,-1,-1,-1,-1,24,26,28,30,-1,32,34,36,38,-1,-1,-1,-1,-1,-1,-1,-1,-1,-1,-1],"split_conditions":[1.1685E3,9.9775E2,1.3965E3,9.119E2,1.06715E3,1.29585E3,1.49115E3,-8.02391E-1,9.6895E2,1.04455E3,1.12365E3,1.23515E3,5.339093E-1,7.961745E-1,1.1477432E0,-6.1540765E-1,-4.8878142E-1,-3.8777325E-1,-2.6458114E-1,9.194374E-3,1.1513E3,1.2138E3,1.4633539E7,-7.4244075E-2,1.12525E3,1.1129E3,1.0098281E7,1.4219395E-2,1.8818334E-1,3.1713393E-1,1.635062E-1,-1.7862429E-1,-8.654236E-2,-2.9778235E-2,-8.973329E-2,5.5779237E-2,-5.1514544E-2,4.174264E-2,1.4725363E-1],"split_indices":[3,3,3,3,3,3,3,0,3,3,3,3,0,0,0,0,0,0,0,14,3,3,8,0,0,4,8,14,0,0,0,0,0,0,0,0,0,0,0],"split_type":[0,0,0,0,0,0,0,0,0,0,0,0,0,0,0,0,0,0,0,0,0,0,0,0,0,0,0,0,0,0,0,0,0,0,0,0,0,0,0],"sum_hessian":[7.59E2,4.31E2,3.28E2,2.15E2,2.16E2,2.25E2,1.03E2,5.4E1,1.61E2,1.22E2,9.4E1,1.29E2,9.6E1,4.1E1,6.2E1,1.13E2,4.8E1,8.4E1,3.8E1,6.9E1,2.5E1,5E1,7.9E1,5E0,6.4E1,1.4E1,1.1E1,2.4E1,2.6E1,7.3E1,6E0,5.7E1,7E0,5E0,9E0,6E0,5E0,8E0,1.6E1],"tree_param":{"num_deleted":"0","num_feature":"16","num_nodes":"39","size_leaf_vector":"1"}},{"base_weights":[-2.7711842E0,-1.4411627E2,2.0255724E2,-2.0438654E2,-7.734763E1,1.3166664E2,3.3959787E2,-7.1618897E-1,-5.184638E-1,-1.1067954E2,-3.659504E1,8.779289E1,5.3275377E-1,7.8064287E-1,1.1318038E0,-3.6261424E-1,-2.627345E-1,-5.1365448E1,7.547994E0,6.3142414E1,3.224792E-1,-5.418844E1,-8.083691E-2,-1.2629265E1,2.179422E1,2.8668514E1,2.149546E-1,-1.70541E-1,-1.0423082E-1,-5.0856885E-2,-1.6129214E-2,9.458368E-2,3.1974062E-2,1.0479295E-1,4.4434164E-2],"categories":[],"categories_nodes":[],"categories_segments":[],"categories_sizes":[],"default_left":[0,0,0,0,0,0,0,0,0,0,0,0,0,0,0,0,0,0,0,0,0,0,0,0,0,0,0,0,0,0,0,0,0,0,0],"id":13,"left_children":[1,3,5,7,9,11,13,-1,-1,15,17,19,-1,-1,-1,-1,-1,21,23,25,-1,27,-1,29,31,33,-1,-1,-1,-1,-1,-1,-1,-1,-1],"loss_changes":[2.1389584E7,1.732805E6,2.852208E6,1.85778E5,2.7848662E5,3.8051325E5,1.56205E5,0E0,0E0,1.1059125E4,6.350497E4,4.1034688E4,0E0,0E0,0E0,0E0,0E0,2.7995938E3,7.7437534E3,1.1722547E4,0E0,3.1089062E2,0E0,2.216283E2,1.1718843E3,3.0370898E2,0E0,0E0,0E0,0E0,0E0,0E0,0E0,0E0,0E0],"parents":[2147483647,0,0,1,1,2,2,3,3,4,4,5,5,6,6,9,9,10,10,11,11,17,17,18,18,19,19,21,21,23,23,24,24,25,25],"right_children":[2,4,6,8,10,12,14,-1,-1,16,18,20,-1,-1,-1,-1,-1,22,24,26,-1,28,-1,30,32,34,-1,-1,-1,-1,-1,-1,-1,-1,-1],"split_conditions":[1.19745E3,1.0104E3,1.3965E3,9.5135E2,1.08975E3,1.29585E3,1.49115E3,-7.1618897E-1,-5.184638E-1,1.057E3,1.13445E3,1.2469E3,5.3275377E-1,7.8064287E-1,1.1318038E0,-3.6261424E-1,-2.627345E-1,1.12365E3,1.15355E3,1.2138E3,3.224792E-1,6.711062E1,-8.083691E-2,7.376575E6,1.1621E3,1.2297881E3,2.149546E-1,-1.70541E-1,-1.0423082E-1,-5.0856885E-2,-1.6129214E-2,9.458368E-2,3.1974062E-2,1.0479295E-1,4.4434164E-2],"split_indices":[3,3,3,1,1,3,3,0,0,1,3,3,0,0,0,0,0,3,3,3,0,11,0,8,2,7,0,0,0,0,0,0,0,0,0],"split_type":[0,0,0,0,0,0,0,0,0,0,0,0,0,0,0,0,0,0,0,0,0,0,0,0,0,0,0,0,0,0,0,0,0,0,0],"sum_hessian":[7.34E2,4.35E2,2.99E2,2.27E2,2.08E2,1.99E2,1E2,1.04E2,1.23E2,1.13E2,9.5E1,1.04E2,9.5E1,3.6E1,6.4E1,7.4E1,3.9E1,7.1E1,2.4E1,4.9E1,5.5E1,6.2E1,9E0,1E1,1.4E1,1.1E1,3.8E1,5.2E1,1E1,5E0,5E0,6E0,8E0,6E0,5E0],"tree_param":{"num_deleted":"0","num_feature":"16","num_nodes":"35","size_leaf_vector":"1"}},{"base_weights":[1.8137254E-1,-1.4642503E2,2.0362978E2,-2.0659024E2,-8.235774E1,1.3139952E2,3.356213E2,-7.313687E-1,-5.457752E-1,-1.15025856E2,-4.043033E1,9.349675E1,5.44875E-1,8.070488E-1,1.1345538E0,-3.6825287E-1,-2.6745975E-1,-5.3638756E1,-1.5307416E0,5.757465E1,3.3009404E-1,-6.637424E1,-3.5681534E1,-1.0934387E1,4.8068803E-2,7.096113E-2,6.1349976E1,-2.1486779E-1,-6.955511E-2,-1.256969E-1,-1.9690908E-2,-6.1156422E-2,7.974946E-3,1.9550201E-1,1.0215507E-1],"categories":[],"categories_nodes":[],"categories_segments":[],"categories_sizes":[],"default_left":[0,0,0,0,0,0,0,0,0,0,0,0,0,0,0,0,0,0,0,0,0,0,0,0,0,0,0,0,0,0,0,0,0,0,0],"id":14,"left_children":[1,3,5,7,9,11,13,-1,-1,15,17,19,-1,-1,-1,-1,-1,21,23,25,-1,27,29,31,-1,-1,33,-1,-1,-1,-1,-1,-1,-1,-1],"loss_changes":[2.2042024E7,1.63001E6,2.884507E6,1.35746E5,2.8132825E5,3.5999675E5,1.54919E5,0E0,0E0,7.047875E3,4.842564E4,6.086475E4,0E0,0E0,0E0,0E0,0E0,1.2560203E4,4.4715405E3,3.0012969E3,0E0,6.4532188E3,5.4663867E3,2.3312104E3,0E0,0E0,3.6085938E2,0E0,0E0,0E0,0E0,0E0,0E0,0E0,0E0],"parents":[2147483647,0,0,1,1,2,2,3,3,4,4,5,5,6,6,9,9,10,10,11,11,17,17,18,18,19,19,21,21,22,22,23,23,26,26],"right_children":[2,4,6,8,10,12,14,-1,-1,16,18,20,-1,-1,-1,-1,-1,22,24,26,-1,28,30,32,-1,-1,34,-1,-1,-1,-1,-1,-1,-1,-1],"split_conditions":[1.16955E3,9.933E2,1.37855E3,9.212E2,1.0664E3,1.2904E3,1.4891E3,-7.313687E-1,-5.457752E-1,1.0403E3,1.1119E3,1.226E3,5.44875E-1,8.070488E-1,1.1345538E0,-3.6825287E-1,-2.6745975E-1,1.08635E3,8.615645E-1,-7.673147E0,3.3009404E-1,1.11065E3,1.0465121E10,1.12385E3,4.8068803E-2,7.096113E-2,4.0281204E1,-2.1486779E-1,-6.955511E-2,-1.256969E-1,-1.9690908E-2,-6.1156422E-2,7.974946E-3,1.9550201E-1,1.0215507E-1],"split_indices":[2,2,2,2,4,2,2,0,0,2,2,2,0,0,0,0,0,2,13,12,0,5,10,6,0,0,12,0,0,0,0,0,0,0,0],"split_type":[0,0,0,0,0,0,0,0,0,0,0,0,0,0,0,0,0,0,0,0,0,0,0,0,0,0,0,0,0,0,0,0,0,0,0],"sum_hessian":[7.36E2,4.28E2,3.08E2,2.19E2,2.09E2,2.01E2,1.07E2,8.2E1,1.37E2,1.16E2,9.3E1,1.17E2,8.4E1,4.6E1,6.1E1,8.5E1,3.1E1,6.9E1,2.4E1,3.9E1,7.8E1,3.8E1,3.1E1,1.6E1,8E0,5E0,3.4E1,3.3E1,5E0,2.5E1,6E0,9E0,7E0,2.8E1,6E0],"tree_param":{"num_deleted":"0","num_feature":"16","num_nodes":"35","size_leaf_vector":"1"}},{"base_weights":[2.2041335E0,-1.4827179E2,1.9660802E2,-2.1141508E2,-9.320975E1,1.2602612E2,3.2775638E2,-7.2296214E-1,-5.4400384E-1,-1.19450676E2,-4.650665E1,8.3242035E1,1.7118535E2,7.924759E-1,1.0961957E0,-3.839864E-1,-2.7480343E-1,-5.664001E1,-1.37999E1,4.3900993E1,9.579474E1,3.8219863E-1,5.3906596E-1,-2.2880407E-1,-4.9708565E1,-2.639852E1,5.900115E-1,4.1521776E-2,4.9184307E1,2.2570948E-1,3.1448147E-1,-3.6446992E-2,-1.6029982E-1,-3.805804E-2,-1.0201103E-1,-1.8225912E-2,2.1403667E-2,1.594437E-1,7.7783756E-2],"categories":[],"categories_nodes":[],"categories_segments":[],"categories_sizes":[],"default_left":[0,0,0,0,0,0,0,0,0,0,0,0,0,0,0,0,0,0,0,0,0,0,0,0,0,0,0,0,0,0,0,0,0,0,0,0,0,0,0],"id":15,"left_children":[1,3,5,7,9,11,13,-1,-1,15,17,19,21,-1,-1,-1,-1,23,25,27,29,-1,-1,-1,31,33,35,-1,37,-1,-1,-1,-1,-1,-1,-1,-1,-1,-1],"loss_changes":[2.1354616E7,1.401113E6,2.886255E6,1.03868E5,2.6433138E5,3.8337375E5,1.19686E5,0E0,0E0,1.6064E4,2.6163438E4,4.824675E4,3.0495E3,0E0,0E0,0E0,0E0,2.8037969E3,3.9237437E3,3.6577305E3,3.47125E3,0E0,0E0,0E0,6.084586E3,5.4756104E2,5.6676953E2,0E0,1.8345703E2,0E0,0E0,0E0,0E0,0E0,0E0,0E0,0E0,0E0,0E0],"parents":[2147483647,0,0,1,1,2,2,3,3,4,4,5,5,6,6,9,9,10,10,11,11,12,12,17,17,18,18,19,19,20,20,24,24,25,25,26,26,28,28],"right_children":[2,4,6,8,10,12,14,-1,-1,16,18,20,22,-1,-1,-1,-1,24,26,28,30,-1,-1,-1,32,34,36,-1,38,-1,-1,-1,-1,-1,-1,-1,-1,-1,-1],"split_conditions":[1.196E3,9.915E2,1.3927E3,9.439E2,1.06715E3,1.2909E3,1.49115E3,-7.2296214E-1,-5.4400384E-1,1.04455E3,1.12365E3,1.2242E3,1.3128E3,7.924759E-1,1.0961957E0,-3.839864E-1,-2.7480343E-1,1.07245E3,1.13445E3,-1.6426935E1,1.249E3,3.8219863E-1,5.3906596E-1,-2.2880407E-1,-2.8610271E1,1.1129E3,1.1513E3,4.1521776E-2,1.2375072E3,2.2570948E-1,3.1448147E-1,-3.6446992E-2,-1.6029982E-1,-3.805804E-2,-1.0201103E-1,-1.8225912E-2,2.1403667E-2,1.594437E-1,7.7783756E-2],"split_indices":[1,3,3,1,3,3,3,0,0,3,3,3,3,0,0,0,0,4,3,12,3,0,0,0,12,4,3,0,6,0,0,0,0,0,0,0,0,0,0],"split_type":[0,0,0,0,0,0,0,0,0,0,0,0,0,0,0,0,0,0,0,0,0,0,0,0,0,0,0,0,0,0,0,0,0,0,0,0,0,0,0],"sum_hessian":[7.27E2,4.1E2,3.17E2,1.89E2,2.21E2,2.08E2,1.09E2,9E1,9.9E1,1.4E2,8.1E1,1.09E2,9.9E1,4.5E1,6.4E1,1.03E2,3.7E1,6.1E1,2E1,2.8E1,8.1E1,2E1,7.9E1,1.2E1,4.9E1,1E1,1E1,5E0,2.3E1,2.9E1,5.2E1,5E0,4.4E1,5E0,5E0,5E0,5E0,1.8E1,5E0],"tree_param":{"num_deleted":"0","num_feature":"16","num_nodes":"39","size_leaf_vector":"1"}},{"base_weights":[6.381297E0,-1.4578801E2,1.9709283E2,-2.037719E2,-8.3780846E1,1.2678995E2,3.3088675E2,-7.068528E-1,-5.2980584E-1,-1.1188072E2,-4.2235313E1,8.194564E1,1.7643405E2,7.7772033E-1,3.6602017E2,-3.71346E-1,-2.59522E-1,-5.4290745E1,-1.2090388E1,4.8893337E1,9.914973E1,4.5665032E-1,5.959395E-1,1.1334916E0,5.7370114E-1,-1.7061111E-1,-6.1543144E-2,1.2067478E1,-3.1672302E1,4.5836173E-2,1.6136518E-1,1.0180135E2,1.4370488E-1,-1.0895778E-2,6.98204E-2,-3.0268844E-2,-1.2428397E-1,1.9865255E-1,3.183324E-1],"categories":[],"categories_nodes":[],"categories_segments":[],"categories_sizes":[],"default_left":[0,0,0,0,0,0,0,0,0,0,0,0,0,0,0,0,0,0,0,0,0,0,0,0,0,0,0,0,0,0,0,0,0,0,0,0,0,0,0],"id":16,"left_children":[1,3,5,7,9,11,13,-1,-1,15,17,19,21,-1,23,-1,-1,25,27,29,31,-1,-1,-1,-1,-1,-1,33,35,-1,-1,37,-1,-1,-1,-1,-1,-1,-1],"loss_changes":[2.1155478E7,1.432304E6,2.979898E6,1.17947E5,2.2463025E5,4.55819E5,1.35755E5,0E0,0E0,1.9399E4,2.8990094E4,5.8390875E4,8.6705E3,0E0,3.7095E4,0E0,0E0,3.3394062E3,1.2638229E4,5.753547E3,2.7941875E3,0E0,0E0,0E0,0E0,0E0,0E0,2.3278477E3,2.4208916E3,0E0,0E0,1.008125E2,0E0,0E0,0E0,0E0,0E0,0E0,0E0],"parents":[2147483647,0,0,1,1,2,2,3,3,4,4,5,5,6,6,9,9,10,10,11,11,12,12,14,14,17,17,18,18,19,19,20,20,27,27,28,28,31,31],"right_children":[2,4,6,8,10,12,14,-1,-1,16,18,20,22,-1,24,-1,-1,26,28,30,32,-1,-1,-1,-1,-1,-1,34,36,-1,-1,38,-1,-1,-1,-1,-1,-1,-1],"split_conditions":[1.15035E3,9.9485E2,1.3965E3,9.36E2,1.0754E3,1.2909E3,1.49115E3,-7.068528E-1,-5.2980584E-1,1.04455E3,1.12365E3,1.23205E3,1.34285E3,7.7772033E-1,6.9040453E-1,-3.71346E-1,-2.59522E-1,1.12945E3,1.1206738E3,1.1188619E3,1.3361476E3,4.5665032E-1,5.959395E-1,1.1334916E0,5.7370114E-1,-1.7061111E-1,-6.1543144E-2,7.507812E6,1.12845E3,4.5836173E-2,1.6136518E-1,1.2224E3,1.4370488E-1,-1.0895778E-2,6.98204E-2,-3.0268844E-2,-1.2428397E-1,1.9865255E-1,3.183324E-1],"split_indices":[2,2,3,3,3,3,3,0,0,3,3,3,3,0,9,0,0,0,7,7,7,0,0,0,0,0,0,8,5,0,0,2,0,0,0,0,0,0,0],"split_type":[0,0,0,0,0,0,0,0,0,0,0,0,0,0,0,0,0,0,0,0,0,0,0,0,0,0,0,0,0,0,0,0,0,0,0,0,0,0,0],"sum_hessian":[7.26E2,4.04E2,3.22E2,2.07E2,1.97E2,2.13E2,1.09E2,9E1,1.17E2,1.16E2,8.1E1,1.14E2,9.9E1,4E1,6.9E1,7.5E1,4.1E1,5.7E1,2.4E1,4.1E1,7.3E1,5.3E1,4.6E1,6.3E1,6E0,5.2E1,5E0,1.1E1,1.3E1,6E0,3.5E1,6.8E1,5E0,5E0,6E0,5E0,8E0,1E1,5.8E1],"tree_param":{"num_deleted":"0","num_feature":"16","num_nodes":"39","size_leaf_vector":"1"}},{"base_weights":[-6.653405E0,-1.4818124E2,1.9208562E2,-2.0960454E2,-8.4816956E1,1.1993921E2,3.211396E2,-7.385631E-1,-5.391352E-1,-1.1438622E2,-3.721724E1,8.0463745E1,1.731899E2,7.6095283E-1,3.643333E2,-3.8182396E-1,-2.6516032E-1,-5.1307274E1,-1.0668296E1,5.3553898E1,1.0156585E2,3.8399154E-1,5.4892594E-1,1.1311269E0,5.093121E-1,-1.5925801E-1,-7.853905E-2,6.813562E-2,-1.855334E1,3.7614826E1,1.9381581E-1,3.1454334E-1,1.4723933E-1,-1.4917863E-2,-9.621772E-2,1.3172188E-1,4.1154336E-2],"categories":[],"categories_nodes":[],"categories_segments":[],"categories_sizes":[],"default_left":[0,0,0,0,0,0,0,0,0,0,0,0,0,0,0,0,0,0,0,0,0,0,0,0,0,0,0,0,0,0,0,0,0,0,0,0,0],"id":17,"left_children":[1,3,5,7,9,11,13,-1,-1,15,17,19,21,-1,23,-1,-1,25,27,29,31,-1,-1,-1,-1,-1,-1,-1,33,35,-1,-1,-1,-1,-1,-1,-1],"loss_changes":[2.0252016E7,1.609908E6,2.730759E6,1.65977E5,2.8846825E5,3.8792925E5,1.71775E5,0E0,0E0,2.6163625E4,3.0033992E4,5.6844938E4,8.8025E2,0E0,5.59995E4,0E0,0E0,2.9859375E2,8.659383E3,5.7685625E3,3.0318125E3,0E0,0E0,0E0,0E0,0E0,0E0,0E0,4.4388916E3,2.925164E3,0E0,0E0,0E0,0E0,0E0,0E0,0E0],"parents":[2147483647,0,0,1,1,2,2,3,3,4,4,5,5,6,6,9,9,10,10,11,11,12,12,14,14,17,17,18,18,19,19,20,20,28,28,29,29],"right_children":[2,4,6,8,10,12,14,-1,-1,16,18,20,22,-1,24,-1,-1,26,28,30,32,-1,-1,-1,-1,-1,-1,-1,34,36,-1,-1,-1,-1,-1,-1,-1],"split_conditions":[1.1685E3,9.933E2,1.39185E3,9.2935E2,1.086E3,1.29585E3,1.49115E3,-7.385631E-1,-5.391352E-1,1.0373E3,1.12995E3,1.2587E3,1.31915E3,7.6095283E-1,1.0180759E7,-3.8182396E-1,-2.6516032E-1,1.12675E3,-2.9520306E1,1.2138E3,1.3321809E3,3.8399154E-1,5.4892594E-1,1.1311269E0,5.093121E-1,-1.5925801E-1,-7.853905E-2,6.813562E-2,1.1206738E3,1.2177E3,1.9381581E-1,3.1454334E-1,1.4723933E-1,-1.4917863E-2,-9.621772E-2,1.3172188E-1,4.1154336E-2],"split_indices":[3,2,3,3,1,3,3,0,0,3,1,1,3,0,8,0,0,1,12,3,7,0,0,0,0,0,0,0,7,4,0,0,0,0,0,0,0],"split_type":[0,0,0,0,0,0,0,0,0,0,0,0,0,0,0,0,0,0,0,0,0,0,0,0,0,0,0,0,0,0,0,0,0,0,0,0,0],"sum_hessian":[7.17E2,4.19E2,2.98E2,2.11E2,2.08E2,1.93E2,1.05E2,9E1,1.21E2,1.27E2,8.1E1,1.13E2,8E1,4.5E1,6E1,8.1E1,4.6E1,5.2E1,2.9E1,5.2E1,6.1E1,1.8E1,6.2E1,5.5E1,5E0,4.7E1,5E0,5E0,2.4E1,2.4E1,2.8E1,5.6E1,5E0,1.3E1,1.1E1,1.8E1,6E0],"tree_param":{"num_deleted":"0","num_feature":"16","num_nodes":"37","size_leaf_vector":"1"}},{"base_weights":[5.506275E0,-1.461476E2,1.9763779E2,-2.0999496E2,-9.091607E1,1.2860861E2,3.255702E2,-8.0423814E-1,-1.9358763E2,-1.1922709E2,-3.93315E1,8.656652E1,1.7409981E2,7.721703E-1,3.6571762E2,-6.135862E-1,-4.8117512E-1,-3.7831706E-1,-2.612586E-1,-5.0789387E1,-9.572087E-1,5.771083E1,3.1530035E-1,4.1566274E-1,5.558868E-1,1.1276059E0,5.4641414E-1,-5.5332172E1,-9.4080694E-2,-1.5925047E1,8.447616E-2,6.0469353E1,7.7750064E-2,-2.0091026E-1,-1.3210024E-1,-9.749746E-3,-7.286076E-2,1.3201573E-1,2.0293364E-1],"categories":[],"categories_nodes":[],"categories_segments":[],"categories_sizes":[],"default_left":[0,0,0,0,0,0,0,0,0,0,0,0,0,0,0,0,0,0,0,0,0,0,0,0,0,0,0,0,0,0,0,0,0,0,0,0,0,0,0],"id":18,"left_children":[1,3,5,7,9,11,13,-1,15,17,19,21,23,-1,25,-1,-1,-1,-1,27,29,31,-1,-1,-1,-1,-1,33,-1,35,-1,37,-1,-1,-1,-1,-1,-1,-1],"loss_changes":[2.176533E7,1.443599E6,2.846985E6,1.05563E5,3.2373312E5,3.9143325E5,1.72156E5,0E0,7.234E3,1.56735E4,3.619618E4,5.2654938E4,2.24825E3,0E0,2.4905E4,0E0,0E0,0E0,0E0,2.9931562E3,9.605371E3,1.8942969E3,0E0,0E0,0E0,0E0,0E0,2.0744688E3,0E0,1.4156743E3,0E0,6.625469E2,0E0,0E0,0E0,0E0,0E0,0E0,0E0],"parents":[2147483647,0,0,1,1,2,2,3,3,4,4,5,5,6,6,8,8,9,9,10,10,11,11,12,12,14,14,19,19,20,20,21,21,27,27,29,29,31,31],"right_children":[2,4,6,8,10,12,14,-1,16,18,20,22,24,-1,26,-1,-1,-1,-1,28,30,32,-1,-1,-1,-1,-1,34,-1,36,-1,38,-1,-1,-1,-1,-1,-1,-1],"split_conditions":[1.1899E3,9.832E2,1.4124E3,9.185E2,1.0849E3,1.312E3,1.52445E3,-8.0423814E-1,9.755E2,1.0403E3,1.1162E3,1.227E3,1.311E3,7.721703E-1,1.0140202E0,-6.135862E-1,-4.8117512E-1,-3.7831706E-1,-2.612586E-1,6.711062E1,1.15035E3,1.2469E3,3.1530035E-1,4.1566274E-1,5.558868E-1,1.1276059E0,5.4641414E-1,1.09005E3,-9.4080694E-2,1.1122E3,8.447616E-2,1.2225E3,7.7750064E-2,-2.0091026E-1,-1.3210024E-1,-9.749746E-3,-7.286076E-2,1.3201573E-1,2.0293364E-1],"split_indices":[1,2,1,1,1,1,1,0,1,2,2,2,2,0,13,0,0,0,0,11,2,5,0,0,0,0,0,5,0,5,0,1,0,0,0,0,0,0,0],"split_type":[0,0,0,0,0,0,0,0,0,0,0,0,0,0,0,0,0,0,0,0,0,0,0,0,0,0,0,0,0,0,0,0,0,0,0,0,0,0,0],"sum_hessian":[7.44E2,4.16E2,3.28E2,1.91E2,2.25E2,2.15E2,1.13E2,3.7E1,1.54E2,1.44E2,8.1E1,1.14E2,1.01E2,4.6E1,6.7E1,1.1E2,4.4E1,1.15E2,2.9E1,6.2E1,1.9E1,4.7E1,6.7E1,2.9E1,7.2E1,6.2E1,5E0,4.8E1,1.4E1,1.3E1,6E0,4.2E1,5E0,2E1,2.8E1,6E0,7E0,1.6E1,2.6E1],"tree_param":{"num_deleted":"0","num_feature":"16","num_nodes":"39","size_leaf_vector":"1"}},{"base_weights":[7.105127E-1,-1.464253E2,1.9819745E2,-2.0361076E2,-8.6022606E1,1.23225395E2,3.3015695E2,-7.007533E-1,-5.134306E-1,-1.1482369E2,-4.015347E1,8.2369865E1,1.7377492E2,7.786063E-1,1.1156907E0,-3.7111628E-1,-2.5572836E-1,-5.2510994E1,-1.3538377E1,5.0238102E1,9.9471565E1,3.968945E-1,5.525923E-1,-5.588949E1,-8.088342E-2,-1.8300582E0,-2.1881086E1,3.0149971E1,1.7470504E-1,3.0656987E-1,1.4230596E-1,-1.9545962E-1,-1.3109255E-1,-4.020331E-2,3.0280996E-2,-9.8522276E-2,-3.847122E-2,4.2211603E-2,1.0736174E-1],"categories":[],"categories_nodes":[],"categories_segments":[],"categories_sizes":[],"default_left":[0,0,0,0,0,0,0,0,0,0,0,0,0,0,0,0,0,0,0,0,0,0,0,0,0,0,0,0,0,0,0,0,0,0,0,0,0,0,0],"id":19,"left_children":[1,3,5,7,9,11,13,-1,-1,15,17,19,21,-1,-1,-1,-1,23,25,27,29,-1,-1,31,-1,33,35,37,-1,-1,-1,-1,-1,-1,-1,-1,-1,-1,-1],"loss_changes":[2.167677E7,1.450351E6,3.089938E6,1.5263E5,2.71156E5,4.02908E5,1.92673E5,0E0,0E0,1.7922375E4,2.638989E4,5.6506812E4,2.53725E3,0E0,0E0,0E0,0E0,2.6085312E3,2.721418E3,4.345453E3,3.25225E3,0E0,0E0,1.1962969E3,0E0,2.0658245E3,1.0016035E3,6.4468164E2,0E0,0E0,0E0,0E0,0E0,0E0,0E0,0E0,0E0,0E0,0E0],"parents":[2147483647,0,0,1,1,2,2,3,3,4,4,5,5,6,6,9,9,10,10,11,11,12,12,17,17,18,18,19,19,20,20,23,23,25,25,26,26,27,27],"right_children":[2,4,6,8,10,12,14,-1,-1,16,18,20,22,-1,-1,-1,-1,24,26,28,30,-1,-1,32,-1,34,36,38,-1,-1,-1,-1,-1,-1,-1,-1,-1,-1,-1],"split_conditions":[1.16955E3,9.933E2,1.37855E3,9.5135E2,1.08975E3,1.312E3,1.50645E3,-7.007533E-1,-5.134306E-1,1.0403E3,1.12995E3,1.226E3,1.33575E3,7.786063E-1,1.1156907E0,-3.7111628E-1,-2.5572836E-1,6.655024E1,1.1188619E3,1.2225E3,1.3361476E3,3.968945E-1,5.525923E-1,1.0966786E3,-8.088342E-2,8.404412E9,-4.3038446E-2,1.1958572E3,1.7470504E-1,3.0656987E-1,1.4230596E-1,-1.9545962E-1,-1.3109255E-1,-4.020331E-2,3.0280996E-2,-9.8522276E-2,-3.847122E-2,4.2211603E-2,1.0736174E-1],"split_indices":[2,2,2,1,1,1,1,0,0,2,1,2,1,0,0,0,0,11,7,1,7,0,0,6,0,10,9,6,0,0,0,0,0,0,0,0,0,0,0],"split_type":[0,0,0,0,0,0,0,0,0,0,0,0,0,0,0,0,0,0,0,0,0,0,0,0,0,0,0,0,0,0,0,0,0,0,0,0,0,0,0],"sum_hessian":[7.43E2,4.26E2,3.17E2,2.17E2,2.09E2,2.04E2,1.13E2,1.08E2,1.09E2,1.27E2,8.2E1,1.15E2,8.9E1,4.6E1,6.7E1,9.4E1,3.3E1,5.5E1,2.7E1,4.2E1,7.3E1,2.2E1,6.7E1,4.7E1,8E0,1.2E1,1.5E1,1.4E1,2.8E1,6.8E1,5E0,2.3E1,2.4E1,6E0,6E0,5E0,1E1,5E0,9E0],"tree_param":{"num_deleted":"0","num_feature":"16","num_nodes":"39","size_leaf_vector":"1"}},{"base_weights":[4.6773276E0,-1.448074E2,1.9640161E2,-2.0250941E2,-8.415421E1,1.2451887E2,3.2983606E2,-7.113361E-1,-5.198746E-1,-1.116071E2,-4.2863243E1,8.2238014E1,5.1612025E-1,7.7863723E-1,1.1221533E0,-3.7060565E-1,-2.665408E-1,-1.6380185E-1,-1.319369E1,4.6052467E1,9.7189545E1,-7.264507E-1,-2.7061825E1,5.981598E-2,5.106193E1,2.3707668E-1,1.0807589E2,-4.6528384E-2,6.991816E-2,-1.1927387E-1,-3.1898428E-2,1.6684821E-1,6.419034E-2,3.3729127E-1,1.6394395E-1],"categories":[],"categories_nodes":[],"categories_segments":[],"categories_sizes":[],"default_left":[0,0,0,0,0,0,0,0,0,0,0,0,0,0,0,0,0,0,0,0,0,0,0,0,0,0,0,0,0,0,0,0,0,0,0],"id":20,"left_children":[1,3,5,7,9,11,13,-1,-1,15,17,19,-1,-1,-1,-1,-1,-1,21,23,25,27,29,-1,31,-1,33,-1,-1,-1,-1,-1,-1,-1,-1],"loss_changes":[2.1752506E7,1.467078E6,3.127566E6,1.58221E5,2.3142238E5,4.1777075E5,2.13273E5,0E0,0E0,1.758675E4,2.903564E4,5.7383938E4,0E0,0E0,0E0,0E0,0E0,0E0,4.549512E3,3.3713516E3,3.4836875E3,6.0481455E3,1.968165E3,0E0,2.3278125E3,0E0,1.8181875E3,0E0,0E0,0E0,0E0,0E0,0E0,0E0,0E0],"parents":[2147483647,0,0,1,1,2,2,3,3,4,4,5,5,6,6,9,9,10,10,11,11,18,18,19,19,20,20,21,21,22,22,24,24,26,26],"right_children":[2,4,6,8,10,12,14,-1,-1,16,18,20,-1,-1,-1,-1,-1,-1,22,24,26,28,30,-1,32,-1,34,-1,-1,-1,-1,-1,-1,-1,-1],"split_conditions":[1.1685E3,1.0049E3,1.3965E3,9.36E2,1.0754E3,1.29585E3,1.49115E3,-7.113361E-1,-5.198746E-1,1.04455E3,1.12365E3,1.2263E3,5.1612025E-1,7.7863723E-1,1.1221533E0,-3.7060565E-1,-2.665408E-1,-1.6380185E-1,1.12125E3,-1.6426935E1,1.26045E3,1.1142928E3,1.15265E3,5.981598E-2,9.645E1,2.3707668E-1,1.3101E3,-4.6528384E-2,6.991816E-2,-1.1927387E-1,-3.1898428E-2,1.6684821E-1,6.419034E-2,3.3729127E-1,1.6394395E-1],"split_indices":[3,3,3,3,3,3,3,0,0,3,3,3,0,0,0,0,0,0,5,12,3,6,4,0,15,0,5,0,0,0,0,0,0,0,0],"split_type":[0,0,0,0,0,0,0,0,0,0,0,0,0,0,0,0,0,0,0,0,0,0,0,0,0,0,0,0,0,0,0,0,0,0,0],"sum_hessian":[7.56E2,4.25E2,3.31E2,2.16E2,2.09E2,2.17E2,1.14E2,9.4E1,1.22E2,1.24E2,8.5E1,1.17E2,1E2,4.8E1,6.6E1,7.7E1,4.7E1,6E1,2.5E1,3.6E1,8.1E1,1.4E1,1.1E1,7E0,2.9E1,3.5E1,4.6E1,9E0,5E0,5E0,6E0,2.4E1,5E0,4.1E1,5E0],"tree_param":{"num_deleted":"0","num_feature":"16","num_nodes":"35","size_leaf_vector":"1"}},{"base_weights":[2.0414643E0,-1.4521284E2,1.8781656E2,-2.0662636E2,-8.217287E1,1.1533947E2,3.0447406E2,-7.1111363E-1,-5.216896E-1,-1.133536E2,-4.1669167E1,7.95357E1,1.6030783E2,7.210394E-1,1.0760708E0,-3.660009E-1,-2.5531587E-1,-5.258744E1,-1.2593266E1,4.4288143E1,9.5990074E1,3.6769766E-1,5.0923187E-1,-1.8026051E-1,-3.6697056E1,-2.098884E1,1.19653605E-2,3.220875E-2,4.85573E1,2.2336693E-1,3.0986443E-1,-1.3178746E-1,-6.02411E-2,-6.577871E-3,-8.9219734E-2,7.877079E-2,1.63923E-1],"categories":[],"categories_nodes":[],"categories_segments":[],"categories_sizes":[],"default_left":[0,0,0,0,0,0,0,0,0,0,0,0,0,0,0,0,0,0,0,0,0,0,0,0,0,0,0,0,0,0,0,0,0,0,0,0,0],"id":21,"left_children":[1,3,5,7,9,11,13,-1,-1,15,17,19,21,-1,-1,-1,-1,23,25,27,29,-1,-1,-1,31,33,-1,-1,35,-1,-1,-1,-1,-1,-1,-1,-1],"loss_changes":[2.057173E7,1.5986E6,2.758568E6,1.48648E5,2.5748438E5,3.149335E5,3.10435E5,0E0,0E0,1.3104875E4,2.86825E4,6.2336312E4,9.9425E2,0E0,0E0,0E0,0E0,4.7266562E3,3.9556294E3,5.0132344E3,9.40875E2,0E0,0E0,0E0,1.7348555E3,2.942003E3,0E0,0E0,2.6560938E3,0E0,0E0,0E0,0E0,0E0,0E0,0E0,0E0],"parents":[2147483647,0,0,1,1,2,2,3,3,4,4,5,5,6,6,9,9,10,10,11,11,12,12,17,17,18,18,19,19,20,20,24,24,25,25,28,28],"right_children":[2,4,6,8,10,12,14,-1,-1,16,18,20,22,-1,-1,-1,-1,24,26,28,30,-1,-1,-1,32,34,-1,-1,36,-1,-1,-1,-1,-1,-1,-1,-1],"split_conditions":[1.1685E3,1.00145E3,1.37055E3,9.36E2,1.06715E3,1.2909E3,1.49115E3,-7.1111363E-1,-5.216896E-1,1.0403E3,1.12525E3,1.2263E3,1.3128E3,7.210394E-1,1.0760708E0,-3.660009E-1,-2.5531587E-1,1.0966786E3,1.1513E3,-1.6426935E1,1.249E3,3.6769766E-1,5.0923187E-1,-1.8026051E-1,-1.35E0,-2.9520306E1,1.19653605E-2,3.220875E-2,1.1949E3,2.2336693E-1,3.0986443E-1,-1.3178746E-1,-6.02411E-2,-6.577871E-3,-8.9219734E-2,7.877079E-2,1.63923E-1],"split_indices":[3,3,3,3,3,3,3,0,0,2,0,3,3,0,0,0,0,6,3,12,3,0,0,0,15,12,0,0,0,0,0,0,0,0,0,0,0],"split_type":[0,0,0,0,0,0,0,0,0,0,0,0,0,0,0,0,0,0,0,0,0,0,0,0,0,0,0,0,0,0,0,0,0,0,0,0,0],"sum_hessian":[7.49E2,4.18E2,3.31E2,2.1E2,2.08E2,2.06E2,1.25E2,1.04E2,1.06E2,1.16E2,9.2E1,1.17E2,8.9E1,6.1E1,6.4E1,8.5E1,3.1E1,6.6E1,2.6E1,3.9E1,7.8E1,2.2E1,6.7E1,4.2E1,2.4E1,1.7E1,9E0,5E0,3.4E1,2.4E1,5.4E1,1.5E1,9E0,6E0,1.1E1,9E0,2.5E1],"tree_param":{"num_deleted":"0","num_feature":"16","num_nodes":"37","size_leaf_vector":"1"}},{"base_weights":[-1.6091295E0,-1.446072E2,1.9416684E2,-2.0859473E2,-9.087126E1,1.2324669E2,3.3143497E2,-8.079094E-1,-1.926197E2,-1.17837585E2,-4.539574E1,7.891691E1,1.653394E2,7.5981075E-1,1.126141E0,-6.107902E-1,-4.869895E-1,-3.7303722E-1,-2.515067E-1,-1.995098E-1,-2.7174713E1,5.343158E1,2.9578197E-1,4.035377E-1,5.3499913E-1,-3.5789272E1,-2.6717134E0,6.506559E-2,1.8001328E-1,-1.4013463E-1,-7.1525335E-2,-6.7477904E-2,3.390388E-2],"categories":[],"categories_nodes":[],"categories_segments":[],"categories_sizes":[],"default_left":[0,0,0,0,0,0,0,0,0,0,0,0,0,0,0,0,0,0,0,0,0,0,0,0,0,0,0,0,0,0,0,0,0],"id":22,"left_children":[1,3,5,7,9,11,13,-1,15,17,19,21,23,-1,-1,-1,-1,-1,-1,-1,25,27,-1,-1,-1,29,31,-1,-1,-1,-1,-1,-1],"loss_changes":[2.0128944E7,1.400205E6,2.893278E6,1.049545E5,2.7217088E5,3.582605E5,2.09413E5,0E0,1.759E3,1.5876125E4,3.093239E4,4.2982625E4,5.04325E3,0E0,0E0,0E0,0E0,0E0,0E0,0E0,1.0301309E4,7.9502188E3,0E0,0E0,0E0,3.0854375E3,4.398302E3,0E0,0E0,0E0,0E0,0E0,0E0],"parents":[2147483647,0,0,1,1,2,2,3,3,4,4,5,5,6,6,8,8,9,9,10,10,11,11,12,12,20,20,21,21,25,25,26,26],"right_children":[2,4,6,8,10,12,14,-1,16,18,20,22,24,-1,-1,-1,-1,-1,-1,-1,26,28,-1,-1,-1,30,32,-1,-1,-1,-1,-1,-1],"split_conditions":[1.15035E3,9.832E2,1.37855E3,9.025E2,1.06545E3,1.2786E3,1.4891E3,-8.079094E-1,9.6585E2,1.0403E3,1.08635E3,1.226E3,1.311E3,7.5981075E-1,1.126141E0,-6.107902E-1,-4.869895E-1,-3.7303722E-1,-2.515067E-1,-1.995098E-1,1.128E3,1.1188619E3,2.9578197E-1,4.035377E-1,5.3499913E-1,6.5745556E9,-4.8852932E-1,6.506559E-2,1.8001328E-1,-1.4013463E-1,-7.1525335E-2,-6.7477904E-2,3.390388E-2],"split_indices":[2,2,2,0,4,2,2,0,4,2,2,2,2,0,0,0,0,0,0,0,2,7,0,0,0,10,12,0,0,0,0,0,0],"split_type":[0,0,0,0,0,0,0,0,0,0,0,0,0,0,0,0,0,0,0,0,0,0,0,0,0,0,0,0,0,0,0,0,0],"sum_hessian":[7.16E2,4.14E2,3.02E2,1.87E2,2.27E2,2.01E2,1.01E2,3.4E1,1.53E2,1.41E2,8.6E1,1E2,1.01E2,4E1,6.1E1,1.06E2,4.7E1,1.15E2,2.6E1,3.8E1,4.8E1,4.6E1,5.4E1,3.5E1,6.6E1,3.5E1,1.3E1,9E0,3.7E1,1.6E1,1.9E1,5E0,8E0],"tree_param":{"num_deleted":"0","num_feature":"16","num_nodes":"33","size_leaf_vector":"1"}},{"base_weights":[-1.1030753E0,-1.4483922E2,1.8599707E2,-2.0427992E2,-8.213788E1,1.1823836E2,3.128633E2,-2.3931879E2,-5.199528E-1,-1.0817596E2,-3.3725548E1,8.373492E1,5.175509E-1,7.4952E-1,1.0727314E0,-8.700526E-1,-6.579371E-1,-3.5955313E-1,-2.4680361E-1,-4.1306755E1,6.235648E0,3.9758896E1,9.662959E1,-4.596953E1,-2.3557209E1,6.787706E-2,-4.986327E-2,4.7446337E-2,4.31236E1,2.2206676E-1,3.2066533E-1,-1.4725196E-1,-5.6095254E-2,-4.3166462E-2,-9.500453E-2,1.3890128E-1,6.5013476E-2],"categories":[],"categories_nodes":[],"categories_segments":[],"categories_sizes":[],"default_left":[0,0,0,0,0,0,0,0,0,0,0,0,0,0,0,0,0,0,0,0,0,0,0,0,0,0,0,0,0,0,0,0,0,0,0,0,0],"id":23,"left_children":[1,3,5,7,9,11,13,15,-1,17,19,21,-1,-1,-1,-1,-1,-1,-1,23,25,27,29,31,33,-1,-1,-1,35,-1,-1,-1,-1,-1,-1,-1,-1],"loss_changes":[2.0519466E7,1.583008E6,2.794139E6,1.7696E5,2.6238325E5,3.8751225E5,1.88596E5,5.465E3,0E0,2.678075E4,2.3565852E4,7.162681E4,0E0,0E0,0E0,0E0,0E0,0E0,0E0,3.706836E3,5.6221035E3,1.6699258E3,1.23499375E4,2.8208047E3,5.389072E2,0E0,0E0,0E0,4.3041797E2,0E0,0E0,0E0,0E0,0E0,0E0,0E0,0E0],"parents":[2147483647,0,0,1,1,2,2,3,3,4,4,5,5,6,6,7,7,9,9,10,10,11,11,19,19,20,20,21,21,22,22,23,23,24,24,28,28],"right_children":[2,4,6,8,10,12,14,16,-1,18,20,22,-1,-1,-1,-1,-1,-1,-1,24,26,28,30,32,34,-1,-1,-1,36,-1,-1,-1,-1,-1,-1,-1,-1],"split_conditions":[1.1809E3,1.0049E3,1.39185E3,9.36E2,1.0833E3,1.3041E3,1.49115E3,8.75E2,-5.199528E-1,1.0608E3,1.1513E3,1.22025E3,5.175509E-1,7.4952E-1,1.0727314E0,-8.700526E-1,-6.579371E-1,-3.5955313E-1,-2.4680361E-1,1.12365E3,1.209675E10,-1.8964293E1,1.249E3,6.655024E1,1.12125E3,6.787706E-2,-4.986327E-2,4.7446337E-2,1.24575E3,2.2206676E-1,3.2066533E-1,-1.4725196E-1,-5.6095254E-2,-4.3166462E-2,-9.500453E-2,1.3890128E-1,6.5013476E-2],"split_indices":[3,3,3,3,3,3,3,0,0,1,3,3,0,0,0,0,0,0,0,3,10,12,3,11,5,0,0,0,5,0,0,0,0,0,0,0,0],"split_type":[0,0,0,0,0,0,0,0,0,0,0,0,0,0,0,0,0,0,0,0,0,0,0,0,0,0,0,0,0,0,0,0,0,0,0,0,0],"sum_hessian":[7.6E2,4.3E2,3.3E2,2.19E2,2.11E2,2.17E2,1.13E2,9.8E1,1.21E2,1.36E2,7.5E1,1.35E2,8.2E1,5.1E1,6.2E1,2.2E1,7.6E1,9E1,4.6E1,6.3E1,1.2E1,3.2E1,1.03E2,4.8E1,1.5E1,7E0,5E0,5E0,2.7E1,3.6E1,6.7E1,4.2E1,6E0,9E0,6E0,2.2E1,5E0],"tree_param":{"num_deleted":"0","num_feature":"16","num_nodes":"37","size_leaf_vector":"1"}},{"base_weights":[6.075166E-2,-1.4157742E2,1.905397E2,-2.0461241E2,-8.8265656E1,1.1785306E2,3.0471436E2,-6.9214326E-1,-5.048069E-1,-1.1361577E2,-3.988464E1,8.212677E1,4.9585637E-1,7.272729E-1,3.5370984E2,-3.774238E-1,-2.6456875E-1,-1.8092531E-1,-9.13666E0,5.205969E1,9.807704E1,1.09248E0,5.388762E-1,-1.6339514E1,7.361447E-2,5.9059657E-2,1.7008968E-1,1.4737268E-1,3.0206215E-1,3.3092494E-3,-7.343977E-2],"categories":[],"categories_nodes":[],"categories_segments":[],"categories_sizes":[],"default_left":[0,0,0,0,0,0,0,0,0,0,0,0,0,0,0,0,0,0,0,0,0,0,0,0,0,0,0,0,0,0,0],"id":24,"left_children":[1,3,5,7,9,11,13,-1,-1,15,17,19,-1,-1,21,-1,-1,-1,23,25,27,-1,-1,29,-1,-1,-1,-1,-1,-1,-1],"loss_changes":[1.9263072E7,1.3490075E6,2.473127E6,1.186475E5,2.6852862E5,2.9904275E5,2.29921E5,0E0,0E0,2.8751125E4,4.909179E4,4.5319562E4,0E0,0E0,1.55275E4,0E0,0E0,0E0,8.726178E3,4.5476953E3,1.5745625E3,0E0,0E0,4.0895547E3,0E0,0E0,0E0,0E0,0E0,0E0,0E0],"parents":[2147483647,0,0,1,1,2,2,3,3,4,4,5,5,6,6,9,9,10,10,11,11,14,14,18,18,19,19,20,20,23,23],"right_children":[2,4,6,8,10,12,14,-1,-1,16,18,20,-1,-1,22,-1,-1,-1,24,26,28,-1,-1,30,-1,-1,-1,-1,-1,-1,-1],"split_conditions":[1.2029E3,9.9525E2,1.3924E3,9.55E2,1.07495E3,1.312E3,1.49775E3,-6.9214326E-1,-5.048069E-1,1.05225E3,1.128E3,1.25265E3,4.9585637E-1,7.272729E-1,1.0140202E0,-3.774238E-1,-2.6456875E-1,-1.8092531E-1,2.0621994E1,-1.6426935E1,5.3148405E-3,1.09248E0,5.388762E-1,-2.6651678E1,7.361447E-2,5.9059657E-2,1.7008968E-1,1.4737268E-1,3.0206215E-1,3.3092494E-3,-7.343977E-2],"split_indices":[1,0,1,1,4,1,1,0,0,1,1,1,0,0,13,0,0,0,12,12,13,0,0,12,0,0,0,0,0,0,0],"split_type":[0,0,0,0,0,0,0,0,0,0,0,0,0,0,0,0,0,0,0,0,0,0,0,0,0,0,0,0,0,0,0],"sum_hessian":[7.11E2,4.08E2,3.03E2,1.85E2,2.23E2,1.87E2,1.16E2,1.03E2,8.2E1,1.45E2,7.8E1,1.09E2,7.8E1,5.5E1,6.1E1,9.4E1,5.1E1,4.6E1,3.2E1,4E1,6.9E1,5.6E1,5E0,2.7E1,5E0,6E0,3.4E1,5E0,6.4E1,9E0,1.8E1],"tree_param":{"num_deleted":"0","num_feature":"16","num_nodes":"31","size_leaf_vector":"1"}},{"base_weights":[2.3574555E0,-1.43007E2,1.9698741E2,-2.0250896E2,-8.112861E1,1.2954488E2,3.411613E2,-7.2457665E-1,-5.275317E-1,-1.1307848E2,-4.1454975E1,8.400905E1,1.78386E2,7.8995854E-1,1.1173126E0,-3.6521277E-1,-2.6585853E-1,-5.592428E1,-1.4575984E1,5.4581715E1,1.0578722E2,4.5702758E-1,5.971202E-1,-1.9291212E-1,-1.15932025E-1,2.5268607E0,-2.9685658E1,1.1883288E-1,2.027671E-1,3.261978E-1,1.6047452E-1,-3.3875916E-2,9.197933E-2,-1.2511623E-1,-6.298916E-3],"categories":[],"categories_nodes":[],"categories_segments":[],"categories_sizes":[],"default_left":[0,0,0,0,0,0,0,0,0,0,0,0,0,0,0,0,0,0,0,0,0,0,0,0,0,0,0,0,0,0,0,0,0,0,0],"id":25,"left_children":[1,3,5,7,9,11,13,-1,-1,15,17,19,21,-1,-1,-1,-1,23,25,27,29,-1,-1,-1,-1,31,33,-1,-1,-1,-1,-1,-1,-1,-1],"loss_changes":[2.147366E7,1.575107E6,3.088919E6,1.65656E5,2.6611375E5,4.7456325E5,1.02378E5,0E0,0E0,8.893875E3,3.7078875E4,6.726644E4,1.176825E4,0E0,0E0,0E0,0E0,5.4573438E3,9.547505E3,6.3914062E3,1.502375E3,0E0,0E0,0E0,0E0,7.713386E3,6.3300254E3,0E0,0E0,0E0,0E0,0E0,0E0,0E0,0E0],"parents":[2147483647,0,0,1,1,2,2,3,3,4,4,5,5,6,6,9,9,10,10,11,11,12,12,17,17,18,18,19,19,20,20,25,25,26,26],"right_children":[2,4,6,8,10,12,14,-1,-1,16,18,20,22,-1,-1,-1,-1,24,26,28,30,-1,-1,-1,-1,32,34,-1,-1,-1,-1,-1,-1,-1,-1],"split_conditions":[1.1685E3,9.9635E2,1.41635E3,9.279E2,1.06715E3,1.2977E3,1.49115E3,-7.2457665E-1,-5.275317E-1,1.04455E3,1.12995E3,1.2587E3,1.34285E3,7.8995854E-1,1.1173126E0,-3.6521277E-1,-2.6585853E-1,1.08635E3,1.1299E3,1.22025E3,1.3101E3,4.5702758E-1,5.971202E-1,-1.9291212E-1,-1.15932025E-1,1.1375039E10,1.14E3,1.1883288E-1,2.027671E-1,3.261978E-1,1.6047452E-1,-3.3875916E-2,9.197933E-2,-1.2511623E-1,-6.298916E-3],"split_indices":[3,2,3,3,3,3,3,0,0,3,1,1,3,0,0,0,0,2,5,3,5,0,0,0,0,10,2,0,0,0,0,0,0,0,0],"split_type":[0,0,0,0,0,0,0,0,0,0,0,0,0,0,0,0,0,0,0,0,0,0,0,0,0,0,0,0,0,0,0,0,0,0,0],"sum_hessian":[7.56E2,4.33E2,3.23E2,2.19E2,2.14E2,2.22E2,1.01E2,8.4E1,1.35E2,1.17E2,9.7E1,1.17E2,1.05E2,3.3E1,6.8E1,8.2E1,3.5E1,6.2E1,3.5E1,5.2E1,6.5E1,5.2E1,5.3E1,3.9E1,2.3E1,1.7E1,1.8E1,2.7E1,2.5E1,6E1,5E0,1.2E1,5E0,1.2E1,6E0],"tree_param":{"num_deleted":"0","num_feature":"16","num_nodes":"35","size_leaf_vector":"1"}},{"base_weights":[-2.8409767E-1,-1.4181879E2,1.8910063E2,-2.0032729E2,-8.230875E1,1.2619584E2,3.204813E2,-2.243902E2,-4.9250573E-1,-1.0993439E2,-3.850894E1,8.3651566E1,5.194845E-1,7.4364257E-1,1.0690855E0,-8.539634E-1,-6.3017994E-1,-3.5480833E-1,-2.4551322E-1,-5.123304E1,-9.337193E0,5.7304264E1,1.01502846E2,-5.969029E-2,-5.360194E1,-2.0177706E1,9.098104E-2,1.1299055E-1,1.9431773E-1,1.5992075E-1,3.1223267E-1,-1.8432525E-1,-1.2166904E-1,-9.742526E-2,-4.4242046E-3],"categories":[],"categories_nodes":[],"categories_segments":[],"categories_sizes":[],"default_left":[0,0,0,0,0,0,0,0,0,0,0,0,0,0,0,0,0,0,0,0,0,0,0,0,0,0,0,0,0,0,0,0,0,0,0],"id":26,"left_children":[1,3,5,7,9,11,13,15,-1,17,19,21,-1,-1,-1,-1,-1,-1,-1,23,25,27,29,-1,31,33,-1,-1,-1,-1,-1,-1,-1,-1,-1],"loss_changes":[1.9835352E7,1.449798E6,2.554995E6,1.29597E5,2.507595E5,4.108395E5,1.31839E5,1.6914E4,0E0,1.5789E4,3.0641445E4,4.6053062E4,0E0,0E0,0E0,0E0,0E0,0E0,0E0,2.7355156E3,1.2741338E4,3.7379062E3,3.83125E1,0E0,1.7237188E3,5.099713E3,0E0,0E0,0E0,0E0,0E0,0E0,0E0,0E0,0E0],"parents":[2147483647,0,0,1,1,2,2,3,3,4,4,5,5,6,6,7,7,9,9,10,10,11,11,19,19,20,20,21,21,22,22,24,24,25,25],"right_children":[2,4,6,8,10,12,14,16,-1,18,20,22,-1,-1,-1,-1,-1,-1,-1,24,26,28,30,-1,32,34,-1,-1,-1,-1,-1,-1,-1,-1,-1],"split_conditions":[1.15035E3,9.933E2,1.418E3,9.58E2,1.08975E3,1.312E3,1.49775E3,8.84E2,-4.9250573E-1,1.0403E3,1.12995E3,1.2587E3,5.194845E-1,7.4364257E-1,1.0690855E0,-8.539634E-1,-6.3017994E-1,-3.5480833E-1,-2.4551322E-1,9.295865E-3,1.625951E10,1.2225E3,5.3148405E-3,-5.969029E-2,1.08635E3,7.7053386E-1,9.098104E-2,1.1299055E-1,1.9431773E-1,1.5992075E-1,3.1223267E-1,-1.8432525E-1,-1.2166904E-1,-9.742526E-2,-4.4242046E-3],"split_indices":[2,2,1,1,1,1,1,1,0,2,1,1,0,0,0,0,0,0,0,14,10,1,13,0,2,13,0,0,0,0,0,0,0,0,0],"split_type":[0,0,0,0,0,0,0,0,0,0,0,0,0,0,0,0,0,0,0,0,0,0,0,0,0,0,0,0,0,0,0,0,0,0,0],"sum_hessian":[7.37E2,4.22E2,3.15E2,2.11E2,2.11E2,2.15E2,1E2,1.22E2,8.9E1,1.28E2,8.3E1,1.15E2,1E2,3.7E1,6.3E1,1.8E1,1.04E2,9.5E1,3.3E1,5.7E1,2.6E1,4.9E1,6.6E1,5E0,5.2E1,2.1E1,5E0,1.6E1,3.3E1,5E0,6.1E1,2.9E1,2.3E1,1.2E1,9E0],"tree_param":{"num_deleted":"0","num_feature":"16","num_nodes":"35","size_leaf_vector":"1"}},{"base_weights":[-8.698116E0,-1.4436244E2,1.8196562E2,-2.059886E2,-8.989809E1,1.17305214E2,3.192648E2,-7.809689E-1,-5.702158E-1,-1.15132744E2,-4.5745213E1,7.892427E1,1.6429189E2,7.7300864E-1,1.0725977E0,-3.894943E-1,-2.8911802E-1,-6.1002865E1,-3.0646938E1,5.1690372E1,2.9868373E-1,3.9803115E-1,5.291986E-1,-6.412301E1,-1.0081278E-1,-3.760125E1,-1.0923203E1,4.484594E-2,5.5688908E1,-2.0492883E-1,-1.147963E-1,-1.2270045E-1,-4.181018E-2,-5.4765686E-2,6.8945577E-3,1.7586051E-1,9.358016E-2],"categories":[],"categories_nodes":[],"categories_segments":[],"categories_sizes":[],"default_left":[0,0,0,0,0,0,0,0,0,0,0,0,0,0,0,0,0,0,0,0,0,0,0,0,0,0,0,0,0,0,0,0,0,0,0,0,0],"id":27,"left_children":[1,3,5,7,9,11,13,-1,-1,15,17,19,21,-1,-1,-1,-1,23,25,27,-1,-1,-1,29,-1,31,33,-1,35,-1,-1,-1,-1,-1,-1,-1,-1],"loss_changes":[1.9503766E7,1.4507E6,2.726975E6,1.03456E5,2.5558788E5,3.69157E5,9.6284E4,0E0,0E0,2.24335E4,1.7573734E4,6.0551375E4,1.4185E3,0E0,0E0,0E0,0E0,3.9123438E2,5.8943945E3,6.8979062E3,0E0,0E0,0E0,1.9828125E1,0E0,1.8328047E3,1.4701499E3,0E0,8.024219E2,0E0,0E0,0E0,0E0,0E0,0E0,0E0,0E0],"parents":[2147483647,0,0,1,1,2,2,3,3,4,4,5,5,6,6,9,9,10,10,11,11,12,12,17,17,18,18,19,19,23,23,25,25,26,26,28,28],"right_children":[2,4,6,8,10,12,14,-1,-1,16,18,20,22,-1,-1,-1,-1,24,26,28,-1,-1,-1,30,-1,32,34,-1,36,-1,-1,-1,-1,-1,-1,-1,-1],"split_conditions":[1.15035E3,9.832E2,1.37855E3,9.09E2,1.07245E3,1.2786E3,1.5055E3,-7.809689E-1,-5.702158E-1,1.0167E3,1.08635E3,1.226E3,1.311E3,7.7300864E-1,1.0725977E0,-3.894943E-1,-2.8911802E-1,8.516852E-1,1.1162E3,-1.6426935E1,2.9868373E-1,3.9803115E-1,5.291986E-1,1.1094E3,-1.0081278E-1,1.217E2,7.7053386E-1,4.484594E-2,4.4489082E1,-2.0492883E-1,-1.147963E-1,-1.2270045E-1,-4.181018E-2,-5.4765686E-2,6.8945577E-3,1.7586051E-1,9.358016E-2],"split_indices":[2,2,2,0,4,2,2,0,0,2,2,2,2,0,0,0,0,13,2,12,0,0,0,5,0,15,13,0,12,0,0,0,0,0,0,0,0],"split_type":[0,0,0,0,0,0,0,0,0,0,0,0,0,0,0,0,0,0,0,0,0,0,0,0,0,0,0,0,0,0,0,0,0,0,0,0,0],"sum_hessian":[7.51E2,4.39E2,3.12E2,2.04E2,2.35E2,2.14E2,9.8E1,4.1E1,1.63E2,1.48E2,8.7E1,1.2E2,9.4E1,4.2E1,5.6E1,7.8E1,7E1,4.1E1,4.6E1,5.4E1,6.6E1,3.1E1,6.3E1,3.5E1,6E0,3.3E1,1.3E1,6E0,4.8E1,2.8E1,7E0,2.8E1,5E0,8E0,5E0,4.1E1,7E0],"tree_param":{"num_deleted":"0","num_feature":"16","num_nodes":"37","size_leaf_vector":"1"}},{"base_weights":[1.7263708E0,-1.4244566E2,1.7991634E2,-1.9383508E2,-7.7213554E1,1.20775536E2,3.3012445E2,-7.227815E-1,-1.6970569E2,-1.0580718E2,-4.062963E1,8.180829E1,1.7344852E2,7.6975065E-1,1.0828023E0,-5.5116016E-1,-4.404122E-1,-3.5034183E-1,-2.548549E-1,-5.2915466E1,-1.7077608E1,5.2796494E1,3.1720522E-1,4.4888094E-1,5.777635E-1,-5.6521435E1,-1.02891944E-1,-2.282896E1,1.53370015E-2,3.5785606E1,1.9840856E-1,-8.698303E-2,-1.7708783E-1,-8.908555E-2,-4.504447E-2,2.5925452E-2,1.3234714E-1],"categories":[],"categories_nodes":[],"categories_segments":[],"categories_sizes":[],"default_left":[0,0,0,0,0,0,0,0,0,0,0,0,0,0,0,0,0,0,0,0,0,0,0,0,0,0,0,0,0,0,0,0,0,0,0,0,0],"id":28,"left_children":[1,3,5,7,9,11,13,-1,15,17,19,21,23,-1,-1,-1,-1,-1,-1,25,27,29,-1,-1,-1,31,-1,33,-1,35,-1,-1,-1,-1,-1,-1,-1],"loss_changes":[1.898483E7,1.346914E6,2.876122E6,1.97137E5,1.8444425E5,4.70269E5,7.0607E4,0E0,9.419E3,8.32775E3,2.250939E4,8.913981E4,2.562E3,0E0,0E0,0E0,0E0,0E0,0E0,6.749219E2,4.0693115E3,1.1529891E4,0E0,0E0,0E0,3.5784375E2,0E0,6.4124023E2,0E0,6.771457E3,0E0,0E0,0E0,0E0,0E0,0E0,0E0],"parents":[2147483647,0,0,1,1,2,2,3,3,4,4,5,5,6,6,8,8,9,9,10,10,11,11,12,12,19,19,20,20,21,21,25,25,27,27,29,29],"right_children":[2,4,6,8,10,12,14,-1,16,18,20,22,24,-1,-1,-1,-1,-1,-1,26,28,30,-1,-1,-1,32,-1,34,-1,36,-1,-1,-1,-1,-1,-1,-1],"split_conditions":[1.1755E3,1.0131E3,1.41165E3,9.2935E2,1.06715E3,1.3041E3,1.49115E3,-7.227815E-1,9.749E2,1.04455E3,1.12675E3,1.249E3,1.3441E3,7.6975065E-1,1.0828023E0,-5.5116016E-1,-4.404122E-1,-3.5034183E-1,-2.548549E-1,1.10465E3,1.1513E3,1.2138E3,3.1720522E-1,4.4888094E-1,5.777635E-1,9.892707E-3,-1.02891944E-1,1.12525E3,1.53370015E-2,1.3429648E-1,1.9840856E-1,-8.698303E-2,-1.7708783E-1,-8.908555E-2,-4.504447E-2,2.5925452E-2,1.3234714E-1],"split_indices":[1,3,3,3,3,3,3,0,3,3,1,3,3,0,0,0,0,0,0,3,3,3,0,0,0,14,0,0,0,13,0,0,0,0,0,0,0],"split_type":[0,0,0,0,0,0,0,0,0,0,0,0,0,0,0,0,0,0,0,0,0,0,0,0,0,0,0,0,0,0,0,0,0,0,0,0,0],"sum_hessian":[7.36E2,4.07E2,3.29E2,2.26E2,1.81E2,2.38E2,9.1E1,7.2E1,1.54E2,1E2,8.1E1,1.39E2,9.9E1,3.1E1,6E1,8.9E1,6.5E1,6.1E1,3.9E1,5.2E1,2.9E1,6.5E1,7.4E1,5E1,4.9E1,4.1E1,1.1E1,2.3E1,6E0,3.1E1,3.4E1,5E0,3.6E1,1E1,1.3E1,8E0,2.3E1],"tree_param":{"num_deleted":"0","num_feature":"16","num_nodes":"37","size_leaf_vector":"1"}},{"base_weights":[3.401336E0,-1.4073917E2,1.9096622E2,-1.9590306E2,-8.510716E1,1.2406304E2,3.2490637E2,-6.8492466E-1,-5.011002E-1,-1.0936793E2,-4.4006157E1,7.636558E1,1.6763493E2,7.3576033E-1,1.092927E0,-3.591253E-1,-2.5081772E-1,-5.4547752E1,-1.86382E1,3.6908516E1,8.940079E1,3.6962634E-1,5.286063E-1,-1.871436E-1,-1.20519735E-1,-2.7439659E0,-3.610247E1,4.360255E1,2.2564323E1,7.248943E1,2.982767E-1,-3.982401E-2,2.477761E-2,-1.4884599E-1,-5.14725E-2,1.6952448E-1,7.706278E-2,1.708832E-2,1.1041535E-1,1.2916775E-1,2.4013448E-1],"categories":[],"categories_nodes":[],"categories_segments":[],"categories_sizes":[],"default_left":[0,0,0,0,0,0,0,0,0,0,0,0,0,0,0,0,0,0,0,0,0,0,0,0,0,0,0,0,0,0,0,0,0,0,0,0,0,0,0,0,0],"id":29,"left_children":[1,3,5,7,9,11,13,-1,-1,15,17,19,21,-1,-1,-1,-1,23,25,27,29,-1,-1,-1,-1,31,33,35,37,39,-1,-1,-1,-1,-1,-1,-1,-1,-1,-1,-1],"loss_changes":[2.0438756E7,1.286907E6,2.883187E6,1.424925E5,2.076495E5,4.4110975E5,2.06448E5,0E0,0E0,2.0796875E4,2.0529703E4,5.0842812E4,1.0985E4,0E0,0E0,0E0,0E0,2.7052812E3,7.203419E3,1.3501953E3,2.81925E3,0E0,0E0,0E0,0E0,1.9609612E3,1.916419E3,2.0917031E3,2.6839902E3,2.7126406E3,0E0,0E0,0E0,0E0,0E0,0E0,0E0,0E0,0E0,0E0,0E0],"parents":[2147483647,0,0,1,1,2,2,3,3,4,4,5,5,6,6,9,9,10,10,11,11,12,12,17,17,18,18,19,19,20,20,25,25,26,26,27,27,28,28,29,29],"right_children":[2,4,6,8,10,12,14,-1,-1,16,18,20,22,-1,-1,-1,-1,24,26,28,30,-1,-1,-1,-1,32,34,36,38,40,-1,-1,-1,-1,-1,-1,-1,-1,-1,-1,-1],"split_conditions":[1.15035E3,9.9635E2,1.3965E3,9.4575E2,1.0754E3,1.2909E3,1.49115E3,-6.8492466E-1,-5.011002E-1,1.057E3,1.12995E3,1.22025E3,1.3128E3,7.3576033E-1,1.092927E0,-3.591253E-1,-2.5081772E-1,1.0966786E3,1.1299E3,1.2329143E3,1.24155E3,3.6962634E-1,5.286063E-1,-1.871436E-1,-1.20519735E-1,7.332464E6,1.1162E3,6.8250275E1,1.2064E3,3.996732E1,2.982767E-1,-3.982401E-2,2.477761E-2,-1.4884599E-1,-5.14725E-2,1.6952448E-1,7.706278E-2,1.708832E-2,1.1041535E-1,1.2916775E-1,2.4013448E-1],"split_indices":[2,2,3,1,3,3,3,0,0,1,1,3,3,0,0,0,0,6,5,7,2,0,0,0,0,8,2,11,3,11,0,0,0,0,0,0,0,0,0,0,0],"split_type":[0,0,0,0,0,0,0,0,0,0,0,0,0,0,0,0,0,0,0,0,0,0,0,0,0,0,0,0,0,0,0,0,0,0,0,0,0,0,0,0,0],"sum_hessian":[7.53E2,4.26E2,3.27E2,2.12E2,2.14E2,2.2E2,1.07E2,9.5E1,1.17E2,1.33E2,8.1E1,1.07E2,1.13E2,3.9E1,6.8E1,9.1E1,4.2E1,5.6E1,2.5E1,2.8E1,7.9E1,2.2E1,9.1E1,3.3E1,2.3E1,1.4E1,1.1E1,1.7E1,1.1E1,3.4E1,4.5E1,7E0,7E0,5E0,6E0,8E0,9E0,6E0,5E0,9E0,2.5E1],"tree_param":{"num_deleted":"0","num_feature":"16","num_nodes":"41","size_leaf_vector":"1"}},{"base_weights":[9.565937E-1,-1.4102791E2,1.9661105E2,-1.8584021E2,-6.577021E1,1.2967221E2,3.223761E2,-2.2117783E2,-1.4975407E2,-9.021334E1,-2.7877686E1,8.199475E1,1.699121E2,7.5338185E-1,3.5341394E2,-8.3323145E-1,-6.140182E-1,-4.8573083E-1,-3.9140254E-1,-2.8905824E-1,-1.8535298E-1,-4.151523E1,-8.500395E-1,3.0722645E1,8.872944E1,4.463985E-1,5.7558584E-1,1.0918117E0,4.9739772E-1,-1.42052E-1,-2.3278997E1,1.4915857E1,-1.652193E1,1.10286266E-1,4.7159057E-2,2.0668295E-1,9.82892E1,-2.21233E-2,-9.3964465E-2,-3.2996573E-2,1.2417215E-1,2.161591E-3,-8.452304E-2,3.06837E-1,1.3746503E-1],"categories":[],"categories_nodes":[],"categories_segments":[],"categories_sizes":[],"default_left":[0,0,0,0,0,0,0,0,0,0,0,0,0,0,0,0,0,0,0,0,0,0,0,0,0,0,0,0,0,0,0,0,0,0,0,0,0,0,0,0,0,0,0,0,0],"id":30,"left_children":[1,3,5,7,9,11,13,15,17,19,21,23,25,-1,27,-1,-1,-1,-1,-1,-1,29,31,33,35,-1,-1,-1,-1,-1,37,39,41,-1,-1,-1,43,-1,-1,-1,-1,-1,-1,-1,-1],"loss_changes":[2.0445936E7,1.419999E6,2.542797E6,2.90121E5,1.45799E5,3.7141775E5,1.02326E5,3.7454E4,2.8725E2,8.0719375E3,2.4085516E4,2.9220688E4,7.88675E3,0E0,4.8626E4,0E0,0E0,0E0,0E0,0E0,0E0,2.9686328E3,6.1762324E3,3.5114844E2,5.8486875E3,0E0,0E0,0E0,0E0,0E0,1.376479E3,9.2620205E3,2.54465E3,0E0,0E0,0E0,4.1547188E3,0E0,0E0,0E0,0E0,0E0,0E0,0E0,0E0],"parents":[2147483647,0,0,1,1,2,2,3,3,4,4,5,5,6,6,7,7,8,8,9,9,10,10,11,11,12,12,14,14,21,21,22,22,23,23,24,24,30,30,31,31,32,32,36,36],"right_children":[2,4,6,8,10,12,14,16,18,20,22,24,26,-1,28,-1,-1,-1,-1,-1,-1,30,32,34,36,-1,-1,-1,-1,-1,38,40,42,-1,-1,-1,44,-1,-1,-1,-1,-1,-1,-1,-1],"split_conditions":[1.19215E3,1.02515E3,1.41165E3,9.63E2,1.0907E3,1.2909E3,1.49115E3,8.878E2,9.9775E2,1.07765E3,1.13445E3,1.2138E3,1.3441E3,7.5338185E-1,1.0140202E0,-8.3323145E-1,-6.140182E-1,-4.8573083E-1,-3.9140254E-1,-2.8905824E-1,-1.8535298E-1,1.12995E3,1.1364E3,1.2177E3,1.249E3,4.463985E-1,5.7558584E-1,1.0918117E0,4.9739772E-1,-1.42052E-1,1.1129E3,1.1215714E3,1.1206738E3,1.10286266E-1,4.7159057E-2,2.0668295E-1,1.3361476E3,-2.21233E-2,-9.3964465E-2,-3.2996573E-2,1.2417215E-1,2.161591E-3,-8.452304E-2,3.06837E-1,1.3746503E-1],"split_indices":[3,3,3,1,4,3,3,3,5,3,3,3,3,0,13,0,0,0,0,0,0,1,5,4,3,0,0,0,0,0,4,6,7,0,0,0,7,0,0,0,0,0,0,0,0],"split_type":[0,0,0,0,0,0,0,0,0,0,0,0,0,0,0,0,0,0,0,0,0,0,0,0,0,0,0,0,0,0,0,0,0,0,0,0,0,0,0,0,0,0,0,0,0],"sum_hessian":[7.33E2,4.25E2,3.08E2,2.65E2,1.6E2,2.03E2,1.05E2,1.3E2,1.35E2,9.6E1,6.4E1,9.5E1,1.08E2,3.6E1,6.9E1,2.4E1,1.06E2,7.6E1,5.9E1,7.6E1,2E1,4.2E1,2.2E1,1.2E1,8.3E1,6.1E1,4.7E1,6.4E1,5E0,3E1,1.2E1,1.1E1,1.1E1,7E0,5E0,3.1E1,5.2E1,5E0,7E0,6E0,5E0,5E0,6E0,4.7E1,5E0],"tree_param":{"num_deleted":"0","num_feature":"16","num_nodes":"45","size_leaf_vector":"1"}},{"base_weights":[-1.1754354E0,-1.4461108E2,1.9150793E2,-1.9692252E2,-8.47324E1,1.1596843E2,3.2034387E2,-7.3226243E-1,-1.7772655E2,-1.1315372E2,-4.2534252E1,7.4015594E1,1.6089981E2,7.417158E-1,3.5513007E2,-5.739497E-1,-4.6544707E-1,-3.6883047E-1,-2.732262E-1,-5.463802E1,-1.3403236E1,4.811527E1,2.7663907E-1,3.6757737E-1,5.287623E-1,1.0936205E0,5.132935E-1,-5.7219856E1,-6.2290102E-2,-3.646727E0,-9.0827785E-2,5.8080547E-2,5.3201355E1,-1.9500105E-1,-1.264868E-1,-3.4566887E-2,4.0609177E-2,5.344384E-2,1.7621589E-1],"categories":[],"categories_nodes":[],"categories_segments":[],"categories_sizes":[],"default_left":[0,0,0,0,0,0,0,0,0,0,0,0,0,0,0,0,0,0,0,0,0,0,0,0,0,0,0,0,0,0,0,0,0,0,0,0,0,0,0],"id":31,"left_children":[1,3,5,7,9,11,13,-1,15,17,19,21,23,-1,25,-1,-1,-1,-1,27,29,31,-1,-1,-1,-1,-1,33,-1,35,-1,-1,37,-1,-1,-1,-1,-1,-1],"loss_changes":[2.0562502E7,1.310885E6,3.034206E6,1.39955E5,2.3442938E5,3.63825E5,1.64503E5,0E0,6.528E3,9.01175E3,2.8336406E4,4.39975E4,2.4435E4,0E0,3.7137E4,0E0,0E0,0E0,0E0,3.3264219E3,4.1933887E3,5.394672E3,0E0,0E0,0E0,0E0,0E0,2.1462656E3,0E0,2.7373008E3,0E0,0E0,6.1626094E3,0E0,0E0,0E0,0E0,0E0,0E0],"parents":[2147483647,0,0,1,1,2,2,3,3,4,4,5,5,6,6,8,8,9,9,10,10,11,11,12,12,14,14,19,19,20,20,21,21,27,27,29,29,32,32],"right_children":[2,4,6,8,10,12,14,-1,16,18,20,22,24,-1,26,-1,-1,-1,-1,28,30,32,-1,-1,-1,-1,-1,34,-1,36,-1,-1,38,-1,-1,-1,-1,-1,-1],"split_conditions":[1.15035E3,9.933E2,1.3965E3,9.177E2,1.06715E3,1.28675E3,1.49115E3,-7.3226243E-1,9.669E2,1.0373E3,1.12365E3,1.23515E3,1.31915E3,7.417158E-1,1.0205698E0,-5.739497E-1,-4.6544707E-1,-3.6883047E-1,-2.732262E-1,2.4844095E-2,1.1299E3,1.1188619E3,2.7663907E-1,3.6757737E-1,5.287623E-1,1.0936205E0,5.132935E-1,1.0966786E3,-6.2290102E-2,1.1513E3,-9.0827785E-2,5.8080547E-2,7.129723E-2,-1.9500105E-1,-1.264868E-1,-3.4566887E-2,4.0609177E-2,5.344384E-2,1.7621589E-1],"split_indices":[2,2,3,3,3,3,3,0,3,3,3,3,3,0,13,0,0,0,0,14,5,7,0,0,0,0,0,6,0,3,0,0,13,0,0,0,0,0,0],"split_type":[0,0,0,0,0,0,0,0,0,0,0,0,0,0,0,0,0,0,0,0,0,0,0,0,0,0,0,0,0,0,0,0,0,0,0,0,0,0,0],"sum_hessian":[7.41E2,4.25E2,3.16E2,2.25E2,2E2,2.01E2,1.15E2,6E1,1.65E2,1.18E2,8.2E1,1.06E2,9.5E1,4.1E1,7.4E1,9.6E1,6.9E1,7.7E1,4.1E1,5.7E1,2.5E1,4.6E1,6E1,3.1E1,6.4E1,6.9E1,5E0,5.2E1,5E0,1.7E1,8E0,8E0,3.8E1,3.1E1,2.1E1,1.2E1,5E0,6E0,3.2E1],"tree_param":{"num_deleted":"0","num_feature":"16","num_nodes":"39","size_leaf_vector":"1"}},{"base_weights":[2.7619333E0,-1.3654617E2,1.8045805E2,-1.940388E2,-8.051731E1,1.2001863E2,3.1457925E2,-6.808873E-1,-4.97162E-1,-1.0752855E2,-4.273846E1,7.7961525E1,1.6927504E2,7.0865834E-1,3.414045E2,-3.5551146E-1,-2.5441465E-1,-5.0427742E1,-1.8619135E1,4.6263775E1,2.862846E-1,4.3516722E-1,5.61168E-1,1.052854E0,4.947974E-1,-5.2264294E1,-6.250054E-2,-2.5469639E1,-1.7511258E-2,4.423724E-2,1.5348819E-1,-1.6111925E-1,-8.162643E-2,-1.570903E-2,-1.0304091E-1],"categories":[],"categories_nodes":[],"categories_segments":[],"categories_sizes":[],"default_left":[0,0,0,0,0,0,0,0,0,0,0,0,0,0,0,0,0,0,0,0,0,0,0,0,0,0,0,0,0,0,0,0,0,0,0],"id":32,"left_children":[1,3,5,7,9,11,13,-1,-1,15,17,19,21,-1,23,-1,-1,25,27,29,-1,-1,-1,-1,-1,31,-1,33,-1,-1,-1,-1,-1,-1,-1],"loss_changes":[1.8392436E7,1.3181865E6,2.590001E6,1.34204E5,2.109585E5,4.5146475E5,9.0226E4,0E0,0E0,1.5705875E4,1.5554328E4,6.2847125E4,3.838E3,0E0,3.3582E4,0E0,0E0,2.0825E3,1.9191719E3,6.1960156E3,0E0,0E0,0E0,0E0,0E0,9.4421875E1,0E0,2.510337E3,0E0,0E0,0E0,0E0,0E0,0E0,0E0],"parents":[2147483647,0,0,1,1,2,2,3,3,4,4,5,5,6,6,9,9,10,10,11,11,12,12,14,14,17,17,18,18,19,19,25,25,27,27],"right_children":[2,4,6,8,10,12,14,-1,-1,16,18,20,22,-1,24,-1,-1,26,28,30,-1,-1,-1,-1,-1,32,-1,34,-1,-1,-1,-1,-1,-1,-1],"split_conditions":[1.1685E3,1.0049E3,1.3965E3,9.36E2,1.0754E3,1.29585E3,1.46435E3,-6.808873E-1,-4.97162E-1,1.04455E3,1.12365E3,1.23435E3,1.34285E3,7.0865834E-1,1.0140202E0,-3.5551146E-1,-2.5441465E-1,1.13095E3,7.7053386E-1,-1.6426935E1,2.862846E-1,4.3516722E-1,5.61168E-1,1.052854E0,4.947974E-1,2.5032825E1,-6.250054E-2,1.12845E3,-1.7511258E-2,4.423724E-2,1.5348819E-1,-1.6111925E-1,-8.162643E-2,-1.570903E-2,-1.0304091E-1],"split_indices":[3,3,3,3,3,3,3,0,0,3,3,3,3,0,13,0,0,0,13,12,0,0,0,0,0,12,0,5,0,0,0,0,0,0,0],"split_type":[0,0,0,0,0,0,0,0,0,0,0,0,0,0,0,0,0,0,0,0,0,0,0,0,0,0,0,0,0,0,0,0,0,0,0],"sum_hessian":[7.4E2,4.15E2,3.25E2,2.03E2,2.12E2,2.26E2,9.9E1,8.9E1,1.14E2,1.22E2,9E1,1.24E2,1.02E2,2.9E1,7E1,7.8E1,4.4E1,6.7E1,2.3E1,4.6E1,7.8E1,4.9E1,5.3E1,6.5E1,5E0,6.2E1,5E0,1.4E1,9E0,7E0,3.9E1,5.7E1,5E0,5E0,9E0],"tree_param":{"num_deleted":"0","num_feature":"16","num_nodes":"35","size_leaf_vector":"1"}},{"base_weights":[-3.2057378E0,-1.3901459E2,1.8870859E2,-1.9465663E2,-8.26724E1,1.2009387E2,3.1113297E2,-6.694216E-1,-4.9213496E-1,-1.1237496E2,-4.4774223E1,7.556444E1,1.6739874E2,6.851287E-1,3.4088205E2,-3.5954806E-1,-2.6211414E-1,-5.749744E1,-1.4970997E1,5.6906647E1,3.068359E-1,3.9195135E-1,5.329465E-1,1.0458703E0,5.275657E-1,-5.7593703E-2,-6.0058083E1,-5.023747E-1,-3.6895016E1,2.2703562E-2,6.2614677E1,-2.0032915E-1,-1.2322524E-1,-4.4697504E-2,1.0178697E-1,-1.4423302E-1,-5.9433147E-2,1.3778895E-1,2.1666545E-1],"categories":[],"categories_nodes":[],"categories_segments":[],"categories_sizes":[],"default_left":[0,0,0,0,0,0,0,0,0,0,0,0,0,0,0,0,0,0,0,0,0,0,0,0,0,0,0,0,0,0,0,0,0,0,0,0,0,0,0],"id":33,"left_children":[1,3,5,7,9,11,13,-1,-1,15,17,19,21,-1,23,-1,-1,25,27,29,-1,-1,-1,-1,-1,-1,31,33,35,-1,37,-1,-1,-1,-1,-1,-1,-1,-1],"loss_changes":[1.9339486E7,1.337989E6,2.526944E6,1.347005E5,2.383965E5,4.0124025E5,1.52751E5,0E0,0E0,6.978875E3,3.605208E4,4.383775E4,1.1265E3,0E0,6.996E3,0E0,0E0,4.9804844E3,9.960584E3,1.7728781E4,0E0,0E0,0E0,0E0,0E0,0E0,3.9733125E3,1.0918243E4,9.525586E2,0E0,4.3897812E3,0E0,0E0,0E0,0E0,0E0,0E0,0E0,0E0],"parents":[2147483647,0,0,1,1,2,2,3,3,4,4,5,5,6,6,9,9,10,10,11,11,12,12,14,14,17,17,18,18,19,19,26,26,27,27,28,28,30,30],"right_children":[2,4,6,8,10,12,14,-1,-1,16,18,20,22,-1,24,-1,-1,26,28,30,-1,-1,-1,-1,-1,-1,32,34,36,-1,38,-1,-1,-1,-1,-1,-1,-1,-1],"split_conditions":[1.15035E3,9.933E2,1.4124E3,9.5135E2,1.0799E3,1.312E3,1.47485E3,-6.694216E-1,-4.9213496E-1,1.057E3,1.12995E3,1.24155E3,1.311E3,6.851287E-1,1.0140202E0,-3.5954806E-1,-2.6211414E-1,9.295865E-3,1.1364E3,7.129723E-2,3.068359E-1,3.9195135E-1,5.329465E-1,1.0458703E0,5.275657E-1,-5.7593703E-2,1.0966786E3,1.1077203E7,1.1162E3,2.2703562E-2,1.2368E3,-2.0032915E-1,-1.2322524E-1,-4.4697504E-2,1.0178697E-1,-1.4423302E-1,-5.9433147E-2,1.3778895E-1,2.1666545E-1],"split_indices":[2,2,1,1,1,1,1,0,0,1,1,2,2,0,13,0,0,14,5,13,0,0,0,0,0,0,6,8,2,0,1,0,0,0,0,0,0,0,0],"split_type":[0,0,0,0,0,0,0,0,0,0,0,0,0,0,0,0,0,0,0,0,0,0,0,0,0,0,0,0,0,0,0,0,0,0,0,0,0,0,0],"sum_hessian":[7.39E2,4.33E2,3.06E2,2.16E2,2.17E2,1.98E2,1.08E2,1.07E2,1.09E2,1.2E2,9.7E1,1.04E2,9.4E1,3.2E1,7.6E1,8.8E1,3.2E1,6.7E1,3E1,6.4E1,4E1,2.5E1,6.9E1,7.1E1,5E0,5E0,6.2E1,1.9E1,1.1E1,7E0,5.7E1,4.3E1,1.9E1,1.4E1,5E0,5E0,6E0,2.4E1,3.3E1],"tree_param":{"num_deleted":"0","num_feature":"16","num_nodes":"39","size_leaf_vector":"1"}},{"base_weights":[-2.3759918E0,-1.3990483E2,1.7845592E2,-1.957686E2,-8.0813194E1,1.1110477E2,2.9790637E2,-6.981684E-1,-5.133006E-1,-1.0938664E2,-4.1056625E1,7.5281555E1,4.8370102E-1,6.7330813E-1,3.353264E2,-3.5505992E-1,-2.4799795E-1,-5.1111637E1,-1.2067516E1,4.9353016E1,9.779691E1,1.0317869E0,5.0974977E-1,-5.303971E1,-6.495595E-2,-1.2175056E0,-8.6989045E-2,4.504548E-2,5.4247776E1,3.0379108E-1,1.3203616E-1,-1.8431428E-1,-1.2411486E-1,-3.8805205E-2,4.6251748E-2,1.0844009E-1,1.826276E-1],"categories":[],"categories_nodes":[],"categories_segments":[],"categories_sizes":[],"default_left":[0,0,0,0,0,0,0,0,0,0,0,0,0,0,0,0,0,0,0,0,0,0,0,0,0,0,0,0,0,0,0,0,0,0,0,0,0],"id":34,"left_children":[1,3,5,7,9,11,13,-1,-1,15,17,19,-1,-1,21,-1,-1,23,25,27,29,-1,-1,31,-1,33,-1,-1,35,-1,-1,-1,-1,-1,-1,-1,-1],"loss_changes":[1.8105212E7,1.3412385E6,2.480503E6,1.33035E5,2.2442075E5,3.4721025E5,1.96347E5,0E0,0E0,1.345675E4,2.45735E4,6.3675938E4,0E0,0E0,1.4031E4,0E0,0E0,1.9335312E3,4.444135E3,8.771766E3,5.1404375E3,0E0,0E0,2.0076094E3,0E0,3.5150466E3,0E0,0E0,2.8683438E3,0E0,0E0,0E0,0E0,0E0,0E0,0E0,0E0],"parents":[2147483647,0,0,1,1,2,2,3,3,4,4,5,5,6,6,9,9,10,10,11,11,14,14,17,17,18,18,19,19,20,20,23,23,25,25,28,28],"right_children":[2,4,6,8,10,12,14,-1,-1,16,18,20,-1,-1,22,-1,-1,24,26,28,30,-1,-1,32,-1,34,-1,-1,36,-1,-1,-1,-1,-1,-1,-1,-1],"split_conditions":[1.1835E3,9.933E2,1.395E3,9.221E2,1.08975E3,1.312E3,1.441E3,-6.981684E-1,-5.133006E-1,1.0403E3,1.1325E3,1.2587E3,4.8370102E-1,6.7330813E-1,1.0205698E0,-3.5505992E-1,-2.4799795E-1,9.584469E-1,1.1299E3,1.3429648E-1,1.4633539E7,1.0317869E0,5.0974977E-1,1.08635E3,-6.495595E-2,9.031562E9,-8.6989045E-2,4.504548E-2,1.2172E3,3.0379108E-1,1.3203616E-1,-1.8431428E-1,-1.2411486E-1,-3.8805205E-2,4.6251748E-2,1.0844009E-1,1.826276E-1],"split_indices":[1,2,1,2,1,1,2,0,0,2,1,1,0,0,13,0,0,13,5,13,8,0,0,2,0,10,0,0,1,0,0,0,0,0,0,0,0],"split_type":[0,0,0,0,0,0,0,0,0,0,0,0,0,0,0,0,0,0,0,0,0,0,0,0,0,0,0,0,0,0,0,0,0,0,0,0,0],"sum_hessian":[7.25E2,4.12E2,3.13E2,2.1E2,2.02E2,2.02E2,1.11E2,7.9E1,1.31E2,1.16E2,8.6E1,1.2E2,8.2E1,4.1E1,7E1,8.3E1,3.3E1,6.3E1,2.3E1,5.8E1,6.2E1,6.5E1,5E0,5.8E1,5E0,1.5E1,8E0,8E0,5E1,5.7E1,5E0,3E1,2.8E1,9E0,6E0,1.6E1,3.4E1],"tree_param":{"num_deleted":"0","num_feature":"16","num_nodes":"37","size_leaf_vector":"1"}},{"base_weights":[3.7653372E0,-1.3734604E2,1.8165376E2,-1.9234724E2,-7.979791E1,1.18359795E2,3.1007086E2,-6.4507425E-1,-4.6968928E-1,-1.0966374E2,-3.991939E1,8.036797E1,1.6640294E2,7.25822E-1,1.0643437E0,-3.488799E-1,-2.596394E-1,-5.40402E1,-9.997813E0,5.628557E1,9.905795E1,4.2458647E-1,5.538768E-1,-5.916821E1,-1.2292425E-1,9.716196E0,-2.8808992E1,3.7908764E1,6.215781E1,3.0570474E-1,1.4127143E-1,-1.8701306E-1,-8.310232E-2,-2.5106646E-2,9.93162E-2,-3.2532804E-2,-1.1254753E-1,1.3550238E-1,4.2208333E-2,1.9834101E-1,1.1265137E-1],"categories":[],"categories_nodes":[],"categories_segments":[],"categories_sizes":[],"default_left":[0,0,0,0,0,0,0,0,0,0,0,0,0,0,0,0,0,0,0,0,0,0,0,0,0,0,0,0,0,0,0,0,0,0,0,0,0,0,0,0,0],"id":35,"left_children":[1,3,5,7,9,11,13,-1,-1,15,17,19,21,-1,-1,-1,-1,23,25,27,29,-1,-1,31,-1,33,35,37,39,-1,-1,-1,-1,-1,-1,-1,-1,-1,-1,-1,-1],"loss_changes":[1.9152662E7,1.3237495E6,2.688117E6,1.251535E5,2.44125E5,3.9698375E5,2.07783E5,0E0,0E0,3.196875E3,3.8265984E4,5.0359188E4,5.87325E3,0E0,0E0,0E0,0E0,5.408594E2,1.2103357E4,2.98425E3,3.35325E3,0E0,0E0,1.5398125E3,0E0,7.3974844E3,1.9657842E3,2.2421367E3,5.0015625E2,0E0,0E0,0E0,0E0,0E0,0E0,0E0,0E0,0E0,0E0,0E0,0E0],"parents":[2147483647,0,0,1,1,2,2,3,3,4,4,5,5,6,6,9,9,10,10,11,11,12,12,17,17,18,18,19,19,20,20,23,23,25,25,26,26,27,27,28,28],"right_children":[2,4,6,8,10,12,14,-1,-1,16,18,20,22,-1,-1,-1,-1,24,26,28,30,-1,-1,32,-1,34,36,38,40,-1,-1,-1,-1,-1,-1,-1,-1,-1,-1,-1,-1],"split_conditions":[1.15035E3,9.933E2,1.4124E3,9.63E2,1.0849E3,1.312E3,1.49775E3,-6.4507425E-1,-4.6968928E-1,1.057E3,1.128E3,1.2587E3,1.32805E3,7.25822E-1,1.0643437E0,-3.488799E-1,-2.596394E-1,1.08635E3,1.1188619E3,1.2225E3,1.3321809E3,4.2458647E-1,5.538768E-1,6.711062E1,-1.2292425E-1,1.237802E10,1.12845E3,1.21065E3,1.2469E3,3.0570474E-1,1.4127143E-1,-1.8701306E-1,-8.310232E-2,-2.5106646E-2,9.93162E-2,-3.2532804E-2,-1.1254753E-1,1.3550238E-1,4.2208333E-2,1.9834101E-1,1.1265137E-1],"split_indices":[2,2,1,1,1,1,1,0,0,1,1,1,2,0,0,0,0,2,7,1,7,0,0,11,0,10,5,4,5,0,0,0,0,0,0,0,0,0,0,0,0],"split_type":[0,0,0,0,0,0,0,0,0,0,0,0,0,0,0,0,0,0,0,0,0,0,0,0,0,0,0,0,0,0,0,0,0,0,0,0,0,0,0,0,0],"sum_hessian":[7.6E2,4.24E2,3.36E2,2.15E2,2.09E2,2.27E2,1.09E2,1.27E2,8.8E1,1.18E2,9.1E1,1.29E2,9.8E1,4.7E1,6.2E1,8.7E1,3.1E1,6.1E1,3E1,5.9E1,7E1,4.7E1,5.1E1,4E1,2.1E1,1.5E1,1.5E1,1.7E1,4.2E1,6.5E1,5E0,3.5E1,5E0,9E0,6E0,6E0,9E0,1.2E1,5E0,3.4E1,8E0],"tree_param":{"num_deleted":"0","num_feature":"16","num_nodes":"41","size_leaf_vector":"1"}},{"base_weights":[-2.6494002E0,-1.3754268E2,1.7945815E2,-1.922328E2,-8.0012825E1,1.1609624E2,3.0883505E2,-2.1797801E2,-4.7208697E-1,-1.0716904E2,-3.9382282E1,8.066016E1,4.9771369E-1,7.3530316E-1,3.4272104E2,-7.587917E-1,-5.970287E-1,-3.5214445E-1,-2.5068027E-1,-4.927338E1,-4.4100122E0,3.668228E1,9.260185E1,1.0632144E0,4.8077935E-1,-1.5575585E-1,-7.558134E-2,5.0417572E-2,-1.4934425E1,4.984755E-2,3.9756092E1,7.454733E1,3.0910093E-1,1.8910157E-4,-7.663127E-2,1.4036062E-1,7.709077E-2,2.3888004E-1,1.06746815E-1],"categories":[],"categories_nodes":[],"categories_segments":[],"categories_sizes":[],"default_left":[0,0,0,0,0,0,0,0,0,0,0,0,0,0,0,0,0,0,0,0,0,0,0,0,0,0,0,0,0,0,0,0,0,0,0,0,0,0,0],"id":36,"left_children":[1,3,5,7,9,11,13,15,-1,17,19,21,-1,-1,23,-1,-1,-1,-1,25,27,29,31,-1,-1,-1,-1,-1,33,-1,35,37,-1,-1,-1,-1,-1,-1,-1],"loss_changes":[1.7981814E7,1.2999265E6,2.499718E6,1.41077E5,2.2260425E5,3.532025E5,9.3147E4,3.6795E3,0E0,1.504375E4,2.9244344E4,6.1325812E4,0E0,0E0,4.79935E4,0E0,0E0,0E0,0E0,2.2660625E3,4.953625E3,8.230625E2,7.0125E3,0E0,0E0,0E0,0E0,0E0,2.3121018E3,0E0,6.1108594E2,3.9520938E3,0E0,0E0,0E0,0E0,0E0,0E0,0E0],"parents":[2147483647,0,0,1,1,2,2,3,3,4,4,5,5,6,6,7,7,9,9,10,10,11,11,14,14,19,19,20,20,21,21,22,22,28,28,30,30,31,31],"right_children":[2,4,6,8,10,12,14,16,-1,18,20,22,-1,-1,24,-1,-1,-1,-1,26,28,30,32,-1,-1,-1,-1,-1,34,-1,36,38,-1,-1,-1,-1,-1,-1,-1],"split_conditions":[1.1685E3,9.9485E2,1.3965E3,9.504E2,1.06715E3,1.3041E3,1.49115E3,9.138E2,-4.7208697E-1,1.04455E3,1.1162E3,1.22025E3,4.9771369E-1,7.3530316E-1,7.144054E-1,-7.587917E-1,-5.970287E-1,-3.5214445E-1,-2.5068027E-1,1.12365E3,1.1122E3,1.0775857E3,1.24155E3,1.0632144E0,4.8077935E-1,-1.5575585E-1,-7.558134E-2,5.0417572E-2,1.1206738E3,4.984755E-2,1.2329143E3,1.2633E3,3.0910093E-1,1.8910157E-4,-7.663127E-2,1.4036062E-1,7.709077E-2,2.3888004E-1,1.06746815E-1],"split_indices":[3,2,3,3,3,3,3,1,0,3,2,3,0,0,9,0,0,0,0,3,5,7,2,0,0,0,0,0,7,0,7,5,0,0,0,0,0,0,0],"split_type":[0,0,0,0,0,0,0,0,0,0,0,0,0,0,0,0,0,0,0,0,0,0,0,0,0,0,0,0,0,0,0,0,0,0,0,0,0,0,0],"sum_hessian":[7.29E2,4.19E2,3.1E2,2.13E2,2.06E2,2.1E2,1E2,1.18E2,9.5E1,1.22E2,8.4E1,1.25E2,8.5E1,3.9E1,6.1E1,3.5E1,8.3E1,8.1E1,4.1E1,6.5E1,1.9E1,2.8E1,9.7E1,5.6E1,5E0,5.7E1,8E0,6E0,1.3E1,5E0,2.3E1,4E1,5.7E1,6E0,7E0,1.3E1,1E1,3.4E1,6E0],"tree_param":{"num_deleted":"0","num_feature":"16","num_nodes":"39","size_leaf_vector":"1"}},{"base_weights":[7.5798176E-2,-1.3941576E2,1.8216016E2,-2.0057126E2,-8.534279E1,1.14130714E2,3.0390192E2,-6.97803E-1,-5.242682E-1,-1.1059375E2,-3.8338158E1,7.7745186E1,4.8291445E-1,7.026163E-1,3.4285205E2,-3.6599952E-1,-2.4990237E-1,-4.8137085E1,-1.2189447E1,3.9914783E1,9.102375E1,1.0562689E0,5.076285E-1,-1.5958078E-1,-1.1295801E-1,-2.127803E1,5.362161E-2,2.5207588E1,5.0585255E1,2.1305448E-1,9.753585E1,-7.9903826E-2,-2.2101749E-2,1.2380511E-2,9.9410005E-2,1.8394998E-1,9.2179686E-2,3.0095658E-1,1.4989525E-1],"categories":[],"categories_nodes":[],"categories_segments":[],"categories_sizes":[],"default_left":[0,0,0,0,0,0,0,0,0,0,0,0,0,0,0,0,0,0,0,0,0,0,0,0,0,0,0,0,0,0,0,0,0,0,0,0,0,0,0],"id":37,"left_children":[1,3,5,7,9,11,13,-1,-1,15,17,19,-1,-1,21,-1,-1,23,25,27,29,-1,-1,-1,-1,31,-1,33,35,-1,37,-1,-1,-1,-1,-1,-1,-1,-1],"loss_changes":[1.9176418E7,1.387978E6,2.660295E6,1.039445E5,2.6602138E5,3.4337325E5,1.95756E5,0E0,0E0,3.0964375E4,2.025275E4,5.6072875E4,0E0,0E0,2.5271E4,0E0,0E0,1.4095312E2,7.2650293E3,3.4939023E3,1.252875E3,0E0,0E0,0E0,0E0,1.15529E3,0E0,2.716292E3,1.1072852E3,0E0,8.73125E2,0E0,0E0,0E0,0E0,0E0,0E0,0E0,0E0],"parents":[2147483647,0,0,1,1,2,2,3,3,4,4,5,5,6,6,9,9,10,10,11,11,14,14,17,17,18,18,19,19,20,20,25,25,27,27,28,28,30,30],"right_children":[2,4,6,8,10,12,14,-1,-1,16,18,20,-1,-1,22,-1,-1,24,26,28,30,-1,-1,-1,-1,32,-1,34,36,-1,38,-1,-1,-1,-1,-1,-1,-1,-1],"split_conditions":[1.15035E3,9.832E2,1.39185E3,9.279E2,1.07765E3,1.29585E3,1.4759E3,-6.97803E-1,-5.242682E-1,1.04455E3,1.12365E3,1.2242E3,4.8291445E-1,7.026163E-1,1.0140202E0,-3.6599952E-1,-2.4990237E-1,1.1021E3,2.8203487E-1,1.5148858E-2,1.249E3,1.0562689E0,5.076285E-1,-1.5958078E-1,-1.1295801E-1,5.7446808E1,5.362161E-2,1.3429648E-1,7.1941215E-1,2.1305448E-1,1.2938071E3,-7.9903826E-2,-2.2101749E-2,1.2380511E-2,9.9410005E-2,1.8394998E-1,9.2179686E-2,3.0095658E-1,1.4989525E-1],"split_indices":[2,2,3,3,3,3,0,0,0,3,3,3,0,0,13,0,0,3,9,14,3,0,0,0,0,11,0,13,13,0,6,0,0,0,0,0,0,0,0],"split_type":[0,0,0,0,0,0,0,0,0,0,0,0,0,0,0,0,0,0,0,0,0,0,0,0,0,0,0,0,0,0,0,0,0,0,0,0,0,0,0],"sum_hessian":[7.52E2,4.26E2,3.26E2,1.98E2,2.28E2,2.11E2,1.15E2,8.3E1,1.15E2,1.47E2,8.1E1,1.21E2,9E1,4.5E1,7E1,1E2,4.7E1,5.8E1,2.3E1,3.3E1,8.8E1,6.5E1,5E0,3.5E1,2.3E1,1.8E1,5E0,1.6E1,1.7E1,2.6E1,6.2E1,1.2E1,6E0,5E0,1.1E1,9E0,8E0,5.7E1,5E0],"tree_param":{"num_deleted":"0","num_feature":"16","num_nodes":"39","size_leaf_vector":"1"}},{"base_weights":[2.5005183E0,-1.3712498E2,1.844899E2,-1.9827103E2,-8.403562E1,1.2419416E2,3.219937E2,-6.779999E-1,-5.08629E-1,-1.1447762E2,-4.4433357E1,8.238271E1,1.7470808E2,7.568024E-1,3.4530664E2,-3.6541745E-1,-2.602663E-1,-5.39473E1,3.6480403E0,4.7833214E1,9.814533E1,4.4540137E-1,5.7778037E-1,1.0663552E0,5.669525E-1,-5.8459E1,-3.7212303E1,-6.792985E0,7.3520325E-2,3.1880299E1,1.8177842E-1,1.3641655E-1,1.0050967E2,-7.654049E-2,-1.8164265E-1,-6.691209E-2,-1.4566343E-1,-4.5170903E-2,1.669797E-2,3.0480072E-2,1.22099325E-1,2.4761747E-1,3.3527288E-1],"categories":[],"categories_nodes":[],"categories_segments":[],"categories_sizes":[],"default_left":[0,0,0,0,0,0,0,0,0,0,0,0,0,0,0,0,0,0,0,0,0,0,0,0,0,0,0,0,0,0,0,0,0,0,0,0,0,0,0,0,0,0,0],"id":38,"left_children":[1,3,5,7,9,11,13,-1,-1,15,17,19,21,-1,23,-1,-1,25,27,29,31,-1,-1,-1,-1,33,35,37,-1,39,-1,-1,41,-1,-1,-1,-1,-1,-1,-1,-1,-1,-1],"loss_changes":[1.9286298E7,1.3692235E6,2.671821E6,1.0061E5,2.7264975E5,4.673265E5,3.1015E4,0E0,0E0,1.063975E4,4.7645625E4,6.3467938E4,5.65075E3,0E0,1.099E4,0E0,0E0,3.2583906E3,4.2805347E3,5.9477188E3,4.026875E3,0E0,0E0,0E0,0E0,2.1811719E3,2.1730469E3,1.5054734E3,0E0,3.6847793E3,0E0,0E0,2.8198125E3,0E0,0E0,0E0,0E0,0E0,0E0,0E0,0E0,0E0,0E0],"parents":[2147483647,0,0,1,1,2,2,3,3,4,4,5,5,6,6,9,9,10,10,11,11,12,12,14,14,17,17,18,18,19,19,20,20,25,25,26,26,27,27,29,29,32,32],"right_children":[2,4,6,8,10,12,14,-1,-1,16,18,20,22,-1,24,-1,-1,26,28,30,32,-1,-1,-1,-1,34,36,38,-1,40,-1,-1,42,-1,-1,-1,-1,-1,-1,-1,-1,-1,-1],"split_conditions":[1.1685E3,9.915E2,1.41635E3,9.36E2,1.0799E3,1.3101E3,1.49115E3,-6.779999E-1,-5.08629E-1,1.04455E3,1.1162E3,1.23515E3,1.3441E3,7.568024E-1,1.0140202E0,-3.6541745E-1,-2.602663E-1,1.109E3,1.5753418E-2,1.2138E3,5.3148405E-3,4.4540137E-1,5.7778037E-1,1.0663552E0,5.669525E-1,9.9439155E-3,1.10545E3,1.14E3,7.3520325E-2,1.4460314E-2,1.8177842E-1,1.3641655E-1,1.26535E3,-7.654049E-2,-1.8164265E-1,-6.691209E-2,-1.4566343E-1,-4.5170903E-2,1.669797E-2,3.0480072E-2,1.22099325E-1,2.4761747E-1,3.3527288E-1],"split_indices":[3,3,3,3,1,3,3,0,0,3,2,3,3,0,13,0,0,3,14,3,13,0,0,0,0,14,2,2,0,14,0,0,3,0,0,0,0,0,0,0,0,0,0],"split_type":[0,0,0,0,0,0,0,0,0,0,0,0,0,0,0,0,0,0,0,0,0,0,0,0,0,0,0,0,0,0,0,0,0,0,0,0,0,0,0,0,0,0,0],"sum_hessian":[7.56E2,4.28E2,3.28E2,1.97E2,2.31E2,2.3E2,9.8E1,9.5E1,1.02E2,1.29E2,1.02E2,1.28E2,1.02E2,2.9E1,6.9E1,9.8E1,3.1E1,8.5E1,1.7E1,4.2E1,8.6E1,4.7E1,5.5E1,6.3E1,6E0,6.4E1,2.1E1,1.2E1,5E0,2.1E1,2.1E1,5E0,8.1E1,5E0,5.9E1,1.1E1,1E1,7E0,5E0,7E0,1.4E1,3.6E1,4.5E1],"tree_param":{"num_deleted":"0","num_feature":"16","num_nodes":"43","size_leaf_vector":"1"}},{"base_weights":[7.80883E0,-1.4126593E2,1.8840459E2,-1.97515E2,-8.622803E1,1.1260093E2,2.979928E2,-7.6883507E-1,-1.8209447E2,-1.1580067E2,-4.3257336E1,7.33494E1,1.5806664E2,7.095848E-1,1.0260869E0,-5.7676953E-1,-4.485959E-1,-3.7088245E-1,-2.561942E-1,-5.2291794E1,-5.2128963E0,3.82814E1,8.423152E1,3.6091378E-1,5.044421E-1,-5.6302963E1,-3.207558E1,4.1132207E0,-6.588043E-2,5.361386E-2,1.2817729E-1,1.9172299E-1,9.302342E1,-1.355698E-1,-1.9519193E-1,-4.2081345E-2,-1.18048325E-1,-3.8773183E-2,6.851456E-2,2.9061952E-1,1.3200152E-1],"categories":[],"categories_nodes":[],"categories_segments":[],"categories_sizes":[],"default_left":[0,0,0,0,0,0,0,0,0,0,0,0,0,0,0,0,0,0,0,0,0,0,0,0,0,0,0,0,0,0,0,0,0,0,0,0,0,0,0,0,0],"id":39,"left_children":[1,3,5,7,9,11,13,-1,15,17,19,21,23,-1,-1,-1,-1,-1,-1,25,27,29,31,-1,-1,33,35,37,-1,-1,-1,-1,39,-1,-1,-1,-1,-1,-1,-1,-1],"loss_changes":[1.8845132E7,1.1616755E6,2.578853E6,1.007675E5,2.4217375E5,3.2076725E5,2.26399E5,0E0,7.9675E3,1.1626625E4,2.7941516E4,3.5029688E4,2.5555E3,0E0,0E0,0E0,0E0,0E0,0E0,2.6747656E3,2.8705442E3,1.3431172E3,5.09375E3,0E0,0E0,7.874531E2,1.0703135E3,4.4316055E3,0E0,0E0,0E0,0E0,3.311625E3,0E0,0E0,0E0,0E0,0E0,0E0,0E0,0E0],"parents":[2147483647,0,0,1,1,2,2,3,3,4,4,5,5,6,6,8,8,9,9,10,10,11,11,12,12,19,19,20,20,21,21,22,22,25,25,26,26,27,27,32,32],"right_children":[2,4,6,8,10,12,14,-1,16,18,20,22,24,-1,-1,-1,-1,-1,-1,26,28,30,32,-1,-1,34,36,38,-1,-1,-1,-1,40,-1,-1,-1,-1,-1,-1,-1,-1],"split_conditions":[1.1685E3,9.915E2,1.395E3,9.138E2,1.0702E3,1.2909E3,1.49115E3,-7.6883507E-1,9.6895E2,1.04455E3,1.13445E3,1.2368E3,1.31915E3,7.095848E-1,1.0260869E0,-5.7676953E-1,-4.485959E-1,-3.7088245E-1,-2.561942E-1,6.655024E1,1.0098281E7,-1.6426935E1,1.2587E3,3.6091378E-1,5.044421E-1,-8.2207537E-1,2.2201014E-1,1.15355E3,-6.588043E-2,5.361386E-2,1.2817729E-1,1.9172299E-1,1.3395619E3,-1.355698E-1,-1.9519193E-1,-4.2081345E-2,-1.18048325E-1,-3.8773183E-2,6.851456E-2,2.9061952E-1,1.3200152E-1],"split_indices":[3,3,1,1,1,3,3,0,3,3,3,1,3,0,0,0,0,0,0,11,8,12,1,0,0,12,9,3,0,0,0,0,7,0,0,0,0,0,0,0,0],"split_type":[0,0,0,0,0,0,0,0,0,0,0,0,0,0,0,0,0,0,0,0,0,0,0,0,0,0,0,0,0,0,0,0,0,0,0,0,0,0,0,0,0],"sum_hessian":[6.97E2,3.82E2,3.15E2,1.87E2,1.95E2,1.88E2,1.27E2,3.4E1,1.53E2,1.14E2,8.1E1,1.03E2,8.5E1,5.7E1,7E1,1.11E2,4.2E1,8.7E1,2.7E1,6.5E1,1.6E1,2.6E1,7.7E1,2.2E1,6.3E1,5.2E1,1.3E1,1.1E1,5E0,6E0,2E1,2.7E1,5E1,2.7E1,2.5E1,5E0,8E0,6E0,5E0,4.5E1,5E0],"tree_param":{"num_deleted":"0","num_feature":"16","num_nodes":"41","size_leaf_vector":"1"}},{"base_weights":[3.0196943E0,-1.3998486E2,1.803149E2,-1.9350522E2,-8.2234604E1,1.16220665E2,3.0983707E2,-2.2870782E2,-4.9521858E-1,-1.1250026E2,-4.4004314E1,7.578645E1,1.6449715E2,7.0598835E-1,1.042916E0,-8.367915E-1,-6.264193E-1,-3.6029533E-1,-2.6545423E-1,-5.646196E1,-1.0248083E1,4.0790062E1,8.710837E1,3.9941707E-1,5.339903E-1,-6.1043137E1,-1.01133674E-1,-2.8882973E1,8.154893E0,1.3474566E-1,5.2479435E-2,6.9134575E1,2.9750362E-1,-2.0353125E-1,-1.236972E-1,-1.1884913E-1,-4.6698954E-2,-1.5302136E-2,7.6985866E-2,1.0814769E-1,2.2239727E-1],"categories":[],"categories_nodes":[],"categories_segments":[],"categories_sizes":[],"default_left":[0,0,0,0,0,0,0,0,0,0,0,0,0,0,0,0,0,0,0,0,0,0,0,0,0,0,0,0,0,0,0,0,0,0,0,0,0,0,0,0,0],"id":40,"left_children":[1,3,5,7,9,11,13,15,-1,17,19,21,23,-1,-1,-1,-1,-1,-1,25,27,29,31,-1,-1,33,-1,35,37,-1,-1,39,-1,-1,-1,-1,-1,-1,-1,-1,-1],"loss_changes":[1.893929E7,1.254155E6,2.714535E6,1.57021E5,2.2570725E5,4.2145675E5,1.85636E5,4.042E3,0E0,4.38475E3,3.7603266E4,4.4383938E4,7.3885E3,0E0,0E0,0E0,0E0,0E0,0E0,3.8347188E3,9.443222E3,2.0346562E3,9.965875E3,0E0,0E0,3.0008438E3,0E0,9.9905566E2,3.5633647E3,0E0,0E0,3.0079688E3,0E0,0E0,0E0,0E0,0E0,0E0,0E0,0E0,0E0],"parents":[2147483647,0,0,1,1,2,2,3,3,4,4,5,5,6,6,7,7,9,9,10,10,11,11,12,12,19,19,20,20,21,21,22,22,25,25,27,27,28,28,31,31],"right_children":[2,4,6,8,10,12,14,16,-1,18,20,22,24,-1,-1,-1,-1,-1,-1,26,28,30,32,-1,-1,34,-1,36,38,-1,-1,40,-1,-1,-1,-1,-1,-1,-1,-1,-1],"split_conditions":[1.15035E3,9.933E2,1.4124E3,9.425E2,1.0799E3,1.302E3,1.49775E3,8.75E2,-4.9521858E-1,1.0261E3,1.12995E3,1.2397E3,1.318E3,7.0598835E-1,1.042916E0,-8.367915E-1,-6.264193E-1,-3.6029533E-1,-2.6545423E-1,6.711062E1,6.956096E-1,1.2336571E3,1.24155E3,3.9941707E-1,5.339903E-1,1.0966786E3,-1.01133674E-1,3.8190956E1,1.1375039E10,1.3474566E-1,5.2479435E-2,2.6733673E0,2.9750362E-1,-2.0353125E-1,-1.236972E-1,-1.1884913E-1,-4.6698954E-2,-1.5302136E-2,7.6985866E-2,1.0814769E-1,2.2239727E-1],"split_indices":[2,2,1,1,1,1,1,0,0,2,1,1,2,0,0,0,0,0,0,11,13,6,2,0,0,6,0,11,10,0,0,12,0,0,0,0,0,0,0,0,0],"split_type":[0,0,0,0,0,0,0,0,0,0,0,0,0,0,0,0,0,0,0,0,0,0,0,0,0,0,0,0,0,0,0,0,0,0,0,0,0,0,0,0,0],"sum_hessian":[7.44E2,4.12E2,3.32E2,2.12E2,2E2,2.24E2,1.08E2,9E1,1.22E2,1.1E2,9E1,1.24E2,1E2,4E1,6.8E1,2E1,7E1,7.9E1,3.1E1,6.5E1,2.5E1,3.2E1,9.2E1,3.5E1,6.5E1,5.2E1,1.3E1,1.2E1,1.3E1,2.6E1,6E0,4.1E1,5.1E1,3.6E1,1.6E1,5E0,7E0,8E0,5E0,7E0,3.4E1],"tree_param":{"num_deleted":"0","num_feature":"16","num_nodes":"41","size_leaf_vector":"1"}},{"base_weights":[2.365267E0,-1.3639597E2,1.830718E2,-1.817052E2,-7.214886E1,1.2231784E2,3.1628537E2,-2.12896E2,-4.4795063E-1,-9.90061E1,-4.072317E1,7.843277E1,1.6818779E2,7.384055E-1,1.0290941E0,-7.568229E-1,-5.825068E-1,-3.3121833E-1,-2.5249514E-1,-5.2890835E1,-2.0554457E1,5.476877E1,2.979671E-1,4.3220833E-1,5.641186E-1,-1.7162679E-1,-5.0035883E-2,-2.5390265E1,3.8231835E-3,3.8663586E1,1.9865291E-1,-3.2907113E-2,-9.453363E-2,6.727927E-2,1.2768644E-1],"categories":[],"categories_nodes":[],"categories_segments":[],"categories_sizes":[],"default_left":[0,0,0,0,0,0,0,0,0,0,0,0,0,0,0,0,0,0,0,0,0,0,0,0,0,0,0,0,0,0,0,0,0,0,0],"id":41,"left_children":[1,3,5,7,9,11,13,15,-1,17,19,21,23,-1,-1,-1,-1,-1,-1,25,27,29,-1,-1,-1,-1,-1,31,-1,33,-1,-1,-1,-1,-1],"loss_changes":[1.8329716E7,1.184003E6,2.511532E6,1.962475E5,1.4037356E5,4.24056E5,5.8103E4,1.4604E4,0E0,1.691875E3,1.8607953E4,4.8920125E4,1.0322E4,0E0,0E0,0E0,0E0,0E0,0E0,6.457922E3,3.587211E3,6.7513906E3,0E0,0E0,0E0,0E0,0E0,1.904748E3,0E0,3.0251953E2,0E0,0E0,0E0,0E0,0E0],"parents":[2147483647,0,0,1,1,2,2,3,3,4,4,5,5,6,6,7,7,9,9,10,10,11,11,12,12,19,19,20,20,21,21,27,27,29,29],"right_children":[2,4,6,8,10,12,14,16,-1,18,20,22,24,-1,-1,-1,-1,-1,-1,26,28,30,-1,-1,-1,-1,-1,32,-1,34,-1,-1,-1,-1,-1],"split_conditions":[1.1685E3,1.01805E3,1.41165E3,9.63E2,1.07245E3,1.29585E3,1.49115E3,9.016E2,-4.4795063E-1,1.04455E3,1.128E3,1.2587E3,1.3441E3,7.384055E-1,1.0290941E0,-7.568229E-1,-5.825068E-1,-3.3121833E-1,-2.5249514E-1,6.711062E1,1.1513E3,1.22025E3,2.979671E-1,4.3220833E-1,5.641186E-1,-1.7162679E-1,-5.0035883E-2,1.1129E3,3.8231835E-3,1.1105905E3,1.9865291E-1,-3.2907113E-2,-9.453363E-2,6.727927E-2,1.2768644E-1],"split_indices":[3,3,3,1,4,3,4,3,0,3,1,1,3,0,0,0,0,0,0,11,3,3,0,0,0,0,0,4,0,7,0,0,0,0,0],"split_type":[0,0,0,0,0,0,0,0,0,0,0,0,0,0,0,0,0,0,0,0,0,0,0,0,0,0,0,0,0,0,0,0,0,0,0],"sum_hessian":[7.28E2,4.12E2,3.16E2,2.4E2,1.72E2,2.19E2,9.7E1,1.18E2,1.22E2,9.1E1,8.1E1,1.14E2,1.05E2,3.1E1,6.6E1,3.2E1,8.6E1,4.6E1,4.5E1,4.9E1,3.2E1,5.6E1,5.8E1,5.3E1,5.2E1,4.3E1,6E0,2.6E1,6E0,2.6E1,3E1,9E0,1.7E1,7E0,1.9E1],"tree_param":{"num_deleted":"0","num_feature":"16","num_nodes":"35","size_leaf_vector":"1"}},{"base_weights":[4.4927278E0,-1.3447618E2,1.8241243E2,-1.9309355E2,-8.663457E1,1.19622154E2,3.110526E2,-7.302164E-1,-5.260465E-1,-1.1011799E2,-4.7529274E1,7.3481415E1,1.6538747E2,7.3340064E-1,3.4026535E2,-3.5478437E-1,-2.5255045E-1,-5.32148E1,