{"learner":{"attributes":{"best_iteration":"499","best_score":"549.8721124974433"},"feature_names":[],"feature_types":[],"gradient_booster":{"model":{"cats":{"enc":[],"feature_segments":[],"sorted_idx":[]},"gbtree_model_param":{"num_parallel_tree":"1","num_trees":"500"},"iteration_indptr":[0,1,2,3,4,5,6,7,8,9,10,11,12,13,14,15,16,17,18,19,20,21,22,23,24,25,26,27,28,29,30,31,32,33,34,35,36,37,38,39,40,41,42,43,44,45,46,47,48,49,50,51,52,53,54,55,56,57,58,59,60,61,62,63,64,65,66,67,68,69,70,71,72,73,74,75,76,77,78,79,80,81,82,83,84,85,86,87,88,89,90,91,92,93,94,95,96,97,98,99,100,101,102,103,104,105,106,107,108,109,110,111,112,113,114,115,116,117,118,119,120,121,122,123,124,125,126,127,128,129,130,131,132,133,134,135,136,137,138,139,140,141,142,143,144,145,146,147,148,149,150,151,152,153,154,155,156,157,158,159,160,161,162,163,164,165,166,167,168,169,170,171,172,173,174,175,176,177,178,179,180,181,182,183,184,185,186,187,188,189,190,191,192,193,194,195,196,197,198,199,200,201,202,203,204,205,206,207,208,209,210,211,212,213,214,215,216,217,218,219,220,221,222,223,224,225,226,227,228,229,230,231,232,233,234,235,236,237,238,239,240,241,242,243,244,245,246,247,248,249,250,251,252,253,254,255,256,257,258,259,260,261,262,263,264,265,266,267,268,269,270,271,272,273,274,275,276,277,278,279,280,281,282,283,284,285,286,287,288,289,290,291,292,293,294,295,296,297,298,299,300,301,302,303,304,305,306,307,308,309,310,311,312,313,314,315,316,317,318,319,320,321,322,323,324,325,326,327,328,329,330,331,332,333,334,335,336,337,338,339,340,341,342,343,344,345,346,347,348,349,350,351,352,353,354,355,356,357,358,359,360,361,362,363,364,365,366,367,368,369,370,371,372,373,374,375,376,377,378,379,380,381,382,383,384,385,386,387,388,389,390,391,392,393,394,395,396,397,398,399,400,401,402,403,404,405,406,407,408,409,410,411,412,413,414,415,416,417,418,419,420,421,422,423,424,425,426,427,428,429,430,431,432,433,434,435,436,437,438,439,440,441,442,443,444,445,446,447,448,449,450,451,452,453,454,455,456,457,458,459,460,461,462,463,464,465,466,467,468,469,470,471,472,473,474,475,476,477,478,479,480,481,482,483,484,485,486,487,488,489,490,491,492,493,494,495,496,497,498,499,500],"tree_info":[0,0,0,0,0,0,0,0,0,0,0,0,0,0,0,0,0,0,0,0,0,0,0,0,0,0,0,0,0,0,0,0,0,0,0,0,0,0,0,0,0,0,0,0,0,0,0,0,0,0,0,0,0,0,0,0,0,0,0,0,0,0,0,0,0,0,0,0,0,0,0,0,0,0,0,0,0,0,0,0,0,0,0,0,0,0,0,0,0,0,0,0,0,0,0,0,0,0,0,0,0,0,0,0,0,0,0,0,0,0,0,0,0,0,0,0,0,0,0,0,0,0,0,0,0,0,0,0,0,0,0,0,0,0,0,0,0,0,0,0,0,0,0,0,0,0,0,0,0,0,0,0,0,0,0,0,0,0,0,0,0,0,0,0,0,0,0,0,0,0,0,0,0,0,0,0,0,0,0,0,0,0,0,0,0,0,0,0,0,0,0,0,0,0,0,0,0,0,0,0,0,0,0,0,0,0,0,0,0,0,0,0,0,0,0,0,0,0,0,0,0,0,0,0,0,0,0,0,0,0,0,0,0,0,0,0,0,0,0,0,0,0,0,0,0,0,0,0,0,0,0,0,0,0,0,0,0,0,0,0,0,0,0,0,0,0,0,0,0,0,0,0,0,0,0,0,0,0,0,0,0,0,0,0,0,0,0,0,0,0,0,0,0,0,0,0,0,0,0,0,0,0,0,0,0,0,0,0,0,0,0,0,0,0,0,0,0,0,0,0,0,0,0,0,0,0,0,0,0,0,0,0,0,0,0,0,0,0,0,0,0,0,0,0,0,0,0,0,0,0,0,0,0,0,0,0,0,0,0,0,0,0,0,0,0,0,0,0,0,0,0,0,0,0,0,0,0,0,0,0,0,0,0,0,0,0,0,0,0,0,0,0,0,0,0,0,0,0,0,0,0,0,0,0,0,0,0,0,0,0,0,0,0,0,0,0,0,0,0,0,0,0,0,0,0,0,0,0,0,0,0,0,0,0,0,0,0,0,0,0,0,0,0,0,0,0,0,0,0,0,0,0,0,0,0,0,0,0,0,0,0,0,0,0,0,0,0,0,0,0,0,0,0,0,0,0,0,0,0,0,0,0,0,0,0,0,0,0,0,0,0,0,0,0,0,0,0,0,0,0],"trees":[{"base_weights":[-7.8753704E-1,-1.5323434E2,1.9925807E2,-2.1245657E2,-8.796455E1,1.315608E2,3.41248E2,-7.435569E-1,-5.533168E-1,-1.1758841E2,-4.6336266E1,8.614731E1,5.5485296E-1,8.1344485E-1,1.1421727E0,-3.802293E-1,-2.6935583E-1,-6.080863E1,-2.2565105E1,5.710899E1,3.2336044E-1,-2.1499157E-1,-4.6632935E1,-1.4195815E1,-1.08759314E-1,3.7887844E1,2.068797E-1,-7.186027E-2,-1.5021446E-1,-7.540113E-2,1.190715E-2,1.2666146E-1,4.839352E-2],"categories":[],"categories_nodes":[],"categories_segments":[],"categories_sizes":[],"default_left":[0,0,0,0,0,0,0,0,0,0,0,0,0,0,0,0,0,0,0,0,0,0,0,0,0,0,0,0,0,0,0,0,0],"id":0,"left_children":[1,3,5,7,9,11,13,-1,-1,15,17,19,-1,-1,-1,-1,-1,21,23,25,-1,-1,27,29,-1,31,-1,-1,-1,-1,-1,-1,-1],"loss_changes":[2.2811294E7,1.612809E6,3.042198E6,1.51048E5,2.4399812E5,5.1313E5,1.31498E5,0E0,0E0,1.30705E4,2.803561E4,6.7726E4,0E0,0E0,0E0,0E0,0E0,3.2079375E3,3.28983E3,8.7124375E3,0E0,0E0,3.3810156E2,5.0195435E3,0E0,1.2820312E3,0E0,0E0,0E0,0E0,0E0,0E0,0E0],"parents":[2147483647,0,0,1,1,2,2,3,3,4,4,5,5,6,6,9,9,10,10,11,11,17,17,18,18,19,19,22,22,23,23,25,25],"right_children":[2,4,6,8,10,12,14,-1,-1,16,18,20,-1,-1,-1,-1,-1,22,24,26,-1,-1,28,30,-1,32,-1,-1,-1,-1,-1,-1,-1],"split_conditions":[1.1685E3,1.00625E3,1.3965E3,9.36E2,1.06545E3,1.29585E3,1.49115E3,-7.435569E-1,-5.533168E-1,1.057E3,1.12675E3,1.23515E3,5.5485296E-1,8.1344485E-1,1.1421727E0,-3.802293E-1,-2.6935583E-1,1.0882E3,1.8089014E-1,1.21065E3,3.2336044E-1,-2.1499157E-1,1.0463143E3,-4.3038446E-2,-1.08759314E-1,1.2138E3,2.068797E-1,-7.186027E-2,-1.5021446E-1,-7.540113E-2,1.190715E-2,1.2666146E-1,4.839352E-2],"split_indices":[3,3,3,3,4,3,3,0,0,1,1,3,0,0,0,0,0,3,9,3,0,0,7,9,0,4,0,0,0,0,0,0,0],"split_type":[0,0,0,0,0,0,0,0,0,0,0,0,0,0,0,0,0,0,0,0,0,0,0,0,0,0,0,0,0,0,0,0,0],"sum_hessian":[7.45E2,4.23E2,3.22E2,2.2E2,2.03E2,2.2E2,1.02E2,9.2E1,1.28E2,1.17E2,8.6E1,1.21E2,9.9E1,4.1E1,6.1E1,8.4E1,3.3E1,5.2E1,3.4E1,5.4E1,6.7E1,2.6E1,2.6E1,2.3E1,1.1E1,2.3E1,3.1E1,5E0,2.1E1,1.4E1,9E0,1.8E1,5E0],"tree_param":{"num_deleted":"0","num_feature":"16","num_nodes":"33","size_leaf_vector":"1"}},{"base_weights":[1.1591024E0,-1.536482E2,2.0233101E2,-2.1292406E2,-9.1820496E1,1.2894635E2,3.3446408E2,-7.373546E-1,-5.4559463E-1,-1.2177426E2,-4.729222E1,9.0016495E1,5.5011094E-1,8.0288315E-1,1.131939E0,-3.9875373E-1,-2.7358785E-1,-5.989319E1,-1.893451E1,4.628949E1,1.0701806E2,-7.712356E-2,-1.8709628E-1,-5.020277E0,-3.382955E1,7.2321005E-2,1.5057504E-1,2.3628482E-1,3.4062585E-1,-6.3625626E-2,2.1751283E-2,-1.2822643E-1,-4.305727E-2],"categories":[],"categories_nodes":[],"categories_segments":[],"categories_sizes":[],"default_left":[0,0,0,0,0,0,0,0,0,0,0,0,0,0,0,0,0,0,0,0,0,0,0,0,0,0,0,0,0,0,0,0,0],"id":1,"left_children":[1,3,5,7,9,11,13,-1,-1,15,17,19,-1,-1,-1,-1,-1,21,23,25,27,-1,-1,29,31,-1,-1,-1,-1,-1,-1,-1,-1],"loss_changes":[2.2952224E7,1.49707E6,3.043003E6,1.48771E5,2.6677212E5,4.16966E5,1.73515E5,0E0,0E0,2.3537625E4,2.8843156E4,8.5110625E4,0E0,0E0,0E0,0E0,0E0,2.530375E3,5.648077E3,1.4236172E3,2.8809375E3,0E0,0E0,3.5096357E3,1.4175967E3,0E0,0E0,0E0,0E0,0E0,0E0,0E0,0E0],"parents":[2147483647,0,0,1,1,2,2,3,3,4,4,5,5,6,6,9,9,10,10,11,11,17,17,18,18,19,19,20,20,23,23,24,24],"right_children":[2,4,6,8,10,12,14,-1,-1,16,18,20,-1,-1,-1,-1,-1,22,24,26,28,-1,-1,30,32,-1,-1,-1,-1,-1,-1,-1,-1],"split_conditions":[1.15035E3,9.933E2,1.38625E3,9.322E2,1.06715E3,1.3041E3,1.49115E3,-7.373546E-1,-5.4559463E-1,1.04455E3,1.12995E3,1.2263E3,5.5011094E-1,8.0288315E-1,1.131939E0,-3.9875373E-1,-2.7358785E-1,9.194374E-3,1.1299E3,1.374224E-2,1.249E3,-7.712356E-2,-1.8709628E-1,-5.5769637E-2,1.128E3,7.2321005E-2,1.5057504E-1,2.3628482E-1,3.4062585E-1,-6.3625626E-2,2.1751283E-2,-1.2822643E-1,-4.305727E-2],"split_indices":[2,2,3,2,3,3,3,0,0,3,1,3,0,0,0,0,0,14,5,14,3,0,0,9,2,0,0,0,0,0,0,0,0],"split_type":[0,0,0,0,0,0,0,0,0,0,0,0,0,0,0,0,0,0,0,0,0,0,0,0,0,0,0,0,0,0,0,0,0],"sum_hessian":[7.34E2,4.15E2,3.19E2,2.1E2,2.05E2,2.07E2,1.12E2,9.7E1,1.13E2,1.21E2,8.4E1,1.23E2,8.4E1,4.8E1,6.4E1,8.5E1,3.6E1,5.7E1,2.7E1,3.6E1,8.7E1,5E0,5.2E1,1.5E1,1.2E1,7E0,2.9E1,2E1,6.7E1,6E0,9E0,7E0,5E0],"tree_param":{"num_deleted":"0","num_feature":"16","num_nodes":"33","size_leaf_vector":"1"}},{"base_weights":[-5.347215E0,-1.5251236E2,2.0225656E2,-2.0493364E2,-7.562802E1,1.2742633E2,3.3760834E2,-2.411109E2,-5.050313E-1,-3.271556E-1,-4.278972E1,8.577188E1,5.363894E-1,8.0593735E-1,1.1535608E0,-8.242573E-1,-6.5064985E-1,-5.400249E1,-1.5157846E1,4.2004604E1,3.094369E-1,-4.4867706E-2,-5.6904995E1,-3.1407664E0,-2.4926292E1,3.286913E-2,4.7960915E1,-7.1037866E-2,-1.77899E-1,-5.8803722E-2,2.5821142E-2,-9.929916E-2,-3.702702E-2,8.884257E-2,1.6641453E-1],"categories":[],"categories_nodes":[],"categories_segments":[],"categories_sizes":[],"default_left":[0,0,0,0,0,0,0,0,0,0,0,0,0,0,0,0,0,0,0,0,0,0,0,0,0,0,0,0,0,0,0,0,0,0,0],"id":2,"left_children":[1,3,5,7,9,11,13,15,-1,-1,17,19,-1,-1,-1,-1,-1,21,23,25,-1,-1,27,29,31,-1,33,-1,-1,-1,-1,-1,-1,-1,-1],"loss_changes":[2.2425636E7,1.70777E6,3.019522E6,2.75962E5,1.8670862E5,4.0171925E5,1.92766E5,1.2042E4,0E0,0E0,2.7114672E4,7.903181E4,0E0,0E0,0E0,0E0,0E0,6.0261875E3,3.2253262E3,5.586082E3,0E0,0E0,2.6195312E3,3.0580938E3,9.769004E2,0E0,1.4545234E3,0E0,0E0,0E0,0E0,0E0,0E0,0E0,0E0],"parents":[2147483647,0,0,1,1,2,2,3,3,4,4,5,5,6,6,7,7,10,10,11,11,17,17,18,18,19,19,22,22,23,23,24,24,26,26],"right_children":[2,4,6,8,10,12,14,16,-1,-1,18,20,-1,-1,-1,-1,-1,22,24,26,-1,-1,28,30,32,-1,34,-1,-1,-1,-1,-1,-1,-1,-1],"split_conditions":[1.1685E3,1.01805E3,1.39185E3,9.504E2,1.07245E3,1.29585E3,1.49115E3,9.082E2,-5.050313E-1,-3.271556E-1,1.12365E3,1.2263E3,5.363894E-1,8.0593735E-1,1.1535608E0,-8.242573E-1,-6.5064985E-1,-3.7840363E1,1.1206738E3,-1.6426935E1,3.094369E-1,-4.4867706E-2,9.194374E-3,1.1142928E3,1.1781143E3,3.286913E-2,1.4993545E-2,-7.1037866E-2,-1.77899E-1,-5.8803722E-2,2.5821142E-2,-9.929916E-2,-3.702702E-2,8.884257E-2,1.6641453E-1],"split_indices":[3,3,3,3,4,3,3,3,0,0,3,3,0,0,0,0,0,12,7,12,0,0,14,6,7,0,14,0,0,0,0,0,0,0,0],"split_type":[0,0,0,0,0,0,0,0,0,0,0,0,0,0,0,0,0,0,0,0,0,0,0,0,0,0,0,0,0,0,0,0,0,0,0],"sum_hessian":[7.31E2,4.28E2,3.03E2,2.53E2,1.75E2,1.97E2,1.06E2,1.23E2,1.3E2,8.5E1,9E1,1.11E2,8.6E1,4.7E1,5.9E1,4.5E1,7.8E1,6.3E1,2.7E1,3.3E1,7.8E1,5E0,5.8E1,1.3E1,1.4E1,6E0,2.7E1,5E0,5.3E1,5E0,8E0,7E0,7E0,1E1,1.7E1],"tree_param":{"num_deleted":"0","num_feature":"16","num_nodes":"35","size_leaf_vector":"1"}},{"base_weights":[4.305842E0,-1.5124966E2,2.0715364E2,-2.1144171E2,-8.970626E1,1.3258879E2,3.4467578E2,-7.4090075E-1,-5.476575E-1,-1.1848656E2,-4.3113586E1,8.829559E1,1.8696284E2,8.0706114E-1,1.1552849E0,-3.878301E-1,-2.7982143E-1,-5.3124657E1,-1.0533423E1,4.765863E1,1.00392685E2,4.833133E-1,6.25369E-1,-5.5528896E1,-5.763472E-2,-1.9130848E1,1.00098485E-2,7.422416E-2,1.5525647E-1,8.187324E1,3.3542657E-1,-7.0873916E-2,-1.7353909E-1,-3.2901976E-2,-7.612809E-2,2.5767612E-1,1.2304551E-1],"categories":[],"categories_nodes":[],"categories_segments":[],"categories_sizes":[],"default_left":[0,0,0,0,0,0,0,0,0,0,0,0,0,0,0,0,0,0,0,0,0,0,0,0,0,0,0,0,0,0,0,0,0,0,0,0,0],"id":3,"left_children":[1,3,5,7,9,11,13,-1,-1,15,17,19,21,-1,-1,-1,-1,23,25,27,29,-1,-1,31,-1,33,-1,-1,-1,35,-1,-1,-1,-1,-1,-1,-1],"loss_changes":[2.3665242E7,1.544046E6,3.269184E6,1.51445E5,2.7727338E5,4.89404E5,1.91612E5,0E0,0E0,1.7392875E4,2.6388812E4,5.2044812E4,2.11E3,0E0,0E0,0E0,0E0,3.5698125E3,2.6611304E3,9.33E2,5.5944375E3,0E0,0E0,2.2672656E3,0E0,2.671709E2,0E0,0E0,0E0,1.3530938E3,0E0,0E0,0E0,0E0,0E0,0E0,0E0],"parents":[2147483647,0,0,1,1,2,2,3,3,4,4,5,5,6,6,9,9,10,10,11,11,12,12,17,17,18,18,19,19,20,20,23,23,25,25,29,29],"right_children":[2,4,6,8,10,12,14,-1,-1,16,18,20,22,-1,-1,-1,-1,24,26,28,30,-1,-1,32,-1,34,-1,-1,-1,36,-1,-1,-1,-1,-1,-1,-1],"split_conditions":[1.1685E3,9.933E2,1.3965E3,9.36E2,1.0754E3,1.29585E3,1.49115E3,-7.4090075E-1,-5.476575E-1,1.04455E3,1.12365E3,1.2263E3,1.3441E3,8.0706114E-1,1.1552849E0,-3.878301E-1,-2.7982143E-1,3.2068122E-2,1.1513E3,1.19215E3,1.24155E3,4.833133E-1,6.25369E-1,9.194374E-3,-5.763472E-2,1.1274E3,1.00098485E-2,7.422416E-2,1.5525647E-1,1.3430225E7,3.3542657E-1,-7.0873916E-2,-1.7353909E-1,-3.2901976E-2,-7.612809E-2,2.5767612E-1,1.2304551E-1],"split_indices":[3,2,3,3,3,3,3,0,0,3,3,3,3,0,0,0,0,14,3,4,2,0,0,14,0,4,0,0,0,8,0,0,0,0,0,0,0],"split_type":[0,0,0,0,0,0,0,0,0,0,0,0,0,0,0,0,0,0,0,0,0,0,0,0,0,0,0,0,0,0,0,0,0,0,0,0,0],"sum_hessian":[7.47E2,4.23E2,3.24E2,2.12E2,2.11E2,2.12E2,1.12E2,9E1,1.22E2,1.29E2,8.2E1,1.19E2,9.3E1,4.3E1,6.9E1,8.6E1,4.3E1,6.2E1,2E1,2.9E1,9E1,4.8E1,4.5E1,5.7E1,5E0,1.2E1,8E0,6E0,2.3E1,3.9E1,5.1E1,5E0,5.2E1,7E0,5E0,3.4E1,5E0],"tree_param":{"num_deleted":"0","num_feature":"16","num_nodes":"37","size_leaf_vector":"1"}},{"base_weights":[-5.292977E0,-1.5368933E2,2.0116568E2,-2.1463599E2,-9.3349625E1,1.325773E2,3.540496E2,-7.571403E-1,-5.5906457E-1,-1.1772535E2,-4.1530968E1,8.380725E1,1.860219E2,8.039411E-1,1.1715509E0,-3.9150125E-1,-2.7698782E-1,-5.2883774E1,-3.4861023E0,3.9162697E1,9.711678E1,4.7557828E-1,6.218172E-1,-5.5264763E1,-8.902152E-2,-1.4252258E1,5.899043E-2,3.0626994E-2,1.3769771E-1,2.2626251E-1,3.2691696E-1,-1.7642556E-1,-1.0762674E-1,-7.1181335E-2,-5.7408595E-3],"categories":[],"categories_nodes":[],"categories_segments":[],"categories_sizes":[],"default_left":[0,0,0,0,0,0,0,0,0,0,0,0,0,0,0,0,0,0,0,0,0,0,0,0,0,0,0,0,0,0,0,0,0,0,0],"id":4,"left_children":[1,3,5,7,9,11,13,-1,-1,15,17,19,21,-1,-1,-1,-1,23,25,27,29,-1,-1,31,-1,33,-1,-1,-1,-1,-1,-1,-1,-1,-1],"loss_changes":[2.3039972E7,1.578823E6,3.227409E6,1.60511E5,2.7369362E5,5.4871375E5,1.45844E5,0E0,0E0,3.073175E4,3.1463664E4,6.4099625E4,1.11515E4,0E0,0E0,0E0,0E0,6.539531E2,5.0306245E3,5.045418E3,1.0674375E4,0E0,0E0,2.2701562E2,0E0,1.5075703E3,0E0,0E0,0E0,0E0,0E0,0E0,0E0,0E0,0E0],"parents":[2147483647,0,0,1,1,2,2,3,3,4,4,5,5,6,6,9,9,10,10,11,11,12,12,17,17,18,18,19,19,20,20,23,23,25,25],"right_children":[2,4,6,8,10,12,14,-1,-1,16,18,20,22,-1,-1,-1,-1,24,26,28,30,-1,-1,32,-1,34,-1,-1,-1,-1,-1,-1,-1,-1,-1],"split_conditions":[1.1685E3,9.933E2,1.41165E3,9.303E2,1.08225E3,1.29585E3,1.49115E3,-7.571403E-1,-5.5906457E-1,1.04455E3,1.12965E3,1.22025E3,1.3441E3,8.039411E-1,1.1715509E0,-3.9150125E-1,-2.7698782E-1,1.13525E3,1.1781143E3,-1.6426935E1,1.249E3,4.7557828E-1,6.218172E-1,6.655024E1,-8.902152E-2,-4.8852932E-1,5.899043E-2,3.0626994E-2,1.3769771E-1,2.2626251E-1,3.2691696E-1,-1.7642556E-1,-1.0762674E-1,-7.1181335E-2,-5.7408595E-3],"split_indices":[3,2,3,3,3,3,3,0,0,3,3,3,3,0,0,0,0,1,7,12,3,0,0,11,0,12,0,0,0,0,0,0,0,0,0],"split_type":[0,0,0,0,0,0,0,0,0,0,0,0,0,0,0,0,0,0,0,0,0,0,0,0,0,0,0,0,0,0,0,0,0,0,0],"sum_hessian":[7.49E2,4.36E2,3.13E2,2.15E2,2.21E2,2.18E2,9.5E1,8.7E1,1.28E2,1.49E2,7.2E1,1.16E2,1.02E2,3.2E1,6.3E1,9.5E1,5.4E1,5.5E1,1.7E1,2.8E1,8.8E1,5E1,5.2E1,4.8E1,7E0,1.2E1,5E0,6E0,2.2E1,3.5E1,5.3E1,3.8E1,1E1,6E0,6E0],"tree_param":{"num_deleted":"0","num_feature":"16","num_nodes":"35","size_leaf_vector":"1"}},{"base_weights":[2.7481616E0,-1.4919585E2,2.0200291E2,-2.0988419E2,-8.746857E1,1.350348E2,3.6020996E2,-7.4387187E-1,-5.404697E-1,-1.1649155E2,-4.4655914E1,8.239642E1,1.8463042E2,8.378638E-1,1.1712447E0,-3.876974E-1,-2.678018E-1,-1.7014797E-1,-1.2770668E1,5.326348E1,1.0192806E2,4.670228E-1,6.28251E-1,-1.13941215E-1,-2.692453E1,4.183922E1,1.8968475E-1,3.1461748E-1,1.502369E-1,-4.9339555E-2,6.1750334E-2,-1.3539854E-1,-1.7237246E-2,6.8510234E-2,1.4361991E-1],"categories":[],"categories_nodes":[],"categories_segments":[],"categories_sizes":[],"default_left":[0,0,0,0,0,0,0,0,0,0,0,0,0,0,0,0,0,0,0,0,0,0,0,0,0,0,0,0,0,0,0,0,0,0,0],"id":5,"left_children":[1,3,5,7,9,11,13,-1,-1,15,17,19,21,-1,-1,-1,-1,-1,23,25,27,-1,-1,29,31,33,-1,-1,-1,-1,-1,-1,-1,-1,-1],"loss_changes":[2.2918402E7,1.581394E6,3.396794E6,1.76858E5,2.5995038E5,5.84126E5,7.2245E4,0E0,0E0,2.6898875E4,3.3322797E4,5.7562062E4,3.61125E4,0E0,0E0,0E0,0E0,0E0,4.739946E3,1.6564531E3,2.4115625E3,0E0,0E0,5.7470205E3,4.4263027E3,1.5062422E3,0E0,0E0,0E0,0E0,0E0,0E0,0E0,0E0,0E0],"parents":[2147483647,0,0,1,1,2,2,3,3,4,4,5,5,6,6,9,9,10,10,11,11,12,12,18,18,19,19,20,20,23,23,24,24,25,25],"right_children":[2,4,6,8,10,12,14,-1,-1,16,18,20,22,-1,-1,-1,-1,-1,24,26,28,-1,-1,30,32,34,-1,-1,-1,-1,-1,-1,-1,-1,-1],"split_conditions":[1.1685E3,1.0049E3,1.41165E3,9.439E2,1.0754E3,1.28675E3,1.49115E3,-7.4387187E-1,-5.404697E-1,1.057E3,1.12365E3,1.25265E3,1.3441E3,8.378638E-1,1.1712447E0,-3.876974E-1,-2.678018E-1,-1.7014797E-1,1.1299E3,1.2138E3,1.3395619E3,4.670228E-1,6.28251E-1,1.10485E3,1.15265E3,1.4460314E-2,1.8968475E-1,3.1461748E-1,1.502369E-1,-4.9339555E-2,6.1750334E-2,-1.3539854E-1,-1.7237246E-2,6.8510234E-2,1.4361991E-1],"split_indices":[3,3,3,1,3,3,3,0,0,1,3,1,3,0,0,0,0,0,5,3,7,0,0,5,4,14,0,0,0,0,0,0,0,0,0],"split_type":[0,0,0,0,0,0,0,0,0,0,0,0,0,0,0,0,0,0,0,0,0,0,0,0,0,0,0,0,0,0,0,0,0,0,0],"sum_hessian":[7.54E2,4.28E2,3.26E2,2.14E2,2.14E2,2.31E2,9.5E1,8.9E1,1.25E2,1.26E2,8.8E1,1.14E2,1.17E2,3E1,6.5E1,8.2E1,4.4E1,6.3E1,2.5E1,4.8E1,6.6E1,5.9E1,5.8E1,1.4E1,1.1E1,2.6E1,2.2E1,6.1E1,5E0,8E0,6E0,5E0,6E0,8E0,1.8E1],"tree_param":{"num_deleted":"0","num_feature":"16","num_nodes":"35","size_leaf_vector":"1"}},{"base_weights":[-5.7646747E0,-1.5559459E2,1.9427225E2,-2.143473E2,-9.4325134E1,1.2069325E2,3.3765674E2,-7.47442E-1,-5.522944E-1,-1.2360961E2,-5.3768593E1,8.060726E1,5.4571915E-1,8.125418E-1,3.7818866E2,-3.9241415E-1,-2.8048602E-1,-6.2496563E1,-2.1393017E1,3.6396477E1,9.687068E1,1.1673295E0,5.828648E-1,-2.1322389E-1,-1.3560945E-1,4.446143E-3,-3.804891E1,4.262447E1,-9.381862E-3,2.1561253E-1,1.05774284E2,-6.37683E-2,-1.4588799E-1,7.875944E-2,1.740991E-1,3.2658988E-1,1.563681E-1],"categories":[],"categories_nodes":[],"categories_segments":[],"categories_sizes":[],"default_left":[0,0,0,0,0,0,0,0,0,0,0,0,0,0,0,0,0,0,0,0,0,0,0,0,0,0,0,0,0,0,0,0,0,0,0,0,0],"id":6,"left_children":[1,3,5,7,9,11,13,-1,-1,15,17,19,-1,-1,21,-1,-1,23,25,27,29,-1,-1,-1,-1,-1,31,33,-1,-1,35,-1,-1,-1,-1,-1,-1],"loss_changes":[2.2149328E7,1.490535E6,3.277926E6,1.56954E5,2.3883138E5,4.969555E5,1.34682E5,0E0,0E0,7.742375E3,2.3559E4,8.853E4,0E0,0E0,1.2069E4,0E0,0E0,5.6274375E3,8.279842E3,9.434664E3,9.6136875E3,0E0,0E0,0E0,0E0,0E0,6.634414E2,5.9046484E3,0E0,0E0,2.493625E3,0E0,0E0,0E0,0E0,0E0,0E0],"parents":[2147483647,0,0,1,1,2,2,3,3,4,4,5,5,6,6,9,9,10,10,11,11,14,14,17,17,18,18,19,19,20,20,26,26,27,27,30,30],"right_children":[2,4,6,8,10,12,14,-1,-1,16,18,20,-1,-1,22,-1,-1,24,26,28,30,-1,-1,-1,-1,-1,32,34,-1,-1,36,-1,-1,-1,-1,-1,-1],"split_conditions":[1.1755E3,9.9525E2,1.4124E3,9.439E2,1.0799E3,1.312E3,1.52445E3,-7.47442E-1,-5.522944E-1,1.057E3,1.12995E3,1.2397E3,5.4571915E-1,8.125418E-1,1.0241756E7,-3.9241415E-1,-2.8048602E-1,1.0966786E3,1.11515E3,2.0475417E-2,1.2587E3,1.1673295E0,5.828648E-1,-2.1322389E-1,-1.3560945E-1,4.446143E-3,8.646439E-3,1.5148858E-2,-9.381862E-3,2.1561253E-1,1.3321809E3,-6.37683E-2,-1.4588799E-1,7.875944E-2,1.740991E-1,3.2658988E-1,1.563681E-1],"split_indices":[1,0,1,1,1,1,1,0,0,1,1,1,0,0,8,0,0,6,5,14,1,0,0,0,0,0,9,14,0,0,7,0,0,0,0,0,0],"split_type":[0,0,0,0,0,0,0,0,0,0,0,0,0,0,0,0,0,0,0,0,0,0,0,0,0,0,0,0,0,0,0,0,0,0,0,0,0],"sum_hessian":[7.36E2,4.21E2,3.15E2,2.13E2,2.08E2,2.1E2,1.05E2,9.4E1,1.19E2,1.19E2,8.9E1,1.29E2,8.1E1,4.4E1,6.1E1,9.2E1,2.7E1,6.9E1,2E1,3.6E1,9.3E1,5.6E1,5E0,4.3E1,2.6E1,9E0,1.1E1,3.1E1,5E0,2.8E1,6.5E1,6E0,5E0,1.7E1,1.4E1,6E1,5E0],"tree_param":{"num_deleted":"0","num_feature":"16","num_nodes":"37","size_leaf_vector":"1"}},{"base_weights":[-1.1841414E0,-1.5369637E2,1.9851157E2,-2.1315605E2,-9.145934E1,1.2533339E2,3.3418427E2,-7.341505E-1,-5.4631555E-1,-1.2390362E2,-4.9322453E1,8.336816E1,5.2894396E-1,7.858128E-1,3.7590826E2,-3.9588672E-1,-2.894569E-1,-6.558133E1,-2.419054E1,4.8934147E1,9.8943924E1,1.161477E0,5.377018E-1,-2.2765817E-1,-1.591848E-1,-3.1386354E1,-1.1300647E1,5.567423E1,3.4063038E1,2.3055579E-1,3.2003117E-1,-1.1423548E-1,-6.508545E-2,-8.999368E-2,2.1979916E-3,1.10972434E-1,1.9804299E-1,4.350707E-2,1.2947784E-1],"categories":[],"categories_nodes":[],"categories_segments":[],"categories_sizes":[],"default_left":[0,0,0,0,0,0,0,0,0,0,0,0,0,0,0,0,0,0,0,0,0,0,0,0,0,0,0,0,0,0,0,0,0,0,0,0,0,0,0],"id":7,"left_children":[1,3,5,7,9,11,13,-1,-1,15,17,19,-1,-1,21,-1,-1,23,25,27,29,-1,-1,-1,-1,31,33,35,37,-1,-1,-1,-1,-1,-1,-1,-1,-1,-1],"loss_changes":[2.2963926E7,1.552732E6,3.178711E6,1.46258E5,2.7995762E5,4.368355E5,1.94376E5,0E0,0E0,7.06125E3,3.622564E4,5.7351125E4,0E0,0E0,4.7428E4,0E0,0E0,1.2363594E3,3.127457E3,1.2057891E3,1.607625E3,0E0,0E0,0E0,0E0,3.4379102E2,3.7482258E3,1.2531172E3,1.9911895E3,0E0,0E0,0E0,0E0,0E0,0E0,0E0,0E0,0E0,0E0],"parents":[2147483647,0,0,1,1,2,2,3,3,4,4,5,5,6,6,9,9,10,10,11,11,14,14,17,17,18,18,19,19,20,20,25,25,26,26,27,27,28,28],"right_children":[2,4,6,8,10,12,14,-1,-1,16,18,20,-1,-1,22,-1,-1,24,26,28,30,-1,-1,-1,-1,32,34,36,38,-1,-1,-1,-1,-1,-1,-1,-1,-1,-1],"split_conditions":[1.15035E3,9.933E2,1.39185E3,9.36E2,1.0799E3,1.29585E3,1.49115E3,-7.341505E-1,-5.4631555E-1,1.04455E3,1.109E3,1.2263E3,5.2894396E-1,7.858128E-1,7.144054E-1,-3.9588672E-1,-2.894569E-1,1.0882E3,1.13445E3,6.1254787E1,1.25205E3,1.161477E0,5.377018E-1,-2.2765817E-1,-1.591848E-1,1.12995E3,3.996732E1,1.4460314E-2,6.838793E1,2.3055579E-1,3.2003117E-1,-1.1423548E-1,-6.508545E-2,-8.999368E-2,2.1979916E-3,1.10972434E-1,1.9804299E-1,4.350707E-2,1.2947784E-1],"split_indices":[2,2,3,3,1,3,3,0,0,3,3,3,0,0,9,0,0,3,3,11,3,0,0,0,0,1,11,14,11,0,0,0,0,0,0,0,0,0,0],"split_type":[0,0,0,0,0,0,0,0,0,0,0,0,0,0,0,0,0,0,0,0,0,0,0,0,0,0,0,0,0,0,0,0,0,0,0,0,0,0,0],"sum_hessian":[7.51E2,4.26E2,3.25E2,2.16E2,2.1E2,2.13E2,1.12E2,1.02E2,1.14E2,1.17E2,9.3E1,1.19E2,9.4E1,4.5E1,6.7E1,8.6E1,3.1E1,5.5E1,3.8E1,3.9E1,8E1,6.2E1,5E0,2.6E1,2.9E1,2.3E1,1.5E1,2.4E1,1.5E1,2.5E1,5.5E1,1.1E1,1.2E1,5E0,1E1,1.1E1,1.3E1,6E0,9E0],"tree_param":{"num_deleted":"0","num_feature":"16","num_nodes":"39","size_leaf_vector":"1"}},{"base_weights":[1.9196126E0,-1.519837E2,2.0258183E2,-2.133507E2,-9.26812E1,1.3239745E2,3.5128296E2,-7.4282676E-1,-5.56762E-1,-1.24467674E2,-5.413361E1,8.456135E1,5.725293E-1,8.1310165E-1,1.1506073E0,-3.9680618E-1,-2.834035E-1,-6.2589672E1,-1.6549738E1,4.747962E1,1.02574844E2,-2.1190833E-1,-1.4929143E-1,-6.6457167E0,-9.71227E-2,2.7950967E-2,5.3210297E1,2.2955182E-1,3.2722574E-1,-4.8262242E-2,1.6112052E-2,1.10736325E-1,1.882778E-1],"categories":[],"categories_nodes":[],"categories_segments":[],"categories_sizes":[],"default_left":[0,0,0,0,0,0,0,0,0,0,0,0,0,0,0,0,0,0,0,0,0,0,0,0,0,0,0,0,0,0,0,0,0],"id":8,"left_children":[1,3,5,7,9,11,13,-1,-1,15,17,19,-1,-1,-1,-1,-1,21,23,25,27,-1,-1,29,-1,-1,31,-1,-1,-1,-1,-1,-1],"loss_changes":[2.2945622E7,1.5006E6,3.295958E6,1.26483E5,2.55151E5,5.95038E5,1.09304E5,0E0,0E0,8.73325E3,3.0378344E4,7.584219E4,0E0,0E0,0E0,0E0,0E0,3.1263125E3,2.8862583E3,8.763445E3,1.4365E3,0E0,0E0,1.775773E3,0E0,0E0,2.3513281E3,0E0,0E0,0E0,0E0,0E0,0E0],"parents":[2147483647,0,0,1,1,2,2,3,3,4,4,5,5,6,6,9,9,10,10,11,11,17,17,18,18,19,19,20,20,23,23,26,26],"right_children":[2,4,6,8,10,12,14,-1,-1,16,18,20,-1,-1,-1,-1,-1,22,24,26,28,-1,-1,30,-1,-1,32,-1,-1,-1,-1,-1,-1],"split_conditions":[1.15355E3,9.967E2,1.41165E3,9.439E2,1.0702E3,1.2977E3,1.49115E3,-7.4282676E-1,-5.56762E-1,1.04455E3,1.12365E3,1.23205E3,5.725293E-1,8.1310165E-1,1.1506073E0,-3.9680618E-1,-2.834035E-1,1.09635E3,1.1299E3,1.1119048E3,1.249E3,-2.1190833E-1,-1.4929143E-1,1.1455E3,-9.71227E-2,2.7950967E-2,1.4747837E-2,2.2955182E-1,3.2722574E-1,-4.8262242E-2,1.6112052E-2,1.10736325E-1,1.882778E-1],"split_indices":[3,3,3,1,1,3,3,0,0,3,3,3,0,0,0,0,0,3,5,7,3,0,0,1,0,0,14,0,0,0,0,0,0],"split_type":[0,0,0,0,0,0,0,0,0,0,0,0,0,0,0,0,0,0,0,0,0,0,0,0,0,0,0,0,0,0,0,0,0],"sum_hessian":[7.4E2,4.19E2,3.21E2,2.04E2,2.15E2,2.2E2,1.01E2,8.6E1,1.18E2,1.16E2,9.9E1,1.23E2,9.7E1,3.3E1,6.8E1,8.8E1,2.8E1,8E1,1.9E1,4.2E1,8.1E1,4.5E1,3.5E1,1.3E1,6E0,6E0,3.6E1,2E1,6.1E1,7E0,6E0,1.6E1,2E1],"tree_param":{"num_deleted":"0","num_feature":"16","num_nodes":"33","size_leaf_vector":"1"}},{"base_weights":[-2.1384902E0,-1.4970229E2,1.9832211E2,-2.0746123E2,-8.544668E1,1.3055971E2,3.414121E2,-7.2529674E-1,-5.294894E-1,-1.1276104E2,-3.9796535E1,8.515419E1,5.5427045E-1,7.8683937E-1,1.1458863E0,-3.7401104E-1,-2.692502E-1,-5.126188E1,-1.1581768E0,5.2250103E1,1.01973495E2,-5.5295403E1,-3.1067896E1,5.5064082E-2,-9.792412E0,3.703055E1,1.9570628E-1,2.4387121E-1,1.118245E2,-1.8266861E-1,-1.2048293E-1,-1.2176777E-1,-5.487756E-2,-4.8444998E-2,5.2242414E-3,1.3054577E-1,3.003954E-2,3.4998485E-1,1.861078E-1],"categories":[],"categories_nodes":[],"categories_segments":[],"categories_sizes":[],"default_left":[0,0,0,0,0,0,0,0,0,0,0,0,0,0,0,0,0,0,0,0,0,0,0,0,0,0,0,0,0,0,0,0,0,0,0,0,0,0,0],"id":9,"left_children":[1,3,5,7,9,11,13,-1,-1,15,17,19,-1,-1,-1,-1,-1,21,23,25,27,29,31,-1,33,35,-1,-1,37,-1,-1,-1,-1,-1,-1,-1,-1,-1,-1],"loss_changes":[2.1801156E7,1.548842E6,2.963129E6,1.72298E5,2.4699862E5,5.042255E5,1.6894E5,0E0,0E0,1.78615E4,3.468136E4,5.8126562E4,0E0,0E0,0E0,0E0,0E0,2.3424062E3,3.554084E3,4.9631562E3,2.135875E3,4.2801562E2,5.2251855E2,0E0,1.1065892E3,3.458254E3,0E0,0E0,8.0675E2,0E0,0E0,0E0,0E0,0E0,0E0,0E0,0E0,0E0,0E0],"parents":[2147483647,0,0,1,1,2,2,3,3,4,4,5,5,6,6,9,9,10,10,11,11,17,17,18,18,19,19,20,20,21,21,22,22,24,24,25,25,28,28],"right_children":[2,4,6,8,10,12,14,-1,-1,16,18,20,-1,-1,-1,-1,-1,22,24,26,28,30,32,-1,34,36,-1,-1,38,-1,-1,-1,-1,-1,-1,-1,-1,-1,-1],"split_conditions":[1.1685E3,1.00625E3,1.3965E3,9.5135E2,1.07765E3,1.3041E3,1.49115E3,-7.2529674E-1,-5.294894E-1,1.057E3,1.13445E3,1.23435E3,5.5427045E-1,7.8683937E-1,1.1458863E0,-3.7401104E-1,-2.692502E-1,6.655024E1,1.1122E3,1.2138E3,1.2564E3,1.1064E3,-2.3076478E-1,5.5064082E-2,1.16755E3,1.2329143E3,1.9570628E-1,2.4387121E-1,1.3128E3,-1.8266861E-1,-1.2048293E-1,-1.2176777E-1,-5.487756E-2,-4.8444998E-2,5.2242414E-3,1.3054577E-1,3.003954E-2,3.4998485E-1,1.861078E-1],"split_indices":[3,3,3,1,3,3,3,0,0,1,3,3,0,0,0,0,0,11,5,3,3,3,9,0,5,7,0,0,5,0,0,0,0,0,0,0,0,0,0],"split_type":[0,0,0,0,0,0,0,0,0,0,0,0,0,0,0,0,0,0,0,0,0,0,0,0,0,0,0,0,0,0,0,0,0,0,0,0,0,0,0],"sum_hessian":[7.34E2,4.23E2,3.11E2,2.21E2,2.02E2,2.13E2,9.8E1,1E2,1.21E2,1.25E2,7.7E1,1.18E2,9.5E1,3.7E1,6.1E1,7.8E1,4.7E1,5.9E1,1.8E1,4.2E1,7.6E1,4.7E1,1.2E1,5E0,1.3E1,2.2E1,2E1,2.9E1,4.7E1,3.1E1,1.6E1,5E0,7E0,8E0,5E0,1.7E1,5E0,4.1E1,6E0],"tree_param":{"num_deleted":"0","num_feature":"16","num_nodes":"39","size_leaf_vector":"1"}},{"base_weights":[-7.0103157E-1,-1.4569704E2,2.0120377E2,-2.0224754E2,-8.2230415E1,1.22700134E2,3.3574097E2,-7.304175E-1,-1.7384648E2,-1.1225281E2,-4.399925E1,8.241088E1,5.119916E-1,7.858808E-1,3.766793E2,-5.630064E-1,-4.5428133E-1,-3.7066355E-1,-2.7705225E-1,-5.5062122E1,-1.3636749E1,4.50741E1,9.687551E1,1.1614796E0,5.475414E-1,-1.89814E-1,-4.145012E1,-2.5139105E1,-4.9034796E0,4.816056E-2,4.9173172E1,2.440318E-1,3.393706E-1,-1.4623338E-1,-8.505529E-2,-2.241959E-2,-1.1096489E-1,-4.0119134E-2,1.2989379E-2,7.905033E-2,1.5994248E-1],"categories":[],"categories_nodes":[],"categories_segments":[],"categories_sizes":[],"default_left":[0,0,0,0,0,0,0,0,0,0,0,0,0,0,0,0,0,0,0,0,0,0,0,0,0,0,0,0,0,0,0,0,0,0,0,0,0,0,0,0,0],"id":10,"left_children":[1,3,5,7,9,11,13,-1,15,17,19,21,-1,-1,23,-1,-1,-1,-1,25,27,29,31,-1,-1,-1,33,35,37,-1,39,-1,-1,-1,-1,-1,-1,-1,-1,-1,-1],"loss_changes":[2.2307898E7,1.566777E6,3.302049E6,2.09858E5,2.353335E5,3.72126E5,2.03808E5,0E0,1.8075E3,9.292E3,3.0944938E4,5.4733E4,0E0,0E0,3.9449E4,0E0,0E0,0E0,0E0,3.8218281E3,2.5745542E3,2.9133984E3,6.4924375E3,0E0,0E0,0E0,8.3339453E2,1.9881797E3,1.4562896E3,0E0,6.728281E2,0E0,0E0,0E0,0E0,0E0,0E0,0E0,0E0,0E0,0E0],"parents":[2147483647,0,0,1,1,2,2,3,3,4,4,5,5,6,6,8,8,9,9,10,10,11,11,14,14,19,19,20,20,21,21,22,22,26,26,27,27,28,28,30,30],"right_children":[2,4,6,8,10,12,14,-1,16,18,20,22,-1,-1,24,-1,-1,-1,-1,26,28,30,32,-1,-1,-1,34,36,38,-1,40,-1,-1,-1,-1,-1,-1,-1,-1,-1,-1],"split_conditions":[1.1685E3,1.0131E3,1.39185E3,9.36E2,1.0754E3,1.2909E3,1.49115E3,-7.304175E-1,9.8115E2,1.04455E3,1.12525E3,1.2263E3,5.119916E-1,7.858808E-1,1.0140202E0,-5.630064E-1,-4.5428133E-1,-3.7066355E-1,-2.7705225E-1,1.08635E3,1.1282E3,1.3621481E-2,1.26535E3,1.1614796E0,5.475414E-1,-1.89814E-1,4.3038E-2,1.1203E3,7.376575E6,4.816056E-2,1.1767E3,2.440318E-1,3.393706E-1,-1.4623338E-1,-8.505529E-2,-2.241959E-2,-1.1096489E-1,-4.0119134E-2,1.2989379E-2,7.905033E-2,1.5994248E-1],"split_indices":[3,3,3,3,3,3,3,0,3,3,0,3,0,0,13,0,0,0,0,2,3,14,3,0,0,0,9,3,8,0,0,0,0,0,0,0,0,0,0,0,0],"split_type":[0,0,0,0,0,0,0,0,0,0,0,0,0,0,0,0,0,0,0,0,0,0,0,0,0,0,0,0,0,0,0,0,0,0,0,0,0,0,0,0,0],"sum_hessian":[7.59E2,4.42E2,3.17E2,2.32E2,2.1E2,2.02E2,1.15E2,9E1,1.42E2,1.16E2,9.4E1,1.12E2,9E1,4.5E1,7E1,8.1E1,6.1E1,6.9E1,4.7E1,6.8E1,2.6E1,3.3E1,7.9E1,6.5E1,5E0,3.9E1,2.9E1,1E1,1.6E1,5E0,2.8E1,4.5E1,3.4E1,1.6E1,1.3E1,5E0,5E0,8E0,8E0,6E0,2.2E1],"tree_param":{"num_deleted":"0","num_feature":"16","num_nodes":"41","size_leaf_vector":"1"}},{"base_weights":[1.9380996E0,-1.4559688E2,1.9402043E2,-2.006238E2,-7.9544556E1,1.11578255E2,3.0492386E2,-7.271557E-1,-1.715815E2,-1.1071744E2,-4.188538E1,7.451497E1,1.5398962E2,7.1359587E-1,3.5684055E2,-5.575844E-1,-4.4962084E-1,-3.6611524E-1,-2.711138E-1,-5.6571873E1,-8.636776E0,4.1135445E1,2.600363E-1,3.4404287E-1,5.068031E-1,1.1005721E0,5.819158E-1,-1.7968592E-1,-6.062289E-2,-2.09818E1,8.318267E0,2.4159515E1,1.5500882E-1,-7.6844305E-2,-3.9076164E-2,7.391274E-2,-1.6852114E-2,9.338964E-2,4.1201953E-2],"categories":[],"categories_nodes":[],"categories_segments":[],"categories_sizes":[],"default_left":[0,0,0,0,0,0,0,0,0,0,0,0,0,0,0,0,0,0,0,0,0,0,0,0,0,0,0,0,0,0,0,0,0,0,0,0,0,0,0],"id":11,"left_children":[1,3,5,7,9,11,13,-1,15,17,19,21,23,-1,25,-1,-1,-1,-1,27,29,31,-1,-1,-1,-1,-1,-1,-1,33,35,37,-1,-1,-1,-1,-1,-1,-1],"loss_changes":[2.1169E7,1.511677E6,2.915867E6,2.15923E5,2.2136075E5,2.790695E5,3.51321E5,0E0,1.73625E3,7.736375E3,4.3452203E4,3.6662062E4,2.1726375E4,0E0,1.4745E4,0E0,0E0,0E0,0E0,5.729875E3,6.437721E3,3.5741758E3,0E0,0E0,0E0,0E0,0E0,0E0,0E0,1.407539E2,3.27967E3,4.0791895E2,0E0,0E0,0E0,0E0,0E0,0E0,0E0],"parents":[2147483647,0,0,1,1,2,2,3,3,4,4,5,5,6,6,8,8,9,9,10,10,11,11,12,12,14,14,19,19,20,20,21,21,29,29,30,30,31,31],"right_children":[2,4,6,8,10,12,14,-1,16,18,20,22,24,-1,26,-1,-1,-1,-1,28,30,32,-1,-1,-1,-1,-1,-1,-1,34,36,38,-1,-1,-1,-1,-1,-1,-1],"split_conditions":[1.1685E3,1.0131E3,1.36E3,9.36E2,1.0754E3,1.27585E3,1.4578E3,-7.271557E-1,9.8115E2,1.04455E3,1.11375E3,1.22025E3,1.3041E3,7.1359587E-1,8.6113954E-1,-5.575844E-1,-4.4962084E-1,-3.6611524E-1,-2.711138E-1,1.122E3,1.1513E3,1.4993545E-2,2.600363E-1,3.4404287E-1,5.068031E-1,1.1005721E0,5.819158E-1,-1.7968592E-1,-6.062289E-2,8.131901E9,1.12845E3,-6.055803E-2,1.5500882E-1,-7.6844305E-2,-3.9076164E-2,7.391274E-2,-1.6852114E-2,9.338964E-2,4.1201953E-2],"split_indices":[3,3,3,3,3,3,3,0,3,3,3,3,3,0,9,0,0,0,0,0,3,14,0,0,0,0,0,0,0,10,5,9,0,0,0,0,0,0,0],"split_type":[0,0,0,0,0,0,0,0,0,0,0,0,0,0,0,0,0,0,0,0,0,0,0,0,0,0,0,0,0,0,0,0,0,0,0,0,0,0,0],"sum_hessian":[7.44E2,4.21E2,3.23E2,2.28E2,1.93E2,1.87E2,1.36E2,8.9E1,1.39E2,1.04E2,8.9E1,1.02E2,8.5E1,6.3E1,7.3E1,7.7E1,6.2E1,6.2E1,4.2E1,6.1E1,2.8E1,2.9E1,7.3E1,2.7E1,5.8E1,6.7E1,6E0,5.5E1,6E0,1.6E1,1.2E1,1.3E1,1.6E1,8E0,8E0,5E0,7E0,6E0,7E0],"tree_param":{"num_deleted":"0","num_feature":"16","num_nodes":"39","size_leaf_vector":"1"}},{"base_weights":[-1.6979859E0,-1.5069286E2,1.9418922E2,-2.1182924E2,-8.3516106E1,1.2390302E2,3.3628674E2,-2.462461E2,-5.435617E-1,-1.1649596E2,-4.600718E1,8.436438E1,5.2671325E-1,8.0741197E-1,1.1603302E0,-9.038379E-1,-6.822771E-1,-3.7665066E-1,-2.5970763E-1,-5.767126E1,-1.4998472E1,5.639659E1,3.1555393E-1,-6.502905E1,-1.2624168E-1,4.8841157E0,-3.9113106E1,6.691934E-2,6.1132465E1,-2.0395702E-1,-9.3390316E-2,-3.6831707E-2,9.070409E-2,-1.494834E-1,-6.168739E-2,1.9367388E-1,1.0843459E-1],"categories":[],"categories_nodes":[],"categories_segments":[],"categories_sizes":[],"default_left":[0,0,0,0,0,0,0,0,0,0,0,0,0,0,0,0,0,0,0,0,0,0,0,0,0,0,0,0,0,0,0,0,0,0,0,0,0],"id":12,"left_children":[1,3,5,7,9,11,13,15,-1,17,19,21,-1,-1,-1,-1,-1,-1,-1,23,25,27,-1,29,-1,31,33,-1,35,-1,-1,-1,-1,-1,-1,-1,-1],"loss_changes":[2.2327546E7,1.757901E6,3.23832E6,1.71899E5,2.51104E5,4.34341E5,2.11647E5,3.3335E3,0E0,1.3617E4,3.504492E4,6.649319E4,0E0,0E0,0E0,0E0,0E0,0E0,0E0,4.2012812E3,1.4434082E4,7.3908125E3,0E0,1.4760156E3,0E0,8.1719727E3,1.1394043E3,0E0,8.123125E2,0E0,0E0,0E0,0E0,0E0,0E0,0E0,0E0],"parents":[2147483647,0,0,1,1,2,2,3,3,4,4,5,5,6,6,7,7,9,9,10,10,11,11,19,19,20,20,21,21,23,23,25,25,26,26,28,28],"right_children":[2,4,6,8,10,12,14,16,-1,18,20,22,-1,-1,-1,-1,-1,-1,-1,24,26,28,-1,30,-1,32,34,-1,36,-1,-1,-1,-1,-1,-1,-1,-1],"split_conditions":[1.15035E3,9.933E2,1.37855E3,9.439E2,1.0799E3,1.312E3,1.5279E3,8.75E2,-5.435617E-1,1.057E3,1.12995E3,1.2587E3,5.2671325E-1,8.0741197E-1,1.1603302E0,-9.038379E-1,-6.822771E-1,-3.7665066E-1,-2.5970763E-1,1.08635E3,1.1364E3,1.3429648E-1,3.1555393E-1,9.1500556E-1,-1.2624168E-1,1.1077203E7,1.1162E3,6.691934E-2,4.141829E1,-2.0395702E-1,-9.3390316E-2,-3.6831707E-2,9.070409E-2,-1.494834E-1,-6.168739E-2,1.9367388E-1,1.0843459E-1],"split_indices":[2,2,2,1,1,1,1,0,0,1,1,1,0,0,0,0,0,0,0,2,5,13,0,13,0,8,2,0,12,0,0,0,0,0,0,0,0],"split_type":[0,0,0,0,0,0,0,0,0,0,0,0,0,0,0,0,0,0,0,0,0,0,0,0,0,0,0,0,0,0,0,0,0,0,0,0,0],"sum_hessian":[7.62E2,4.33E2,3.29E2,2.25E2,2.08E2,2.22E2,1.07E2,1.01E2,1.24E2,1.09E2,9.9E1,1.28E2,9.4E1,5E1,5.7E1,2E1,8.1E1,8E1,2.9E1,7.1E1,2.8E1,5.7E1,7.1E1,4.5E1,2.6E1,1.6E1,1.2E1,8E0,4.9E1,4E1,5E0,1E1,6E0,6E0,6E0,4.1E1,8E0],"tree_param":{"num_deleted":"0","num_feature":"16","num_nodes":"37","size_leaf_vector":"1"}},{"base_weights":[-2.5665805E0,-1.456002E2,2.014756E2,-2.0089204E2,-7.4730865E1,1.2947159E2,3.3604486E2,-2.3807675E2,-1.7208861E2,-1.0477228E2,-3.644639E1,8.929235E1,1.7543135E2,7.769232E-1,1.1334488E0,-8.8150084E-1,-6.6233295E-1,-5.4885423E-1,-4.267231E-1,-1.09165375E2,-1.7588517E-1,-4.811845E1,4.647942E0,6.513025E1,3.4675437E-1,3.9837235E-1,5.58185E-1,-3.340466E-1,-1.6067109E-1,-5.112467E1,-2.4278592E-2,-5.4264832E-2,1.5934131E1,7.164468E-2,6.985583E1,-1.6082607E-1,-5.2011635E-2,-1.5025196E-2,1.0948652E-1,1.3276067E-1,2.3431194E-1],"categories":[],"categories_nodes":[],"categories_segments":[],"categories_sizes":[],"default_left":[0,0,0,0,0,0,0,0,0,0,0,0,0,0,0,0,0,0,0,0,0,0,0,0,0,0,0,0,0,0,0,0,0,0,0,0,0,0,0,0,0],"id":13,"left_children":[1,3,5,7,9,11,13,15,17,19,21,23,25,-1,-1,-1,-1,-1,-1,27,-1,29,31,33,-1,-1,-1,-1,-1,35,-1,-1,37,-1,39,-1,-1,-1,-1,-1,-1],"loss_changes":[2.142193E7,1.668284E6,2.865774E6,1.97162E5,2.1450612E5,3.4487875E5,1.8959E5,5.41E2,6.811E3,1.1972E4,4.183003E4,5.8253125E4,4.38275E3,0E0,0E0,0E0,0E0,0E0,0E0,2.633875E3,0E0,7.4954375E3,5.6925244E3,9.281125E3,0E0,0E0,0E0,0E0,0E0,3.8443281E3,0E0,0E0,6.521128E3,0E0,6.1008594E3,0E0,0E0,0E0,0E0,0E0,0E0],"parents":[2147483647,0,0,1,1,2,2,3,3,4,4,5,5,6,6,7,7,8,8,9,9,10,10,11,11,12,12,19,19,21,21,22,22,23,23,29,29,32,32,34,34],"right_children":[2,4,6,8,10,12,14,16,18,20,22,24,26,-1,-1,-1,-1,-1,-1,28,-1,30,32,34,-1,-1,-1,-1,-1,36,-1,-1,38,-1,40,-1,-1,-1,-1,-1,-1],"split_conditions":[1.16955E3,1.00735E3,1.37855E3,9.295E2,1.0752E3,1.2815E3,1.489E3,8.75E2,9.803E2,1.0863667E3,1.1212E3,1.24155E3,1.3094E3,7.769232E-1,1.1334488E0,-8.8150084E-1,-6.6233295E-1,-5.4885423E-1,-4.267231E-1,1.06565E3,-1.7588517E-1,9.4161963E-1,1.12385E3,7.129723E-2,3.4675437E-1,3.9837235E-1,5.58185E-1,-3.340466E-1,-1.6067109E-1,1.273E2,-2.4278592E-2,-5.4264832E-2,1.5250289E-2,7.164468E-2,1.2E3,-1.6082607E-1,-5.2011635E-2,-1.5025196E-2,1.0948652E-1,1.3276067E-1,2.3431194E-1],"split_indices":[2,2,2,2,0,2,0,0,2,7,2,2,2,0,0,0,0,0,0,2,0,13,6,13,0,0,0,0,0,15,0,0,14,0,2,0,0,0,0,0,0],"split_type":[0,0,0,0,0,0,0,0,0,0,0,0,0,0,0,0,0,0,0,0,0,0,0,0,0,0,0,0,0,0,0,0,0,0,0,0,0,0,0,0,0],"sum_hessian":[7.31E2,4.3E2,3.01E2,2.4E2,1.9E2,1.98E2,1.03E2,1E2,1.4E2,1.05E2,8.5E1,1.08E2,9E1,4E1,6.3E1,1.8E1,8.2E1,9.7E1,4.3E1,9.4E1,1.1E1,6.6E1,1.9E1,5.9E1,4.9E1,2.2E1,6.8E1,8.9E1,5E0,6.1E1,5E0,6E0,1.3E1,7E0,5.2E1,5.6E1,5E0,7E0,6E0,1.5E1,3.7E1],"tree_param":{"num_deleted":"0","num_feature":"16","num_nodes":"41","size_leaf_vector":"1"}},{"base_weights":[2.1915841E-1,-1.4798412E2,2.0153775E2,-2.0247713E2,-8.1983055E1,1.3255547E2,3.4297943E2,-6.982904E-1,-5.0710773E-1,-1.104316E2,-4.1352936E1,8.8433266E1,5.497065E-1,8.248191E-1,1.1365082E0,-3.6851993E-1,-2.586778E-1,-5.3852196E1,-8.461699E0,5.8102E1,3.1890765E-1,-2.0650074E-1,-4.0812656E1,-2.2617401E1,5.5782137E0,1.1584868E-1,1.9413154E-1,-1.3711922E-1,-6.0575753E-2,-9.519438E-2,-2.0599185E-2,5.1900428E-2,-2.1738077E-2],"categories":[],"categories_nodes":[],"categories_segments":[],"categories_sizes":[],"default_left":[0,0,0,0,0,0,0,0,0,0,0,0,0,0,0,0,0,0,0,0,0,0,0,0,0,0,0,0,0,0,0,0,0],"id":14,"left_children":[1,3,5,7,9,11,13,-1,-1,15,17,19,-1,-1,-1,-1,-1,21,23,25,-1,-1,27,29,31,-1,-1,-1,-1,-1,-1,-1,-1],"loss_changes":[2.1989176E7,1.501825E6,2.98081E6,1.75409E5,2.1795112E5,4.5084075E5,9.1327E4,0E0,0E0,1.8181E4,3.322733E4,5.3861688E4,0E0,0E0,0E0,0E0,0E0,7.398453E3,5.0601987E3,2.22925E3,0E0,0E0,2.191457E3,1.4637637E3,2.2184265E3,0E0,0E0,0E0,0E0,0E0,0E0,0E0,0E0],"parents":[2147483647,0,0,1,1,2,2,3,3,4,4,5,5,6,6,9,9,10,10,11,11,17,17,18,18,19,19,22,22,23,23,24,24],"right_children":[2,4,6,8,10,12,14,-1,-1,16,18,20,-1,-1,-1,-1,-1,22,24,26,-1,-1,28,30,32,-1,-1,-1,-1,-1,-1,-1,-1],"split_conditions":[1.1899E3,1.0218E3,1.4271E3,9.565E2,1.08975E3,1.312E3,1.52445E3,-6.982904E-1,-5.0710773E-1,1.057E3,1.12525E3,1.2547E3,5.497065E-1,8.248191E-1,1.1365082E0,-3.6851993E-1,-2.586778E-1,1.0907E3,7.376575E6,1.2225E3,3.1890765E-1,-2.0650074E-1,1.12995E3,1.14375E3,1.1139476E3,1.1584868E-1,1.9413154E-1,-1.3711922E-1,-6.0575753E-2,-9.519438E-2,-2.0599185E-2,5.1900428E-2,-2.1738077E-2],"split_indices":[1,1,1,1,1,1,1,0,0,1,0,1,0,0,0,0,0,4,8,1,0,0,1,0,7,0,0,0,0,0,0,0,0],"split_type":[0,0,0,0,0,0,0,0,0,0,0,0,0,0,0,0,0,0,0,0,0,0,0,0,0,0,0,0,0,0,0,0,0],"sum_hessian":[7.34E2,4.23E2,3.11E2,2.3E2,1.93E2,2.11E2,1E2,1.16E2,1.14E2,1.12E2,8.1E1,1.15E2,9.6E1,3.9E1,6.1E1,7E1,4.2E1,5.8E1,2.3E1,4.5E1,7E1,2.4E1,3.4E1,1.1E1,1.2E1,1.4E1,3.1E1,2.6E1,8E0,6E0,5E0,6E0,6E0],"tree_param":{"num_deleted":"0","num_feature":"16","num_nodes":"33","size_leaf_vector":"1"}},{"base_weights":[2.1995625E0,-1.4828096E2,1.966094E2,-2.0928235E2,-9.1887E1,1.2704898E2,3.2948514E2,-7.2285014E-1,-5.3737897E-1,-1.1770548E2,-4.607369E1,8.355295E1,1.7207959E2,7.4762774E-1,3.554006E2,-3.802652E-1,-2.740022E-1,-5.8699688E1,-1.7018839E1,4.1637646E1,9.385576E1,4.1826114E-1,5.53729E-1,1.0978075E0,6.121533E-1,-2.152382E-1,-4.895722E1,-3.3384192E0,-2.9814234E1,4.6809242E1,4.9496327E-2,2.1522966E-1,3.0583128E-1,-1.593551E-1,-7.759294E-2,-4.092052E-2,3.741903E-2,-1.2696584E-1,-1.9687207E-2,6.960604E-2,1.6414781E-1],"categories":[],"categories_nodes":[],"categories_segments":[],"categories_sizes":[],"default_left":[0,0,0,0,0,0,0,0,0,0,0,0,0,0,0,0,0,0,0,0,0,0,0,0,0,0,0,0,0,0,0,0,0,0,0,0,0,0,0,0,0],"id":15,"left_children":[1,3,5,7,9,11,13,-1,-1,15,17,19,21,-1,23,-1,-1,25,27,29,31,-1,-1,-1,-1,-1,33,35,37,39,-1,-1,-1,-1,-1,-1,-1,-1,-1,-1,-1],"loss_changes":[2.1355928E7,1.386729E6,2.881024E6,1.22869E5,2.479315E5,3.92663E5,9.2807E4,0E0,0E0,1.5427125E4,2.8025078E4,4.1843438E4,3.20075E3,0E0,1.3108E4,0E0,0E0,1.7734531E3,4.486115E3,2.0204297E3,4.661E3,0E0,0E0,0E0,0E0,0E0,1.4386875E3,2.6171567E3,3.5046787E3,1.7276992E3,0E0,0E0,0E0,0E0,0E0,0E0,0E0,0E0,0E0,0E0,0E0],"parents":[2147483647,0,0,1,1,2,2,3,3,4,4,5,5,6,6,9,9,10,10,11,11,12,12,14,14,17,17,18,18,19,19,20,20,26,26,27,27,28,28,29,29],"right_children":[2,4,6,8,10,12,14,-1,-1,16,18,20,22,-1,24,-1,-1,26,28,30,32,-1,-1,-1,-1,-1,34,36,38,40,-1,-1,-1,-1,-1,-1,-1,-1,-1,-1,-1],"split_conditions":[1.196E3,1.00655E3,1.37855E3,9.439E2,1.055E3,1.302E3,1.47485E3,-7.2285014E-1,-5.3737897E-1,1.057E3,1.12995E3,1.2397E3,1.311E3,7.4762774E-1,8.6113954E-1,-3.802652E-1,-2.740022E-1,1.07235E3,1.1299E3,1.2336571E3,1.2587E3,4.1826114E-1,5.53729E-1,1.0978075E0,6.121533E-1,-2.152382E-1,6.711062E1,1.1072E3,1.128E3,1.1544E3,4.9496327E-2,2.1522966E-1,3.0583128E-1,-1.593551E-1,-7.759294E-2,-4.092052E-2,3.741903E-2,-1.2696584E-1,-1.9687207E-2,6.960604E-2,1.6414781E-1],"split_indices":[1,1,2,1,2,1,1,0,0,1,1,1,2,0,9,0,0,2,5,6,1,0,0,0,0,0,11,5,2,6,0,0,0,0,0,0,0,0,0,0,0],"split_type":[0,0,0,0,0,0,0,0,0,0,0,0,0,0,0,0,0,0,0,0,0,0,0,0,0,0,0,0,0,0,0,0,0,0,0,0,0,0,0,0,0],"sum_hessian":[7.27E2,4.1E2,3.17E2,1.95E2,2.15E2,2.1E2,1.07E2,9E1,1.05E2,1.36E2,7.9E1,1.09E2,1.01E2,3E1,7.7E1,9.7E1,3.9E1,5.4E1,2.5E1,2.3E1,8.6E1,3.3E1,6.8E1,7E1,7E0,1.9E1,3.5E1,1.3E1,1.2E1,1.8E1,5E0,2.7E1,5.9E1,2.8E1,7E0,8E0,5E0,7E0,5E0,6E0,1.2E1],"tree_param":{"num_deleted":"0","num_feature":"16","num_nodes":"41","size_leaf_vector":"1"}},{"base_weights":[6.3702245E0,-1.4580174E2,1.9708514E2,-2.0379079E2,-8.378905E1,1.26782295E2,3.3087912E2,-7.0684505E-1,-5.299116E-1,-1.1191603E2,-4.220476E1,8.194974E1,1.7641301E2,7.7764297E-1,3.660234E2,-3.7238237E-1,-2.5794938E-1,-5.4295486E1,-1.19806595E1,4.8888367E1,9.915891E1,4.566606E-1,5.9579414E-1,1.1332183E0,5.761428E-1,-5.6464687E1,-7.168849E-2,1.210909E1,-3.1515202E1,4.5739006E-2,5.378926E1,1.01809616E2,1.437557E-1,-8.135792E-2,-1.7594755E-1,-1.0853918E-2,6.999218E-2,-2.9965002E-2,-1.237725E-1,8.831455E-2,1.8044806E-1,1.984607E-1,3.1839845E-1],"categories":[],"categories_nodes":[],"categories_segments":[],"categories_sizes":[],"default_left":[0,0,0,0,0,0,0,0,0,0,0,0,0,0,0,0,0,0,0,0,0,0,0,0,0,0,0,0,0,0,0,0,0,0,0,0,0,0,0,0,0,0,0],"id":16,"left_children":[1,3,5,7,9,11,13,-1,-1,15,17,19,21,-1,23,-1,-1,25,27,29,31,-1,-1,-1,-1,33,-1,35,37,-1,39,41,-1,-1,-1,-1,-1,-1,-1,-1,-1,-1,-1],"loss_changes":[2.1156224E7,1.432559E6,2.979902E6,1.17706E5,2.2507312E5,4.5556675E5,1.35925E5,0E0,0E0,2.1179375E4,2.9165703E4,5.8428375E4,8.55925E3,0E0,3.4828E4,0E0,0E0,1.8256562E3,1.257422E4,5.7701875E3,2.786E3,0E0,0E0,0E0,0E0,1.03525E3,0E0,2.3346282E3,2.4176904E3,0E0,2.9879531E3,1.644375E2,0E0,0E0,0E0,0E0,0E0,0E0,0E0,0E0,0E0,0E0,0E0],"parents":[2147483647,0,0,1,1,2,2,3,3,4,4,5,5,6,6,9,9,10,10,11,11,12,12,14,14,17,17,18,18,19,19,20,20,25,25,27,27,28,28,30,30,31,31],"right_children":[2,4,6,8,10,12,14,-1,-1,16,18,20,22,-1,24,-1,-1,26,28,30,32,-1,-1,-1,-1,34,-1,36,38,-1,40,42,-1,-1,-1,-1,-1,-1,-1,-1,-1,-1,-1],"split_conditions":[1.15035E3,9.9485E2,1.3965E3,9.36E2,1.0754E3,1.2909E3,1.49115E3,-7.0684505E-1,-5.299116E-1,1.057E3,1.12365E3,1.23205E3,1.34285E3,7.7764297E-1,6.9040453E-1,-3.7238237E-1,-2.5794938E-1,1.12995E3,1.1206738E3,1.1188619E3,1.3361476E3,4.566606E-1,5.9579414E-1,1.1332183E0,5.761428E-1,9.295865E-3,-7.168849E-2,1.7326517E-1,1.12845E3,4.5739006E-2,1.3429648E-1,1.2224E3,1.437557E-1,-8.135792E-2,-1.7594755E-1,-1.0853918E-2,6.999218E-2,-2.9965002E-2,-1.237725E-1,8.831455E-2,1.8044806E-1,1.984607E-1,3.1839845E-1],"split_indices":[2,2,3,3,3,3,3,0,0,1,3,3,3,0,9,0,0,1,7,7,7,0,0,0,0,14,0,9,5,0,13,2,0,0,0,0,0,0,0,0,0,0,0],"split_type":[0,0,0,0,0,0,0,0,0,0,0,0,0,0,0,0,0,0,0,0,0,0,0,0,0,0,0,0,0,0,0,0,0,0,0,0,0,0,0,0,0,0,0],"sum_hessian":[7.26E2,4.04E2,3.22E2,2.07E2,1.97E2,2.13E2,1.09E2,9E1,1.17E2,1.16E2,8.1E1,1.14E2,9.9E1,4E1,6.9E1,7.5E1,4.1E1,5.7E1,2.4E1,4.1E1,7.3E1,5.3E1,4.6E1,6.3E1,6E0,5.2E1,5E0,1.1E1,1.3E1,6E0,3.5E1,6.8E1,5E0,5E0,4.7E1,5E0,6E0,5E0,8E0,9E0,2.6E1,1E1,5.8E1],"tree_param":{"num_deleted":"0","num_feature":"16","num_nodes":"43","size_leaf_vector":"1"}},{"base_weights":[-7.215362E0,-1.48268E2,1.9171675E2,-2.0975447E2,-8.5132484E1,1.19864136E2,3.2077652E2,-7.386561E-1,-5.391101E-1,-1.1578432E2,-3.9537655E1,8.0401085E1,5.212803E-1,7.606449E-1,3.64493E2,-3.7870553E-1,-2.5945878E-1,-4.922549E1,5.753009E-2,4.0060146E1,9.4010994E1,1.1322416E0,5.101185E-1,-5.1583317E1,-5.8212392E-2,5.2860513E-2,-8.39754E0,4.5324355E-2,1.3511574E-1,7.684782E1,3.1666714E-1,-2.02457E-1,-1.3372745E-1,-4.411751E-2,5.322837E-3,1.4486948E-1,2.5220904E-1],"categories":[],"categories_nodes":[],"categories_segments":[],"categories_sizes":[],"default_left":[0,0,0,0,0,0,0,0,0,0,0,0,0,0,0,0,0,0,0,0,0,0,0,0,0,0,0,0,0,0,0,0,0,0,0,0,0],"id":17,"left_children":[1,3,5,7,9,11,13,-1,-1,15,17,19,-1,-1,21,-1,-1,23,25,27,29,-1,-1,31,-1,-1,33,-1,-1,35,-1,-1,-1,-1,-1,-1,-1],"loss_changes":[2.0119492E7,1.601676E6,2.701083E6,1.65349E5,2.859075E5,3.9057375E5,1.71375E5,0E0,0E0,2.1723E4,3.318983E4,5.7202188E4,0E0,0E0,5.56895E4,0E0,0E0,3.3783281E3,2.9699985E3,2.8863047E3,4.5573125E3,0E0,0E0,2.5526094E3,0E0,0E0,9.066839E2,0E0,0E0,2.0437656E3,0E0,0E0,0E0,0E0,0E0,0E0,0E0],"parents":[2147483647,0,0,1,1,2,2,3,3,4,4,5,5,6,6,9,9,10,10,11,11,14,14,17,17,18,18,19,19,20,20,23,23,26,26,29,29],"right_children":[2,4,6,8,10,12,14,-1,-1,16,18,20,-1,-1,22,-1,-1,24,26,28,30,-1,-1,32,-1,-1,34,-1,-1,36,-1,-1,-1,-1,-1,-1,-1],"split_conditions":[1.1685E3,9.933E2,1.39185E3,9.2935E2,1.06715E3,1.29585E3,1.49115E3,-7.386561E-1,-5.391101E-1,1.04455E3,1.13445E3,1.22025E3,5.212803E-1,7.606449E-1,1.0180759E7,-3.7870553E-1,-2.5945878E-1,2.4844095E-2,1.1122E3,1.4034791E-2,1.24155E3,1.1322416E0,5.101185E-1,1.0882E3,-5.8212392E-2,5.2860513E-2,1.16755E3,4.5324355E-2,1.3511574E-1,3.996732E1,3.1666714E-1,-2.02457E-1,-1.3372745E-1,-4.411751E-2,5.322837E-3,1.4486948E-1,2.5220904E-1],"split_indices":[3,2,3,3,3,3,3,0,0,3,3,3,0,0,8,0,0,14,5,14,2,0,0,3,0,0,5,0,0,11,0,0,0,0,0,0,0],"split_type":[0,0,0,0,0,0,0,0,0,0,0,0,0,0,0,0,0,0,0,0,0,0,0,0,0,0,0,0,0,0,0,0,0,0,0,0,0],"sum_hessian":[7.14E2,4.18E2,2.96E2,2.1E2,2.08E2,1.92E2,1.04E2,9E1,1.2E2,1.23E2,8.5E1,1.13E2,7.9E1,4.5E1,5.9E1,8.7E1,3.6E1,6.8E1,1.7E1,3E1,8.3E1,5.4E1,5E0,6.2E1,6E0,5E0,1.2E1,6E0,2.4E1,3.8E1,4.5E1,1.5E1,4.7E1,7E0,5E0,1E1,2.8E1],"tree_param":{"num_deleted":"0","num_feature":"16","num_nodes":"37","size_leaf_vector":"1"}},{"base_weights":[5.7065673E0,-1.462316E2,1.9657773E2,-2.1044757E2,-9.096977E1,1.3307576E2,3.3650198E2,-7.921941E-1,-1.9273442E2,-1.2045057E2,-3.9288727E1,8.637258E1,1.8090967E2,7.9671395E-1,3.6589157E2,-6.097036E-1,-4.8041263E-1,-4.0108943E-1,-3.1291744E-1,-5.038949E1,-9.4077384E-1,4.528897E1,1.0125958E2,4.633961E-1,6.0651886E-1,1.128141E0,5.4668677E-1,-5.2375473E1,-6.0782496E-2,-1.5902326E1,8.447914E-2,5.0475456E1,4.952758E-2,2.2963195E-1,3.2520598E-1,-1.280131E-1,-1.8722202E-1,-6.5784045E-2,-1.0231189E-2,1.6428259E-1,8.2532465E-2],"categories":[],"categories_nodes":[],"categories_segments":[],"categories_sizes":[],"default_left":[0,0,0,0,0,0,0,0,0,0,0,0,0,0,0,0,0,0,0,0,0,0,0,0,0,0,0,0,0,0,0,0,0,0,0,0,0,0,0,0,0],"id":18,"left_children":[1,3,5,7,9,11,13,-1,15,17,19,21,23,-1,25,-1,-1,-1,-1,27,29,31,33,-1,-1,-1,-1,35,-1,37,-1,39,-1,-1,-1,-1,-1,-1,-1,-1,-1],"loss_changes":[2.1692082E7,1.449283E6,2.878315E6,1.05486E5,3.3798038E5,4.91471E5,6.7856E4,0E0,2.315E3,9.74625E3,3.5894688E4,6.619406E4,1.637925E4,0E0,2.4918E4,0E0,0E0,0E0,0E0,2.3201875E3,9.595944E3,3.8930078E3,2.8049375E3,0E0,0E0,0E0,0E0,1.8848906E3,0E0,9.767422E2,0E0,5.367578E2,0E0,0E0,0E0,0E0,0E0,0E0,0E0,0E0,0E0],"parents":[2147483647,0,0,1,1,2,2,3,3,4,4,5,5,6,6,8,8,9,9,10,10,11,11,12,12,14,14,19,19,20,20,21,21,22,22,27,27,29,29,31,31],"right_children":[2,4,6,8,10,12,14,-1,16,18,20,22,24,-1,26,-1,-1,-1,-1,28,30,32,34,-1,-1,-1,-1,36,-1,38,-1,40,-1,-1,-1,-1,-1,-1,-1,-1,-1],"split_conditions":[1.1899E3,9.915E2,1.41635E3,9.119E2,1.06715E3,1.29585E3,1.52445E3,-7.921941E-1,9.669E2,1.02515E3,1.1162E3,1.2263E3,1.3441E3,7.9671395E-1,1.0140202E0,-6.097036E-1,-4.8041263E-1,-4.0108943E-1,-3.1291744E-1,3.061933E1,1.15035E3,9.645E1,1.2315E3,4.633961E-1,6.0651886E-1,1.128141E0,5.4668677E-1,6.836352E0,-6.0782496E-2,1.1513E3,8.447914E-2,1.2375072E3,4.952758E-2,2.2963195E-1,3.2520598E-1,-1.280131E-1,-1.8722202E-1,-6.5784045E-2,-1.0231189E-2,1.6428259E-1,8.2532465E-2],"split_indices":[1,3,3,3,3,3,1,0,3,3,2,3,3,0,13,0,0,0,0,12,2,15,2,0,0,0,0,12,0,3,0,6,0,0,0,0,0,0,0,0,0],"split_type":[0,0,0,0,0,0,0,0,0,0,0,0,0,0,0,0,0,0,0,0,0,0,0,0,0,0,0,0,0,0,0,0,0,0,0,0,0,0,0,0,0],"sum_hessian":[7.45E2,4.15E2,3.3E2,1.9E2,2.25E2,2.29E2,1.01E2,4.2E1,1.48E2,1.42E2,8.3E1,1.18E2,1.11E2,3.4E1,6.7E1,1.06E2,4.2E1,7.2E1,7E1,6.4E1,1.9E1,3.3E1,8.5E1,5.5E1,5.6E1,6.2E1,5E0,5.9E1,5E0,1.3E1,6E0,2.7E1,6E0,2.3E1,6.2E1,3.4E1,2.5E1,8E0,5E0,2.1E1,6E0],"tree_param":{"num_deleted":"0","num_feature":"16","num_nodes":"41","size_leaf_vector":"1"}},{"base_weights":[7.013362E-1,-1.4851128E2,1.9451387E2,-2.0842189E2,-9.505137E1,1.2369259E2,3.3574716E2,-7.7602315E-1,-1.910483E2,-1.221783E2,-4.7616276E1,8.552591E1,5.5516064E-1,8.0136144E-1,1.1208998E0,-6.0692173E-1,-4.8688897E-1,-4.0873036E-1,-3.1857732E-1,-6.610519E1,-3.770227E1,4.3579468E1,1.0088768E2,-1.0096012E-1,-2.1320608E-1,-4.1542606E1,-4.2606786E-2,2.5521463E-2,5.2078445E1,1.0359985E2,1.1447882E-1,-1.4337158E-1,-9.671145E-2,3.1438857E-2,1.8373811E-1,2.4482255E-1,3.451182E-1],"categories":[],"categories_nodes":[],"categories_segments":[],"categories_sizes":[],"default_left":[0,0,0,0,0,0,0,0,0,0,0,0,0,0,0,0,0,0,0,0,0,0,0,0,0,0,0,0,0,0,0,0,0,0,0,0,0],"id":19,"left_children":[1,3,5,7,9,11,13,-1,15,17,19,21,-1,-1,-1,-1,-1,-1,-1,23,25,27,29,-1,-1,31,-1,-1,33,35,-1,-1,-1,-1,-1,-1,-1],"loss_changes":[2.1573738E7,1.32024E6,3.183413E6,9.8257E4,2.8142288E5,4.879475E5,1.29728E5,0E0,7.95E1,1.0314E4,1.1739906E4,8.1991625E4,0E0,0E0,0E0,0E0,0E0,0E0,0E0,8.3153906E2,4.3889375E3,1.1103492E4,1.09838125E4,0E0,0E0,5.5896875E2,0E0,0E0,1.1042953E4,9.6726875E3,0E0,0E0,0E0,0E0,0E0,0E0,0E0],"parents":[2147483647,0,0,1,1,2,2,3,3,4,4,5,5,6,6,8,8,9,9,10,10,11,11,19,19,20,20,21,21,22,22,25,25,28,28,29,29],"right_children":[2,4,6,8,10,12,14,-1,16,18,20,22,-1,-1,-1,-1,-1,-1,-1,24,26,28,30,-1,-1,32,-1,-1,34,36,-1,-1,-1,-1,-1,-1,-1],"split_conditions":[1.1621E3,9.915E2,1.41165E3,9.119E2,1.0664E3,1.3128E3,1.49115E3,-7.7602315E-1,9.6585E2,1.0251E3,1.0878E3,1.23205E3,5.5516064E-1,8.0136144E-1,1.1208998E0,-6.0692173E-1,-4.8688897E-1,-4.0873036E-1,-3.1857732E-1,1.073398E-2,8.464597E-1,1.3429648E-1,1.3501024E3,-1.0096012E-1,-2.1320608E-1,1.5314833E-2,-4.2606786E-2,2.5521463E-2,1.1188619E3,1.26045E3,1.1447882E-1,-1.4337158E-1,-9.671145E-2,3.1438857E-2,1.8373811E-1,2.4482255E-1,3.451182E-1],"split_indices":[4,5,4,4,4,4,5,0,4,4,5,4,0,0,0,0,0,0,0,14,13,13,7,0,0,14,0,0,7,4,0,0,0,0,0,0,0],"split_type":[0,0,0,0,0,0,0,0,0,0,0,0,0,0,0,0,0,0,0,0,0,0,0,0,0,0,0,0,0,0,0,0,0,0,0,0,0],"sum_hessian":[7.43E2,4.2E2,3.23E2,1.96E2,2.24E2,2.17E2,1.06E2,4.5E1,1.51E2,1.41E2,8.3E1,1.36E2,8.1E1,4.2E1,6.4E1,1.02E2,4.9E1,6.9E1,7.2E1,2.6E1,5.7E1,3.8E1,9.8E1,5E0,2.1E1,4.8E1,9E0,8E0,3E1,9.3E1,5E0,2.5E1,2.3E1,6E0,2.4E1,3.6E1,5.7E1],"tree_param":{"num_deleted":"0","num_feature":"16","num_nodes":"37","size_leaf_vector":"1"}},{"base_weights":[4.349194E0,-1.4468553E2,1.9639418E2,-2.0379678E2,-8.484101E1,1.2450399E2,3.2984277E2,-7.328412E-1,-5.3821206E-1,-1.1164149E2,-4.213196E1,8.2230736E1,5.160497E-1,7.786604E-1,1.1221708E0,-3.734713E-1,-2.6199776E-1,-5.226219E1,-8.326006E0,4.6102192E1,9.715649E1,-1.6244793E-1,-8.047582E-2,-6.3626E-2,3.3855114E-2,6.0190767E-2,5.1088253E1,2.3720498E-1,1.079856E2,1.667957E-1,6.476687E-2,3.3706054E-1,1.6347328E-1],"categories":[],"categories_nodes":[],"categories_segments":[],"categories_sizes":[],"default_left":[0,0,0,0,0,0,0,0,0,0,0,0,0,0,0,0,0,0,0,0,0,0,0,0,0,0,0,0,0,0,0,0,0],"id":20,"left_children":[1,3,5,7,9,11,13,-1,-1,15,17,19,-1,-1,-1,-1,-1,21,23,25,27,-1,-1,-1,-1,-1,29,-1,31,-1,-1,-1,-1],"loss_changes":[2.1780558E7,1.489849E6,3.128241E6,1.46041E5,2.3959538E5,4.176165E5,2.13255E5,0E0,0E0,2.4743875E4,2.862175E4,5.7167562E4,0E0,0E0,0E0,0E0,0E0,9.572344E2,5.7918154E3,3.3239922E3,3.3339375E3,0E0,0E0,0E0,0E0,0E0,2.2498672E3,0E0,1.89875E3,0E0,0E0,0E0,0E0],"parents":[2147483647,0,0,1,1,2,2,3,3,4,4,5,5,6,6,9,9,10,10,11,11,17,17,18,18,19,19,20,20,26,26,28,28],"right_children":[2,4,6,8,10,12,14,-1,-1,16,18,20,-1,-1,-1,-1,-1,22,24,26,28,-1,-1,-1,-1,-1,30,-1,32,-1,-1,-1,-1],"split_conditions":[1.1685E3,9.933E2,1.3965E3,9.279E2,1.08975E3,1.29585E3,1.49115E3,-7.328412E-1,-5.3821206E-1,1.04455E3,1.1119E3,1.2263E3,5.160497E-1,7.786604E-1,1.1221708E0,-3.734713E-1,-2.6199776E-1,1.12365E3,9.031562E9,-1.6426935E1,1.26045E3,-1.6244793E-1,-8.047582E-2,-6.3626E-2,3.3855114E-2,6.0190767E-2,9.645E1,2.3720498E-1,1.3101E3,1.667957E-1,6.476687E-2,3.3706054E-1,1.6347328E-1],"split_indices":[3,2,3,3,1,3,3,0,0,3,2,3,0,0,0,0,0,3,10,12,3,0,0,0,0,0,15,0,5,0,0,0,0],"split_type":[0,0,0,0,0,0,0,0,0,0,0,0,0,0,0,0,0,0,0,0,0,0,0,0,0,0,0,0,0,0,0,0,0],"sum_hessian":[7.58E2,4.27E2,3.31E2,2.13E2,2.14E2,2.17E2,1.14E2,7.5E1,1.38E2,1.3E2,8.4E1,1.17E2,1E2,4.8E1,6.6E1,8.1E1,4.9E1,6.4E1,2E1,3.6E1,8.1E1,5.8E1,6E0,1.2E1,8E0,7E0,2.9E1,3.5E1,4.6E1,2.4E1,5E0,4.1E1,5E0],"tree_param":{"num_deleted":"0","num_feature":"16","num_nodes":"33","size_leaf_vector":"1"}},{"base_weights":[2.220598E0,-1.4429517E2,1.8906828E2,-2.0844244E2,-8.3837234E1,1.2136391E2,3.1519928E2,-2.3284929E2,-5.1417214E-1,-1.1752375E2,-4.3664474E1,7.94598E1,1.6471907E2,7.383286E-1,3.5783563E2,-8.481952E-1,-6.470756E-1,-3.829798E-1,-2.652845E-1,-5.6517216E1,-8.982247E0,4.3250824E1,9.169086E1,3.6460173E-1,5.255944E-1,1.1054469E0,5.1861304E-1,-6.0831413E1,-3.236555E1,4.9086013E0,-2.3866774E1,3.7723266E-2,4.832329E1,9.4088196E1,1.2469065E-1,-2.0273337E-1,-1.3950455E-1,-1.2196203E-1,-3.8301878E-2,-2.6043603E-2,5.7728235E-2,-1.9111563E-2,-1.0524329E-1,7.965048E-2,1.5824504E-1,2.1482186E-1,3.0440244E-1],"categories":[],"categories_nodes":[],"categories_segments":[],"categories_sizes":[],"default_left":[0,0,0,0,0,0,0,0,0,0,0,0,0,0,0,0,0,0,0,0,0,0,0,0,0,0,0,0,0,0,0,0,0,0,0,0,0,0,0,0,0,0,0,0,0,0,0],"id":21,"left_children":[1,3,5,7,9,11,13,15,-1,17,19,21,23,-1,25,-1,-1,-1,-1,27,29,31,33,-1,-1,-1,-1,35,37,39,41,-1,43,45,-1,-1,-1,-1,-1,-1,-1,-1,-1,-1,-1,-1,-1],"loss_changes":[2.0586714E7,1.608424E6,2.764921E6,1.24125E5,2.893315E5,3.75488E5,2.05126E5,9.895E3,0E0,1.7993125E4,4.4922547E4,4.4304188E4,1.577425E4,0E0,3.732E4,0E0,0E0,0E0,0E0,4.799953E3,6.2770063E3,3.9840156E3,4.1548125E3,0E0,0E0,0E0,0E0,1.2203906E3,1.5714668E3,3.4658013E3,2.5056514E3,0E0,4.445586E2,2.106625E3,0E0,0E0,0E0,0E0,0E0,0E0,0E0,0E0,0E0,0E0,0E0,0E0,0E0],"parents":[2147483647,0,0,1,1,2,2,3,3,4,4,5,5,6,6,7,7,9,9,10,10,11,11,12,12,14,14,19,19,20,20,21,21,22,22,27,27,28,28,29,29,30,30,32,32,33,33],"right_children":[2,4,6,8,10,12,14,16,-1,18,20,22,24,-1,26,-1,-1,-1,-1,28,30,32,34,-1,-1,-1,-1,36,38,40,42,-1,44,46,-1,-1,-1,-1,-1,-1,-1,-1,-1,-1,-1,-1,-1],"split_conditions":[1.196E3,1.00655E3,1.3964E3,9.55E2,1.0799E3,1.2988E3,1.49775E3,9.0095E2,-5.1417214E-1,1.05225E3,1.12525E3,1.2397E3,1.32975E3,7.383286E-1,1.0140202E0,-8.481952E-1,-6.470756E-1,-3.829798E-1,-2.652845E-1,6.711062E1,1.1206738E3,-1.6426935E1,1.6537976E10,3.6460173E-1,5.255944E-1,1.1054469E0,5.1861304E-1,1.09695E3,1.0428833E3,8.404412E9,-2.3596012E1,3.7723266E-2,1.1949E3,1.2587E3,1.2469065E-1,-2.0273337E-1,-1.3950455E-1,-1.2196203E-1,-3.8301878E-2,-2.6043603E-2,5.7728235E-2,-1.9111563E-2,-1.0524329E-1,7.965048E-2,1.5824504E-1,2.1482186E-1,3.0440244E-1],"split_indices":[1,1,1,1,1,1,1,1,0,1,0,1,1,0,13,0,0,0,0,11,7,12,10,0,0,0,0,0,7,10,12,0,0,1,0,0,0,0,0,0,0,0,0,0,0,0,0],"split_type":[0,0,0,0,0,0,0,0,0,0,0,0,0,0,0,0,0,0,0,0,0,0,0,0,0,0,0,0,0,0,0,0,0,0,0,0,0,0,0,0,0,0,0,0,0,0,0],"sum_hessian":[7.49E2,4.2E2,3.29E2,2.02E2,2.18E2,2.16E2,1.13E2,1.17E2,8.5E1,1.17E2,1.01E2,1.12E2,1.04E2,4.7E1,6.6E1,2.4E1,9.3E1,8.3E1,3.4E1,7.3E1,2.8E1,3E1,8.2E1,2.4E1,8E1,6.1E1,5E0,6E1,1.3E1,1.5E1,1.3E1,5E0,2.5E1,7.7E1,5E0,3.7E1,2.3E1,8E0,5E0,8E0,7E0,6E0,7E0,6E0,1.9E1,2.3E1,5.4E1],"tree_param":{"num_deleted":"0","num_feature":"16","num_nodes":"47","size_leaf_vector":"1"}},{"base_weights":[-1.4718806E0,-1.4423228E2,1.9444844E2,-2.086065E2,-9.041533E1,1.2909259E2,3.4375662E2,-7.9378915E-1,-5.7105523E-1,-1.1787991E2,-4.296613E1,8.353657E1,1.7629797E2,7.7515805E-1,1.1258855E0,-3.7735376E-1,-2.5815964E-1,-5.7451115E1,-1.2053557E1,5.4299824E1,3.0628356E-1,4.6176577E-1,6.124842E-1,-1.9154024E-1,-1.2275761E-1,-2.0511711E1,2.6943749E-2,7.977994E-2,1.7705497E-1,-1.0100733E-1,-2.6898948E-2],"categories":[],"categories_nodes":[],"categories_segments":[],"categories_sizes":[],"default_left":[0,0,0,0,0,0,0,0,0,0,0,0,0,0,0,0,0,0,0,0,0,0,0,0,0,0,0,0,0,0,0],"id":22,"left_children":[1,3,5,7,9,11,13,-1,-1,15,17,19,21,-1,-1,-1,-1,23,25,27,-1,-1,-1,-1,-1,29,-1,-1,-1,-1,-1],"loss_changes":[2.0138268E7,1.414612E6,2.89499E6,1.17067E5,2.9146475E5,4.3701275E5,1.0084E5,0E0,0E0,2.0095875E4,3.768625E4,5.2165812E4,1.735625E4,0E0,0E0,0E0,0E0,2.2560156E3,5.525996E3,3.7162812E3,0E0,0E0,0E0,0E0,0E0,2.808913E3,0E0,0E0,0E0,0E0,0E0],"parents":[2147483647,0,0,1,1,2,2,3,3,4,4,5,5,6,6,9,9,10,10,11,11,12,12,17,17,18,18,19,19,25,25],"right_children":[2,4,6,8,10,12,14,-1,-1,16,18,20,22,-1,-1,-1,-1,24,26,28,-1,-1,-1,-1,-1,30,-1,-1,-1,-1,-1],"split_conditions":[1.1899E3,9.832E2,1.41635E3,9.082E2,1.06715E3,1.2977E3,1.49115E3,-7.9378915E-1,-5.7105523E-1,1.057E3,1.12995E3,1.226E3,1.3563E3,7.7515805E-1,1.1258855E0,-3.7735376E-1,-2.5815964E-1,1.1021E3,1.14E3,1.0963524E3,3.0628356E-1,4.6176577E-1,6.124842E-1,-1.9154024E-1,-1.2275761E-1,-4.3038446E-2,2.6943749E-2,7.977994E-2,1.7705497E-1,-1.0100733E-1,-2.6898948E-2],"split_indices":[1,2,3,3,3,3,3,0,0,1,1,2,3,0,0,0,0,3,2,7,0,0,0,0,0,9,0,0,0,0,0],"split_type":[0,0,0,0,0,0,0,0,0,0,0,0,0,0,0,0,0,0,0,0,0,0,0,0,0,0,0,0,0,0,0],"sum_hessian":[7.17E2,4.15E2,3.02E2,1.87E2,2.28E2,2.12E2,9E1,4.1E1,1.46E2,1.43E2,8.5E1,1.1E2,1.02E2,2.8E1,6.2E1,1.11E2,3.2E1,5.7E1,2.8E1,4.5E1,6.5E1,6.2E1,4E1,3.8E1,1.9E1,2E1,8E0,8E0,3.7E1,8E0,1.2E1],"tree_param":{"num_deleted":"0","num_feature":"16","num_nodes":"31","size_leaf_vector":"1"}},{"base_weights":[-1.1024463E0,-1.4608873E2,1.84632E2,-2.0564748E2,-8.5789024E1,1.1897253E2,3.1611765E2,-7.245204E-1,-5.2887225E-1,-1.1386152E2,-4.1948048E1,8.086668E1,5.115356E-1,7.6094186E-1,1.0740173E0,-3.6491343E-1,-2.5768694E-1,-5.163177E1,-1.9519848E1,5.1014935E1,3.031893E-1,-1.6627611E-1,-6.8710685E-2,-3.0669746E1,5.3461466E-2,3.0144875E1,5.9595295E1,-2.7285587E-2,-1.1304642E-1,1.3620106E-2,1.15492724E-1,1.8871307E-1,8.631822E-2],"categories":[],"categories_nodes":[],"categories_segments":[],"categories_sizes":[],"default_left":[0,0,0,0,0,0,0,0,0,0,0,0,0,0,0,0,0,0,0,0,0,0,0,0,0,0,0,0,0,0,0,0,0],"id":23,"left_children":[1,3,5,7,9,11,13,-1,-1,15,17,19,-1,-1,-1,-1,-1,21,23,25,-1,-1,-1,27,-1,29,31,-1,-1,-1,-1,-1,-1],"loss_changes":[2.0546848E7,1.512411E6,2.831374E6,1.61903E5,2.5804138E5,4.221625E5,1.52881E5,0E0,0E0,1.2687E4,1.7267953E4,7.213525E4,0E0,0E0,0E0,0E0,0E0,4.5725E3,1.2686829E4,7.4138906E3,0E0,0E0,0E0,2.8852422E3,0E0,3.9039805E3,1.2027031E3,0E0,0E0,0E0,0E0,0E0,0E0],"parents":[2147483647,0,0,1,1,2,2,3,3,4,4,5,5,6,6,9,9,10,10,11,11,17,17,18,18,19,19,23,23,25,25,26,26],"right_children":[2,4,6,8,10,12,14,-1,-1,16,18,20,-1,-1,-1,-1,-1,22,24,26,-1,-1,-1,28,-1,30,32,-1,-1,-1,-1,-1,-1],"split_conditions":[1.15035E3,9.933E2,1.4124E3,9.2345E2,1.07245E3,1.312E3,1.52445E3,-7.245204E-1,-5.2887225E-1,1.0608E3,3.07E1,1.226E3,5.115356E-1,7.6094186E-1,1.0740173E0,-3.6491343E-1,-2.5768694E-1,1.1162E3,1.1559E3,1.2172E3,3.031893E-1,-1.6627611E-1,-6.8710685E-2,3.89E1,5.3461466E-2,1.1119048E3,1.25325E3,-2.7285587E-2,-1.1304642E-1,1.3620106E-2,1.15492724E-1,1.8871307E-1,8.631822E-2],"split_indices":[2,2,1,2,4,1,1,0,0,1,15,2,0,0,0,0,0,2,1,1,0,0,0,15,0,7,5,0,0,0,0,0,0],"split_type":[0,0,0,0,0,0,0,0,0,0,0,0,0,0,0,0,0,0,0,0,0,0,0,0,0,0,0,0,0,0,0,0,0],"sum_hessian":[7.6E2,4.27E2,3.33E2,2.13E2,2.14E2,2.24E2,1.09E2,9.1E1,1.22E2,1.29E2,8.5E1,1.31E2,9.3E1,4.8E1,6.1E1,9.7E1,3.2E1,5.8E1,2.7E1,5.5E1,7.6E1,5E1,8E0,2.1E1,6E0,1.8E1,3.7E1,6E0,1.5E1,5E0,1.3E1,3.2E1,5E0],"tree_param":{"num_deleted":"0","num_feature":"16","num_nodes":"33","size_leaf_vector":"1"}},{"base_weights":[6.053785E-1,-1.4133722E2,1.9149104E2,-2.0390237E2,-8.7379295E1,1.181686E2,3.0508276E2,-6.9347566E-1,-5.0325733E-1,-1.1011735E2,-3.2717453E1,8.2335655E1,4.9587768E-1,7.272518E-1,3.5363202E2,-3.722551E-1,-2.5060537E-1,-4.9889977E1,-1.4946662E0,5.0151478E1,9.644464E1,1.0914489E0,5.4105175E-1,-1.5800911E-1,-6.5690964E-2,1.13431225E1,-1.03761956E-1,6.4694084E-2,5.3658997E1,1.470841E-1,9.879631E1,-2.1579234E-2,8.4805205E-2,1.7523046E-1,6.567203E-2,2.3541881E-1,3.2470605E-1],"categories":[],"categories_nodes":[],"categories_segments":[],"categories_sizes":[],"default_left":[0,0,0,0,0,0,0,0,0,0,0,0,0,0,0,0,0,0,0,0,0,0,0,0,0,0,0,0,0,0,0,0,0,0,0,0,0],"id":24,"left_children":[1,3,5,7,9,11,13,-1,-1,15,17,19,-1,-1,21,-1,-1,23,25,27,29,-1,-1,-1,-1,31,-1,-1,33,-1,35,-1,-1,-1,-1,-1,-1],"loss_changes":[1.934565E7,1.355671E6,2.482007E6,1.275245E5,2.7112775E5,2.96172E5,2.31871E5,0E0,0E0,4.2538125E4,3.6074758E4,4.2452438E4,0E0,0E0,1.3585E4,0E0,0E0,1.6474375E3,1.1424146E4,1.9165781E3,1.0269375E3,0E0,0E0,0E0,0E0,6.4248545E3,0E0,0E0,2.8285078E3,0E0,5.73375E2,0E0,0E0,0E0,0E0,0E0,0E0],"parents":[2147483647,0,0,1,1,2,2,3,3,4,4,5,5,6,6,9,9,10,10,11,11,14,14,17,17,18,18,19,19,20,20,25,25,28,28,30,30],"right_children":[2,4,6,8,10,12,14,-1,-1,16,18,20,-1,-1,22,-1,-1,24,26,28,30,-1,-1,-1,-1,32,-1,-1,34,-1,36,-1,-1,-1,-1,-1,-1],"split_conditions":[1.2029E3,9.9785E2,1.3924E3,9.528E2,1.0975E3,1.312E3,1.49775E3,-6.9347566E-1,-5.0325733E-1,1.057E3,1.12945E3,1.245E3,4.9587768E-1,7.272518E-1,1.0140202E0,-3.722551E-1,-2.5060537E-1,9.79E1,6.486627E-2,7.129723E-2,5.3148405E-3,1.0914489E0,5.4105175E-1,-1.5800911E-1,-6.5690964E-2,1.1755E3,-1.03761956E-1,6.4694084E-2,1.5195E2,1.470841E-1,1.27295E3,-2.1579234E-2,8.4805205E-2,1.7523046E-1,6.567203E-2,2.3541881E-1,3.2470605E-1],"split_indices":[1,0,1,1,1,1,1,0,0,1,0,1,0,0,13,0,0,15,9,13,13,0,0,0,0,1,0,0,15,0,1,0,0,0,0,0,0],"split_type":[0,0,0,0,0,0,0,0,0,0,0,0,0,0,0,0,0,0,0,0,0,0,0,0,0,0,0,0,0,0,0,0,0,0,0,0,0],"sum_hessian":[7.11E2,4.08E2,3.03E2,1.87E2,2.21E2,1.86E2,1.17E2,1.02E2,8.5E1,1.55E2,6.6E1,1.08E2,7.8E1,5.5E1,6.2E1,9.8E1,5.7E1,4.2E1,2.4E1,3.5E1,7.3E1,5.7E1,5E0,3.7E1,5E0,1.8E1,6E0,5E0,3E1,5E0,6.8E1,9E0,9E0,2.5E1,5E0,2.6E1,4.2E1],"tree_param":{"num_deleted":"0","num_feature":"16","num_nodes":"37","size_leaf_vector":"1"}},{"base_weights":[1.9610808E0,-1.4305666E2,1.9628055E2,-2.0226323E2,-8.062603E1,1.295461E2,3.4032617E2,-7.246651E-1,-5.268709E-1,-1.12735634E2,-4.1419853E1,8.399397E1,1.784053E2,7.8948104E-1,1.1152105E0,-3.6445463E-1,-2.6569185E-1,-5.5931892E1,-1.446796E1,5.4618553E1,3.171922E-1,4.5696777E-1,5.972921E-1,-1.9303967E-1,-1.1578037E-1,-2.18853E1,3.0173847E-2,3.9666885E1,2.028098E-1,-1.0510717E-2,-9.940052E-2,5.670286E-2,1.3914835E-1],"categories":[],"categories_nodes":[],"categories_segments":[],"categories_sizes":[],"default_left":[0,0,0,0,0,0,0,0,0,0,0,0,0,0,0,0,0,0,0,0,0,0,0,0,0,0,0,0,0,0,0,0,0],"id":25,"left_children":[1,3,5,7,9,11,13,-1,-1,15,17,19,21,-1,-1,-1,-1,23,25,27,-1,-1,-1,-1,-1,29,-1,31,-1,-1,-1,-1,-1],"loss_changes":[2.1331938E7,1.577858E6,3.043564E6,1.68172E5,2.6175438E5,4.74927E5,9.9216E4,0E0,0E0,8.478E3,3.7305125E4,6.698706E4,1.195275E4,0E0,0E0,0E0,0E0,5.5291406E3,6.971336E3,6.3535E3,0E0,0E0,0E0,0E0,0E0,5.714909E3,0E0,2.653121E3,0E0,0E0,0E0,0E0,0E0],"parents":[2147483647,0,0,1,1,2,2,3,3,4,4,5,5,6,6,9,9,10,10,11,11,12,12,17,17,18,18,19,19,25,25,27,27],"right_children":[2,4,6,8,10,12,14,-1,-1,16,18,20,22,-1,-1,-1,-1,24,26,28,-1,-1,-1,-1,-1,30,-1,32,-1,-1,-1,-1,-1],"split_conditions":[1.1685E3,9.9635E2,1.41635E3,9.279E2,1.06715E3,1.2977E3,1.49115E3,-7.246651E-1,-5.268709E-1,1.04455E3,1.12995E3,1.2587E3,1.34285E3,7.8948104E-1,1.1152105E0,-3.6445463E-1,-2.6569185E-1,1.08635E3,1.14E3,1.22025E3,3.171922E-1,4.5696777E-1,5.972921E-1,-1.9303967E-1,-1.1578037E-1,1.1139476E3,3.0173847E-2,1.4219395E-2,2.028098E-1,-1.0510717E-2,-9.940052E-2,5.670286E-2,1.3914835E-1],"split_indices":[3,2,3,3,3,3,3,0,0,3,1,1,3,0,0,0,0,2,2,3,0,0,0,0,0,7,0,14,0,0,0,0,0],"split_type":[0,0,0,0,0,0,0,0,0,0,0,0,0,0,0,0,0,0,0,0,0,0,0,0,0,0,0,0,0,0,0,0,0],"sum_hessian":[7.54E2,4.32E2,3.22E2,2.2E2,2.12E2,2.22E2,1E2,8.4E1,1.36E2,1.15E2,9.7E1,1.17E2,1.05E2,3.3E1,6.7E1,8E1,3.5E1,6.2E1,3.5E1,5.2E1,6.5E1,5.2E1,5.3E1,3.9E1,2.3E1,2.7E1,8E0,2.7E1,2.5E1,1.1E1,1.6E1,8E0,1.9E1],"tree_param":{"num_deleted":"0","num_feature":"16","num_nodes":"33","size_leaf_vector":"1"}},{"base_weights":[-1.3022312E0,-1.419892E2,1.8650851E2,-2.0081424E2,-8.131353E1,1.2636727E2,3.1388022E2,-2.2228954E2,-4.8357016E-1,-1.0942135E2,-3.8299377E1,8.305775E1,1.7374199E2,7.566392E-1,3.4683304E2,-7.969462E-1,-6.1459345E-1,-3.5873896E-1,-2.5287187E-1,-5.183818E1,-8.489934E0,6.0114113E1,1.035202E2,3.5984683E-1,5.406524E-1,1.0746577E0,5.795864E-1,-6.311154E-2,-5.4125084E1,9.613943E0,-2.069928E1,4.253205E1,2.1398294E-1,3.2002133E-1,1.5952209E-1,-1.814021E-1,-1.2405368E-1,-2.8489737E-2,8.838399E-2,-8.8546954E-2,3.0499625E-3,6.418978E-2,1.3784951E-1],"categories":[],"categories_nodes":[],"categories_segments":[],"categories_sizes":[],"default_left":[0,0,0,0,0,0,0,0,0,0,0,0,0,0,0,0,0,0,0,0,0,0,0,0,0,0,0,0,0,0,0,0,0,0,0,0,0,0,0,0,0,0,0],"id":26,"left_children":[1,3,5,7,9,11,13,15,-1,17,19,21,23,-1,25,-1,-1,-1,-1,27,29,31,33,-1,-1,-1,-1,-1,35,37,39,41,-1,-1,-1,-1,-1,-1,-1,-1,-1,-1,-1],"loss_changes":[1.952633E7,1.483487E6,2.364942E6,1.27892E5,2.4820062E5,4.2458975E5,7.2953E4,1.9939E4,0E0,1.7154E4,3.3840266E4,4.5343875E4,3.24875E3,0E0,3.72E3,0E0,0E0,0E0,0E0,2.4051875E3,6.5991514E3,6.9717344E3,9.224375E2,0E0,0E0,0E0,0E0,0E0,5.735469E2,5.162843E3,3.398336E3,4.3278125E2,0E0,0E0,0E0,0E0,0E0,0E0,0E0,0E0,0E0,0E0,0E0],"parents":[2147483647,0,0,1,1,2,2,3,3,4,4,5,5,6,6,7,7,9,9,10,10,11,11,12,12,14,14,19,19,20,20,21,21,22,22,28,28,29,29,30,30,31,31],"right_children":[2,4,6,8,10,12,14,16,-1,18,20,22,24,-1,26,-1,-1,-1,-1,28,30,32,34,-1,-1,-1,-1,-1,36,38,40,42,-1,-1,-1,-1,-1,-1,-1,-1,-1,-1,-1],"split_conditions":[1.1685E3,9.9635E2,1.3965E3,9.541E2,1.0754E3,1.29585E3,1.49115E3,9.138E2,-4.8357016E-1,1.057E3,1.12995E3,1.249E3,1.3128E3,7.566392E-1,1.8169571E10,-7.969462E-1,-6.1459345E-1,-3.5873896E-1,-2.5287187E-1,9.194374E-3,1.11515E3,1.22025E3,1.30535E3,3.5984683E-1,5.406524E-1,1.0746577E0,5.795864E-1,-6.311154E-2,1.1021E3,1.10485E3,1.15355E3,-1.6426935E1,2.1398294E-1,3.2002133E-1,1.5952209E-1,-1.814021E-1,-1.2405368E-1,-2.8489737E-2,8.838399E-2,-8.8546954E-2,3.0499625E-3,6.418978E-2,1.3784951E-1],"split_indices":[3,2,3,3,3,3,3,1,0,1,1,3,3,0,10,0,0,0,0,14,5,3,5,0,0,0,0,0,3,5,3,12,0,0,0,0,0,0,0,0,0,0,0],"split_type":[0,0,0,0,0,0,0,0,0,0,0,0,0,0,0,0,0,0,0,0,0,0,0,0,0,0,0,0,0,0,0,0,0,0,0,0,0,0,0,0,0,0,0],"sum_hessian":[7.36E2,4.21E2,3.15E2,2.12E2,2.09E2,2.16E2,9.9E1,1.33E2,7.9E1,1.25E2,8.4E1,1.15E2,1.01E2,3.9E1,6E1,3.2E1,1.01E2,8.5E1,4E1,5.7E1,2.7E1,5.7E1,5.8E1,1.4E1,8.7E1,5.4E1,6E0,5E0,5.2E1,1.1E1,1.6E1,2.5E1,3.2E1,5.3E1,5E0,3.1E1,2.1E1,6E0,5E0,1.1E1,5E0,5E0,2E1],"tree_param":{"num_deleted":"0","num_feature":"16","num_nodes":"43","size_leaf_vector":"1"}},{"base_weights":[-8.553983E0,-1.4405464E2,1.824885E2,-2.0185753E2,-8.5536736E1,1.1727763E2,3.1829633E2,-7.9191357E-1,-1.867541E2,-1.1102377E2,-4.224253E1,7.988786E1,4.974598E-1,7.5203854E-1,3.5338943E2,-6.067299E-1,-4.789649E-1,-3.6293593E-1,-2.5279593E-1,-5.3175407E1,-1.795817E1,5.2195473E1,2.9878289E-1,1.0936666E0,5.1913774E-1,-5.4854725E-2,-5.597398E1,6.011048E0,-3.594285E1,6.92472E-2,5.5754795E1,-1.896373E-1,-1.1262043E-1,-1.3903018E-2,4.6402678E-2,-1.3584378E-1,-5.7453535E-2,1.02575146E-1,1.8253614E-1],"categories":[],"categories_nodes":[],"categories_segments":[],"categories_sizes":[],"default_left":[0,0,0,0,0,0,0,0,0,0,0,0,0,0,0,0,0,0,0,0,0,0,0,0,0,0,0,0,0,0,0,0,0,0,0,0,0,0,0],"id":27,"left_children":[1,3,5,7,9,11,13,-1,15,17,19,21,-1,-1,23,-1,-1,-1,-1,25,27,29,-1,-1,-1,-1,31,33,35,-1,37,-1,-1,-1,-1,-1,-1,-1,-1],"loss_changes":[1.9493044E7,1.464065E6,2.711509E6,1.32866E5,2.3736212E5,3.6760425E5,1.05532E5,0E0,2.8134E4,2.1581125E4,2.0995047E4,5.95835E4,0E0,0E0,3.11775E4,0E0,0E0,0E0,0E0,4.071875E3,1.2612815E4,3.7091406E3,0E0,0E0,0E0,0E0,3.435625E3,1.4676271E3,1.2800977E3,0E0,2.083875E3,0E0,0E0,0E0,0E0,0E0,0E0,0E0,0E0],"parents":[2147483647,0,0,1,1,2,2,3,3,4,4,5,5,6,6,8,8,9,9,10,10,11,11,14,14,19,19,20,20,21,21,26,26,27,27,28,28,30,30],"right_children":[2,4,6,8,10,12,14,-1,16,18,20,22,-1,-1,24,-1,-1,-1,-1,26,28,30,-1,-1,-1,-1,32,34,36,-1,38,-1,-1,-1,-1,-1,-1,-1,-1],"split_conditions":[1.15035E3,9.933E2,1.4124E3,9.138E2,1.08975E3,1.312E3,1.50645E3,-7.9191357E-1,9.672E2,1.057E3,1.12995E3,1.226E3,4.974598E-1,7.5203854E-1,6.9040453E-1,-6.067299E-1,-4.789649E-1,-3.6293593E-1,-2.5279593E-1,9.9439155E-3,1.1299E3,1.3429648E-1,2.9878289E-1,1.0936666E0,5.1913774E-1,-5.4854725E-2,1.08635E3,8.657585E9,1.1162E3,6.92472E-2,1.2172E3,-1.896373E-1,-1.1262043E-1,-1.3903018E-2,4.6402678E-2,-1.3584378E-1,-5.7453535E-2,1.02575146E-1,1.8253614E-1],"split_indices":[2,2,1,1,1,1,1,0,1,1,1,2,0,0,9,0,0,0,0,14,5,13,0,0,0,0,2,10,2,0,1,0,0,0,0,0,0,0,0],"split_type":[0,0,0,0,0,0,0,0,0,0,0,0,0,0,0,0,0,0,0,0,0,0,0,0,0,0,0,0,0,0,0,0,0,0,0,0,0,0,0],"sum_hessian":[7.5E2,4.39E2,3.11E2,2.19E2,2.2E2,2.12E2,9.9E1,3.8E1,1.81E2,1.37E2,8.3E1,1.22E2,9E1,3.8E1,6.1E1,1.09E2,7.2E1,9.6E1,4.1E1,5.6E1,2.7E1,5.3E1,6.9E1,5.6E1,5E0,5E0,5.1E1,1.2E1,1.5E1,7E0,4.6E1,3.4E1,1.7E1,6E0,6E0,8E0,7E0,1.1E1,3.5E1],"tree_param":{"num_deleted":"0","num_feature":"16","num_nodes":"39","size_leaf_vector":"1"}},{"base_weights":[1.72714E0,-1.424405E2,1.7991168E2,-1.946305E2,-7.875031E1,1.1761769E2,3.2071857E2,-2.2973553E2,-4.902427E-1,-3.2843098E-1,-4.3612854E1,8.051044E1,4.9948454E-1,7.427339E-1,1.0777338E0,-8.388535E-1,-6.3453376E-1,-5.598091E1,-1.6931316E1,5.221131E1,3.0878967E-1,-1.766619E-1,-9.320904E-2,-9.189348E-2,-1.0891076E1,1.6006739E1,5.8648182E1,-5.105841E-2,8.746229E-3,1.8432908E-2,6.647978E-2,1.1869478E-1,1.983362E-1],"categories":[],"categories_nodes":[],"categories_segments":[],"categories_sizes":[],"default_left":[0,0,0,0,0,0,0,0,0,0,0,0,0,0,0,0,0,0,0,0,0,0,0,0,0,0,0,0,0,0,0,0,0],"id":28,"left_children":[1,3,5,7,9,11,13,15,-1,-1,17,19,-1,-1,-1,-1,-1,21,23,25,-1,-1,-1,-1,27,29,31,-1,-1,-1,-1,-1,-1],"loss_changes":[1.8983674E7,1.3348325E6,2.842329E6,1.88569E5,1.9417888E5,3.997395E5,1.49718E5,3.5085E3,0E0,0E0,2.8105844E4,7.7257E4,0E0,0E0,0E0,0E0,0E0,1.6269062E3,2.0193242E3,1.3149656E4,0E0,0E0,0E0,0E0,2.0642112E3,4.9081592E2,3.5437031E3,0E0,0E0,0E0,0E0,0E0,0E0],"parents":[2147483647,0,0,1,1,2,2,3,3,4,4,5,5,6,6,7,7,10,10,11,11,17,17,18,18,19,19,24,24,25,25,26,26],"right_children":[2,4,6,8,10,12,14,16,-1,-1,18,20,-1,-1,-1,-1,-1,22,24,26,-1,-1,-1,-1,28,30,32,-1,-1,-1,-1,-1,-1],"split_conditions":[1.1755E3,1.0218E3,1.4124E3,9.5135E2,1.0799E3,1.312E3,1.50645E3,-4.1823795E1,-4.902427E-1,-3.2843098E-1,1.12675E3,1.2587E3,4.9948454E-1,7.427339E-1,1.0777338E0,-8.388535E-1,-6.3453376E-1,6.711062E1,3.8190956E1,1.3429648E-1,3.0878967E-1,-1.766619E-1,-9.320904E-2,-9.189348E-2,8.773525E6,2.9684036E1,1.2172E3,-5.105841E-2,8.746229E-3,1.8432908E-2,6.647978E-2,1.1869478E-1,1.983362E-1],"split_indices":[1,1,1,1,1,1,1,12,0,0,1,1,0,0,0,0,0,11,11,13,0,0,0,0,8,11,1,0,0,0,0,0,0],"split_type":[0,0,0,0,0,0,0,0,0,0,0,0,0,0,0,0,0,0,0,0,0,0,0,0,0,0,0,0,0,0,0,0,0],"sum_hessian":[7.36E2,4.07E2,3.29E2,2.22E2,1.85E2,2.3E2,9.9E1,1E2,1.22E2,9.7E1,8.8E1,1.33E2,9.7E1,3.8E1,6.1E1,2.1E1,7.9E1,5.9E1,2.9E1,6.1E1,7.2E1,5.1E1,8E0,7E0,2.2E1,1E1,5.1E1,1.5E1,7E0,5E0,5E0,1.7E1,3.4E1],"tree_param":{"num_deleted":"0","num_feature":"16","num_nodes":"33","size_leaf_vector":"1"}},{"base_weights":[3.3507173E0,-1.4082643E2,1.9096352E2,-1.9609148E2,-8.50936E1,1.3088622E2,3.398591E2,-6.8575054E-1,-5.0890785E-1,-1.1250092E2,-4.8887E1,8.1660194E1,1.7887003E2,7.8891623E-1,1.1001091E0,-3.5468683E-1,-2.5581163E-1,-6.852321E1,-3.4708805E1,4.4209667E1,9.701115E1,4.7967774E-1,6.214816E-1,-2.1693942E-1,-1.1514657E-1,-4.0648758E1,-1.2472175E1,2.8341583E1,1.8546852E-1,7.300957E1,3.178731E-1,-4.174736E-2,-1.3029377E-1,-9.025293E-4,-6.2996544E-2,2.0684268E-2,1.0652273E-1,9.8842405E-2,2.3913395E-1],"categories":[],"categories_nodes":[],"categories_segments":[],"categories_sizes":[],"default_left":[0,0,0,0,0,0,0,0,0,0,0,0,0,0,0,0,0,0,0,0,0,0,0,0,0,0,0,0,0,0,0,0,0,0,0,0,0,0,0],"id":29,"left_children":[1,3,5,7,9,11,13,-1,-1,15,17,19,21,-1,-1,-1,-1,23,25,27,29,-1,-1,-1,-1,31,33,35,-1,37,-1,-1,-1,-1,-1,-1,-1,-1,-1],"loss_changes":[2.0449176E7,1.291676E6,2.871741E6,1.253195E5,2.0558025E5,5.3668925E5,4.8267E4,0E0,0E0,3.808625E3,2.3009906E4,6.2253375E4,1.389875E4,0E0,0E0,0E0,0E0,2.2357812E2,6.961164E3,7.8435156E3,6.30825E3,0E0,0E0,0E0,0E0,2.4721875E3,1.493218E3,3.0865117E3,0E0,3.4326719E3,0E0,0E0,0E0,0E0,0E0,0E0,0E0,0E0,0E0],"parents":[2147483647,0,0,1,1,2,2,3,3,4,4,5,5,6,6,9,9,10,10,11,11,12,12,17,17,18,18,19,19,20,20,25,25,26,26,27,27,29,29],"right_children":[2,4,6,8,10,12,14,-1,-1,16,18,20,22,-1,-1,-1,-1,24,26,28,30,-1,-1,-1,-1,32,34,36,-1,38,-1,-1,-1,-1,-1,-1,-1,-1,-1],"split_conditions":[1.15035E3,9.9635E2,1.41045E3,9.342E2,1.0642E3,1.2904E3,1.4891E3,-6.8575054E-1,-5.0890785E-1,1.0403E3,1.09065E3,1.214E3,1.3543E3,7.8891623E-1,1.1001091E0,-3.5468683E-1,-2.5581163E-1,1.085E3,1.1162E3,1.5148858E-2,1.24155E3,4.7967774E-1,6.214816E-1,-2.1693942E-1,-1.1514657E-1,-3.36505E1,1.1206738E3,1.3429648E-1,1.8546852E-1,3.996732E1,3.178731E-1,-4.174736E-2,-1.3029377E-1,-9.025293E-4,-6.2996544E-2,2.0684268E-2,1.0652273E-1,9.8842405E-2,2.3913395E-1],"split_indices":[2,2,2,4,4,2,2,0,0,2,5,2,2,0,0,0,0,2,2,14,2,0,0,0,0,12,7,13,0,11,0,0,0,0,0,0,0,0,0],"split_type":[0,0,0,0,0,0,0,0,0,0,0,0,0,0,0,0,0,0,0,0,0,0,0,0,0,0,0,0,0,0,0,0,0,0,0,0,0,0,0],"sum_hessian":[7.53E2,4.26E2,3.27E2,2.12E2,2.14E2,2.35E2,9.2E1,9E1,1.22E2,1.2E2,9.4E1,1.18E2,1.17E2,2.8E1,6.4E1,9.5E1,2.5E1,3.7E1,5.7E1,3.6E1,8.2E1,7.6E1,4.1E1,3.1E1,6E0,4.4E1,1.3E1,2.1E1,1.5E1,2.6E1,5.6E1,5E0,3.9E1,6E0,7E0,6E0,1.5E1,5E0,2.1E1],"tree_param":{"num_deleted":"0","num_feature":"16","num_nodes":"39","size_leaf_vector":"1"}},{"base_weights":[1.3066925E0,-1.4053403E2,1.9613184E2,-1.857525E2,-6.535614E1,1.2924243E2,3.2243677E2,-2.2138573E2,-4.4893086E-1,-9.017365E1,-2.7493864E1,8.1581604E1,1.699088E2,7.531737E-1,3.5354248E2,-8.3277506E-1,-6.1442673E-1,-2.859468E-1,-1.814474E-1,-4.065463E1,-8.132314E-1,9.4797865E-2,8.8709076E1,4.4624713E-1,5.757587E-1,1.0918813E0,5.00879E-1,-4.4910744E1,-2.2574812E1,1.4931414E1,-1.6468288E1,2.0678316E-1,9.823675E1,-1.4255339E-1,-6.809804E-2,-9.7364835E-2,-2.2409169E-2,-3.2919668E-2,1.2417316E-1,-3.7760644E-3,-9.060621E-2,3.0670342E-1,1.3716654E-1],"categories":[],"categories_nodes":[],"categories_segments":[],"categories_sizes":[],"default_left":[0,0,0,0,0,0,0,0,0,0,0,0,0,0,0,0,0,0,0,0,0,0,0,0,0,0,0,0,0,0,0,0,0,0,0,0,0,0,0,0,0,0,0],"id":30,"left_children":[1,3,5,7,9,11,13,15,-1,17,19,21,23,-1,25,-1,-1,-1,-1,27,29,-1,31,-1,-1,-1,-1,33,35,37,39,-1,41,-1,-1,-1,-1,-1,-1,-1,-1,-1,-1],"loss_changes":[2.036626E7,1.431622E6,2.560694E6,2.91881E5,1.4896212E5,3.7748125E5,1.03261E5,3.62605E4,0E0,6.222375E3,2.3296902E4,3.0517375E4,8.143E3,0E0,4.5835E4,0E0,0E0,0E0,0E0,1.89675E3,6.1613545E3,0E0,5.7521875E3,0E0,0E0,0E0,0E0,3.728125E2,1.348626E3,9.252174E3,2.5508982E3,0E0,4.2053438E3,0E0,0E0,0E0,0E0,0E0,0E0,0E0,0E0,0E0,0E0],"parents":[2147483647,0,0,1,1,2,2,3,3,4,4,5,5,6,6,7,7,9,9,10,10,11,11,12,12,14,14,19,19,20,20,22,22,27,27,28,28,29,29,30,30,32,32],"right_children":[2,4,6,8,10,12,14,16,-1,18,20,22,24,-1,26,-1,-1,-1,-1,28,30,-1,32,-1,-1,-1,-1,34,36,38,40,-1,42,-1,-1,-1,-1,-1,-1,-1,-1,-1,-1],"split_conditions":[1.19215E3,1.02515E3,1.41165E3,9.63E2,1.09235E3,1.2909E3,1.49115E3,8.878E2,-4.4893086E-1,1.07765E3,1.13445E3,1.2138E3,1.3441E3,7.531737E-1,1.0140202E0,-8.3277506E-1,-6.1442673E-1,-2.859468E-1,-1.814474E-1,1.12365E3,1.1364E3,9.4797865E-2,1.249E3,4.4624713E-1,5.757587E-1,1.0918813E0,5.00879E-1,6.090656E-1,5.1773315E1,1.1215714E3,1.2593407E10,2.0678316E-1,1.3361476E3,-1.4255339E-1,-6.809804E-2,-9.7364835E-2,-2.2409169E-2,-3.2919668E-2,1.2417316E-1,-3.7760644E-3,-9.060621E-2,3.0670342E-1,1.3716654E-1],"split_indices":[3,3,3,1,3,3,3,3,0,3,3,3,3,0,13,0,0,0,0,3,5,0,3,0,0,0,0,9,11,6,10,0,7,0,0,0,0,0,0,0,0,0,0],"split_type":[0,0,0,0,0,0,0,0,0,0,0,0,0,0,0,0,0,0,0,0,0,0,0,0,0,0,0,0,0,0,0,0,0,0,0,0,0,0,0,0,0,0,0],"sum_hessian":[7.34E2,4.25E2,3.09E2,2.64E2,1.61E2,2.04E2,1.05E2,1.29E2,1.35E2,9.6E1,6.5E1,9.6E1,1.08E2,3.6E1,6.9E1,2.4E1,1.05E2,7.9E1,1.7E1,4.3E1,2.2E1,1.3E1,8.3E1,6.1E1,4.7E1,6.4E1,5E0,3.3E1,1E1,1.1E1,1.1E1,3.1E1,5.2E1,2.8E1,5E0,5E0,5E0,6E0,5E0,6E0,5E0,4.7E1,5E0],"tree_param":{"num_deleted":"0","num_feature":"16","num_nodes":"43","size_leaf_vector":"1"}},{"base_weights":[-9.925907E-1,-1.4457527E2,1.9173265E2,-1.9693591E2,-8.4937515E1,1.1596599E2,3.1986072E2,-6.8206084E-1,-5.020425E-1,-1.13306076E2,-4.247143E1,7.561397E1,1.6272493E2,7.424232E-1,3.5521057E2,-3.692619E-1,-2.730241E-1,-5.7961037E1,-1.7948757E1,4.81136E1,2.814715E-1,3.6848345E-1,5.2907E-1,1.093559E0,5.1676685E-1,-6.2328064E1,-9.7233675E-2,-6.9249854E0,-1.095348E-1,5.411879E-2,5.180721E1,-1.0210595E-1,-1.9700702E-1,-5.0139558E-2,6.754929E-2,1.694065E-1,5.8102187E-2],"categories":[],"categories_nodes":[],"categories_segments":[],"categories_sizes":[],"default_left":[0,0,0,0,0,0,0,0,0,0,0,0,0,0,0,0,0,0,0,0,0,0,0,0,0,0,0,0,0,0,0,0,0,0,0,0,0],"id":31,"left_children":[1,3,5,7,9,11,13,-1,-1,15,17,19,21,-1,23,-1,-1,25,27,29,-1,-1,-1,-1,-1,31,-1,33,-1,-1,35,-1,-1,-1,-1,-1,-1],"loss_changes":[2.0643384E7,1.309822E6,3.036263E6,1.46743E5,2.36718E5,3.6360025E5,1.68746E5,0E0,0E0,9.457125E3,3.014911E4,4.9051188E4,1.778575E4,0E0,3.4348E4,0E0,0E0,2.5949375E3,6.676216E3,3.8675078E3,0E0,0E0,0E0,0E0,0E0,5.602031E2,0E0,7.336096E3,0E0,0E0,4.627664E3,0E0,0E0,0E0,0E0,0E0,0E0],"parents":[2147483647,0,0,1,1,2,2,3,3,4,4,5,5,6,6,9,9,10,10,11,11,12,12,14,14,17,17,18,18,19,19,25,25,27,27,30,30],"right_children":[2,4,6,8,10,12,14,-1,-1,16,18,20,22,-1,24,-1,-1,26,28,30,-1,-1,-1,-1,-1,32,-1,34,-1,-1,36,-1,-1,-1,-1,-1,-1],"split_conditions":[1.15035E3,9.933E2,1.3965E3,9.5135E2,1.06715E3,1.2909E3,1.49115E3,-6.8206084E-1,-5.020425E-1,1.0373E3,1.12675E3,1.23515E3,1.31915E3,7.424232E-1,1.0205698E0,-3.692619E-1,-2.730241E-1,1.1021E3,1.1299E3,7.129723E-2,2.814715E-1,3.6848345E-1,5.2907E-1,1.093559E0,5.1676685E-1,2.197731E-1,-9.7233675E-2,1.2551649E7,-1.095348E-1,5.411879E-2,9.038136E-1,-1.0210595E-1,-1.9700702E-1,-5.0139558E-2,6.754929E-2,1.694065E-1,5.8102187E-2],"split_indices":[2,2,3,1,3,3,3,0,0,3,1,3,3,0,13,0,0,3,5,13,0,0,0,0,0,13,0,8,0,0,13,0,0,0,0,0,0],"split_type":[0,0,0,0,0,0,0,0,0,0,0,0,0,0,0,0,0,0,0,0,0,0,0,0,0,0,0,0,0,0,0,0,0,0,0,0,0],"sum_hessian":[7.43E2,4.26E2,3.17E2,2.25E2,2.01E2,2.01E2,1.16E2,1.06E2,1.19E2,1.19E2,8.2E1,1.1E2,9.1E1,4.2E1,7.4E1,7.8E1,4.1E1,4.9E1,3.3E1,4.6E1,6.4E1,2.7E1,6.4E1,6.9E1,5E0,4E1,9E0,2.2E1,1.1E1,6E0,4E1,6E0,3.4E1,1.7E1,5E0,3.4E1,6E0],"tree_param":{"num_deleted":"0","num_feature":"16","num_nodes":"37","size_leaf_vector":"1"}},{"base_weights":[2.6225705E0,-1.365471E2,1.8068811E2,-1.9404095E2,-8.051706E1,1.1965688E2,3.155383E2,-6.809128E-1,-4.971534E-1,-1.0752538E2,-4.274215E1,7.797656E1,1.689378E2,6.9786835E-1,3.4274655E2,-3.556566E-1,-2.5413525E-1,-5.048958E1,-1.8460035E1,4.6282097E1,2.8632298E-1,4.3576214E-1,5.6202525E-1,1.0564201E0,4.9826455E-1,-7.809618E-2,-5.221113E1,-1.7284067E-2,-2.5269459E1,4.431492E-2,5.117878E1,-1.6103828E-1,-8.147477E-2,-1.5353975E-2,-1.0237419E-1,7.804591E-2,1.6086262E-1],"categories":[],"categories_nodes":[],"categories_segments":[],"categories_sizes":[],"default_left":[0,0,0,0,0,0,0,0,0,0,0,0,0,0,0,0,0,0,0,0,0,0,0,0,0,0,0,0,0,0,0,0,0,0,0,0,0],"id":32,"left_children":[1,3,5,7,9,11,13,-1,-1,15,17,19,21,-1,23,-1,-1,25,27,29,-1,-1,-1,-1,-1,-1,31,-1,33,-1,35,-1,-1,-1,-1,-1,-1],"loss_changes":[1.8387582E7,1.318243E6,2.622211E6,1.34275E5,2.1091175E5,4.4545675E5,1.07073E5,0E0,0E0,1.59835E4,1.5808391E4,6.2827562E4,3.82575E3,0E0,3.2528E4,0E0,0E0,8.37625E2,1.8970498E3,6.188508E3,0E0,0E0,0E0,0E0,0E0,0E0,1.04203125E2,0E0,2.5000244E3,0E0,3.88375E2,0E0,0E0,0E0,0E0,0E0,0E0],"parents":[2147483647,0,0,1,1,2,2,3,3,4,4,5,5,6,6,9,9,10,10,11,11,12,12,14,14,17,17,18,18,19,19,26,26,28,28,30,30],"right_children":[2,4,6,8,10,12,14,-1,-1,16,18,20,22,-1,24,-1,-1,26,28,30,-1,-1,-1,-1,-1,-1,32,-1,34,-1,36,-1,-1,-1,-1,-1,-1],"split_conditions":[1.1685E3,1.0049E3,1.4124E3,9.36E2,1.0754E3,1.29585E3,1.4451E3,-6.809128E-1,-4.971534E-1,1.04455E3,1.12365E3,1.23435E3,1.34285E3,6.9786835E-1,1.0140202E0,-3.556566E-1,-2.5413525E-1,-3.4638702E1,1.1188619E3,-1.6426935E1,2.8632298E-1,4.3576214E-1,5.6202525E-1,1.0564201E0,4.9826455E-1,-7.809618E-2,2.5032825E1,-1.7284067E-2,1.12845E3,4.431492E-2,1.18025E3,-1.6103828E-1,-8.147477E-2,-1.5353975E-2,-1.0237419E-1,7.804591E-2,1.6086262E-1],"split_indices":[3,3,1,3,3,3,2,0,0,3,3,3,3,0,13,0,0,12,7,12,0,0,0,0,0,0,12,0,5,0,4,0,0,0,0,0,0],"split_type":[0,0,0,0,0,0,0,0,0,0,0,0,0,0,0,0,0,0,0,0,0,0,0,0,0,0,0,0,0,0,0,0,0,0,0,0,0],"sum_hessian":[7.39E2,4.15E2,3.24E2,2.03E2,2.12E2,2.25E2,9.9E1,8.9E1,1.14E2,1.22E2,9E1,1.24E2,1.01E2,2.8E1,7.1E1,7.8E1,4.4E1,6.7E1,2.3E1,4.6E1,7.8E1,5E1,5.1E1,6.6E1,5E0,6E0,6.1E1,9E0,1.4E1,7E0,3.9E1,5.6E1,5E0,5E0,9E0,5E0,3.4E1],"tree_param":{"num_deleted":"0","num_feature":"16","num_nodes":"37","size_leaf_vector":"1"}},{"base_weights":[-3.9520695E0,-1.3960103E2,1.8729884E2,-1.9774864E2,-8.662135E1,1.1827908E2,3.0874112E2,-6.6952646E-1,-5.00184E-1,-1.1592649E2,-4.7274563E1,7.6787796E1,5.087887E-1,7.281713E-1,3.4853647E2,-3.740324E-1,-2.7046472E-1,-5.8812668E1,-1.3434538E1,4.802871E1,9.632267E1,1.075007E0,5.306464E-1,-2.1740226E-1,-4.7162247E1,-2.6251923E1,5.088553E0,4.2750325E-2,5.1417625E1,1.3855562E-1,2.9795858E-1,-5.7661027E-2,-1.4990033E-1,-4.1086823E-2,-1.2718026E-1,-4.5395646E-2,8.178277E-2,1.6352129E-1,6.371241E-2],"categories":[],"categories_nodes":[],"categories_segments":[],"categories_sizes":[],"default_left":[0,0,0,0,0,0,0,0,0,0,0,0,0,0,0,0,0,0,0,0,0,0,0,0,0,0,0,0,0,0,0,0,0,0,0,0,0,0,0],"id":33,"left_children":[1,3,5,7,9,11,13,-1,-1,15,17,19,-1,-1,21,-1,-1,23,25,27,29,-1,-1,-1,31,33,35,-1,37,-1,-1,-1,-1,-1,-1,-1,-1,-1,-1],"loss_changes":[1.9224054E7,1.309736E6,2.52262E6,1.062365E5,2.56391E5,4.0308975E5,1.63347E5,0E0,0E0,1.254925E4,3.804775E4,5.6249312E4,0E0,0E0,1.5047E4,0E0,0E0,6.7131875E3,6.7314756E3,4.4463125E3,2.9465E3,0E0,0E0,0E0,2.0397109E3,2.467667E3,6.2241646E3,0E0,2.3120078E3,0E0,0E0,0E0,0E0,0E0,0E0,0E0,0E0,0E0,0E0],"parents":[2147483647,0,0,1,1,2,2,3,3,4,4,5,5,6,6,9,9,10,10,11,11,14,14,17,17,18,18,19,19,20,20,24,24,25,25,26,26,28,28],"right_children":[2,4,6,8,10,12,14,-1,-1,16,18,20,-1,-1,22,-1,-1,24,26,28,30,-1,-1,-1,32,34,36,-1,38,-1,-1,-1,-1,-1,-1,-1,-1,-1,-1],"split_conditions":[1.1809E3,9.967E2,1.39185E3,9.5135E2,1.066E3,1.3041E3,1.49115E3,-6.6952646E-1,-5.00184E-1,1.04455E3,1.12365E3,1.2377E3,5.087887E-1,7.281713E-1,1.0140202E0,-3.740324E-1,-2.7046472E-1,1.0882E3,1.14375E3,7.129723E-2,5.3148405E-3,1.075007E0,5.306464E-1,-2.1740226E-1,9.295865E-3,1.11515E3,1.15355E3,4.2750325E-2,1.5195E2,1.3855562E-1,2.9795858E-1,-5.7661027E-2,-1.4990033E-1,-4.1086823E-2,-1.2718026E-1,-4.5395646E-2,8.178277E-2,1.6352129E-1,6.371241E-2],"split_indices":[3,3,3,1,0,3,3,0,0,3,3,3,0,0,13,0,0,3,0,13,13,0,0,0,14,5,3,0,15,0,0,0,0,0,0,0,0,0,0],"split_type":[0,0,0,0,0,0,0,0,0,0,0,0,0,0,0,0,0,0,0,0,0,0,0,0,0,0,0,0,0,0,0,0,0,0,0,0,0,0,0],"sum_hessian":[7.38E2,4.32E2,3.06E2,2.04E2,2.28E2,1.97E2,1.09E2,1.07E2,9.7E1,1.29E2,9.9E1,1.11E2,8.6E1,4.5E1,6.4E1,9.2E1,3.7E1,7.3E1,2.6E1,4.7E1,6.4E1,5.9E1,5E0,3E1,4.3E1,1.5E1,1.1E1,5E0,4.2E1,5E0,5.9E1,5E0,3.8E1,1E1,5E0,6E0,5E0,3.7E1,5E0],"tree_param":{"num_deleted":"0","num_feature":"16","num_nodes":"39","size_leaf_vector":"1"}},{"base_weights":[-9.1927075E-1,-1.3912434E2,1.806569E2,-1.9602048E2,-7.982789E1,1.1158494E2,3.004472E2,-7.558379E-1,-1.7897098E2,-1.09134735E2,-3.923238E1,7.706256E1,4.9062496E-1,7.169283E-1,3.4759198E2,-5.768603E-1,-4.546355E-1,-3.615158E-1,-2.5611815E-1,-4.841901E1,-2.9961739E0,5.0882412E1,9.803804E1,1.076011E0,5.132E-1,-1.5639849E-1,-2.2556892E1,-1.7839735E1,4.6304706E-2,3.542845E1,1.8731527E-1,3.0391574E-1,1.3194901E-1,-2.2187471E-2,-9.749143E-2,-7.812957E-2,-1.6512102E-2,1.20057255E-1,3.192113E-2],"categories":[],"categories_nodes":[],"categories_segments":[],"categories_sizes":[],"default_left":[0,0,0,0,0,0,0,0,0,0,0,0,0,0,0,0,0,0,0,0,0,0,0,0,0,0,0,0,0,0,0,0,0,0,0,0,0,0,0],"id":34,"left_children":[1,3,5,7,9,11,13,-1,15,17,19,21,-1,-1,23,-1,-1,-1,-1,25,27,29,31,-1,-1,-1,33,35,-1,37,-1,-1,-1,-1,-1,-1,-1,-1,-1],"loss_changes":[1.831922E7,1.374915E6,2.560166E6,1.33032E5,2.380515E5,3.442895E5,2.07168E5,0E0,1.7061E4,1.656475E4,2.9237875E4,6.0870562E4,0E0,0E0,2.8182E4,0E0,0E0,0E0,0E0,4.9999375E3,5.748137E3,7.1193594E3,5.223E3,0E0,0E0,0E0,1.3686011E3,9.455779E2,0E0,2.5993047E3,0E0,0E0,0E0,0E0,0E0,0E0,0E0,0E0,0E0],"parents":[2147483647,0,0,1,1,2,2,3,3,4,4,5,5,6,6,8,8,9,9,10,10,11,11,14,14,19,19,20,20,21,21,22,22,26,26,27,27,29,29],"right_children":[2,4,6,8,10,12,14,-1,16,18,20,22,-1,-1,24,-1,-1,-1,-1,26,28,30,32,-1,-1,-1,34,36,-1,38,-1,-1,-1,-1,-1,-1,-1,-1,-1],"split_conditions":[1.1685E3,9.933E2,1.395E3,9.119E2,1.0754E3,1.3041E3,1.49115E3,-7.558379E-1,9.6895E2,1.04455E3,1.12945E3,1.2587E3,4.9062496E-1,7.169283E-1,1.0205698E0,-5.768603E-1,-4.546355E-1,-3.615158E-1,-2.5611815E-1,1.12365E3,8.511592E9,1.2138E3,1.4633539E7,1.076011E0,5.132E-1,-1.5639849E-1,1.1107E3,1.14375E3,4.6304706E-2,1.2336571E3,1.8731527E-1,3.0391574E-1,1.3194901E-1,-2.2187471E-2,-9.749143E-2,-7.812957E-2,-1.6512102E-2,1.20057255E-1,3.192113E-2],"split_indices":[3,2,1,3,3,3,3,0,3,3,0,1,0,0,13,0,0,0,0,3,10,3,8,0,0,0,4,0,0,6,0,0,0,0,0,0,0,0,0],"split_type":[0,0,0,0,0,0,0,0,0,0,0,0,0,0,0,0,0,0,0,0,0,0,0,0,0,0,0,0,0,0,0,0,0,0,0,0,0,0,0],"sum_hessian":[7.27E2,4.13E2,3.14E2,2.09E2,2.04E2,2.01E2,1.13E2,4.4E1,1.65E2,1.17E2,8.7E1,1.23E2,7.8E1,5.3E1,6E1,1.05E2,6E1,7.5E1,4.2E1,6.9E1,1.8E1,5.7E1,6.6E1,5.5E1,5E0,5.9E1,1E1,1E1,8E0,2.7E1,3E1,6.1E1,5E0,5E0,5E0,5E0,5E0,2.2E1,5E0],"tree_param":{"num_deleted":"0","num_feature":"16","num_nodes":"39","size_leaf_vector":"1"}},{"base_weights":[3.7672822E0,-1.3770277E2,1.811631E2,-1.893062E2,-7.638145E1,1.19408264E2,3.1400735E2,-6.4904547E-1,-4.7173792E-1,-1.0595246E2,-4.0709476E1,8.0649414E1,1.7038928E2,7.416727E-1,1.0705247E0,-3.3931974E-1,-2.5830474E-1,-5.171874E1,-5.5474296E0,4.9051773E1,9.606633E1,4.4076243E-1,5.7156444E-1,-5.453745E1,-5.2489787E-2,-1.6187298E1,4.8220884E-2,5.6985535E-2,5.270832E1,2.1167427E-1,1.0143824E2,-1.6862892E-1,-8.066026E-2,-7.724684E-4,-6.921307E-2,1.7064022E-1,9.676945E-2,3.1280178E-1,1.485188E-1],"categories":[],"categories_nodes":[],"categories_segments":[],"categories_sizes":[],"default_left":[0,0,0,0,0,0,0,0,0,0,0,0,0,0,0,0,0,0,0,0,0,0,0,0,0,0,0,0,0,0,0,0,0,0,0,0,0,0,0],"id":35,"left_children":[1,3,5,7,9,11,13,-1,-1,15,17,19,21,-1,-1,-1,-1,23,25,27,29,-1,-1,31,-1,33,-1,-1,35,-1,37,-1,-1,-1,-1,-1,-1,-1,-1],"loss_changes":[1.9148178E7,1.3215685E6,2.720692E6,1.47905E5,2.0079462E5,4.4075025E5,1.72265E5,0E0,0E0,4.9675E2,3.4984312E4,5.8924438E4,4.99E3,0E0,0E0,0E0,0E0,5.2655938E3,5.7963564E3,3.7114297E3,1.5108125E3,0E0,0E0,6.608281E2,0E0,1.7980869E3,0E0,0E0,7.797344E2,0E0,2.5994375E3,0E0,0E0,0E0,0E0,0E0,0E0,0E0,0E0],"parents":[2147483647,0,0,1,1,2,2,3,3,4,4,5,5,6,6,9,9,10,10,11,11,12,12,17,17,18,18,19,19,20,20,23,23,25,25,28,28,30,30],"right_children":[2,4,6,8,10,12,14,-1,-1,16,18,20,22,-1,-1,-1,-1,24,26,28,30,-1,-1,32,-1,34,-1,-1,36,-1,38,-1,-1,-1,-1,-1,-1,-1,-1],"split_conditions":[1.1685E3,1.0104E3,1.3965E3,9.504E2,1.06715E3,1.3041E3,1.49115E3,-6.4904547E-1,-4.7173792E-1,1.04455E3,1.12365E3,1.23435E3,1.3441E3,7.416727E-1,1.0705247E0,-3.3931974E-1,-2.5830474E-1,1.12525E3,1.14375E3,-1.6426935E1,1.249E3,4.4076243E-1,5.7156444E-1,1.11075E3,-5.2489787E-2,1.1037072E3,4.8220884E-2,5.6985535E-2,3.8382183E1,2.1167427E-1,1.3395619E3,-1.6862892E-1,-8.066026E-2,-7.724684E-4,-6.921307E-2,1.7064022E-1,9.676945E-2,3.1280178E-1,1.485188E-1],"split_indices":[3,3,3,3,3,3,3,0,0,3,3,3,3,0,0,0,0,0,0,12,3,0,0,3,0,7,0,0,12,0,7,0,0,0,0,0,0,0,0],"split_type":[0,0,0,0,0,0,0,0,0,0,0,0,0,0,0,0,0,0,0,0,0,0,0,0,0,0,0,0,0,0,0,0,0,0,0,0,0,0,0],"sum_hessian":[7.6E2,4.23E2,3.37E2,2.28E2,1.95E2,2.32E2,1.05E2,1.19E2,1.09E2,1.05E2,9E1,1.34E2,9.8E1,4.5E1,6E1,7.2E1,3.3E1,6.8E1,2.2E1,4.6E1,8.8E1,5.1E1,4.7E1,6.2E1,6E0,1.5E1,7E0,6E0,4E1,1.9E1,6.9E1,5.7E1,5E0,5E0,1E1,3.1E1,9E0,6.4E1,5E0],"tree_param":{"num_deleted":"0","num_feature":"16","num_nodes":"39","size_leaf_vector":"1"}},{"base_weights":[-2.3635345E0,-1.372115E2,1.7983347E2,-1.9204843E2,-7.979656E1,1.1632317E2,3.088883E2,-2.1785777E2,-4.7210652E-1,-1.0715944E2,-3.8871292E1,8.104542E1,4.9646458E-1,7.356431E-1,3.4273407E2,-7.558023E-1,-5.952188E-1,-3.521819E-1,-2.5052387E-1,-4.935676E1,-2.0083473E0,3.713538E1,9.366291E1,1.0627353E0,4.8539406E-1,-5.1159687E1,-6.267863E-2,-1.1696333E1,4.1163307E-2,2.6556827E-2,4.3515797E1,7.666522E1,3.0957022E-1,-1.5833072E-1,-7.584245E-2,-7.122755E-2,2.022041E-2,5.8903724E-2,1.4437114E-1,1.1796918E-1,2.4434075E-1],"categories":[],"categories_nodes":[],"categories_segments":[],"categories_sizes":[],"default_left":[0,0,0,0,0,0,0,0,0,0,0,0,0,0,0,0,0,0,0,0,0,0,0,0,0,0,0,0,0,0,0,0,0,0,0,0,0,0,0,0,0],"id":36,"left_children":[1,3,5,7,9,11,13,15,-1,17,19,21,-1,-1,23,-1,-1,-1,-1,25,27,29,31,-1,-1,33,-1,35,-1,-1,37,39,-1,-1,-1,-1,-1,-1,-1,-1,-1],"loss_changes":[1.7935448E7,1.2977645E6,2.491015E6,1.396305E5,2.2610262E5,3.44955E5,9.2618E4,3.5235E3,0E0,1.51695E4,3.289408E4,6.4300938E4,0E0,0E0,4.41465E4,0E0,0E0,0E0,0E0,1.8021562E3,3.3644543E3,4.920914E3,3.7425625E3,0E0,0E0,5.6471875E2,0E0,3.2399448E3,0E0,0E0,1.2719336E3,2.4154375E3,0E0,0E0,0E0,0E0,0E0,0E0,0E0,0E0,0E0],"parents":[2147483647,0,0,1,1,2,2,3,3,4,4,5,5,6,6,7,7,9,9,10,10,11,11,14,14,19,19,20,20,21,21,22,22,25,25,27,27,30,30,31,31],"right_children":[2,4,6,8,10,12,14,16,-1,18,20,22,-1,-1,24,-1,-1,-1,-1,26,28,30,32,-1,-1,34,-1,36,-1,-1,38,40,-1,-1,-1,-1,-1,-1,-1,-1,-1],"split_conditions":[1.1685E3,9.9485E2,1.3965E3,9.49E2,1.06715E3,1.3041E3,1.49115E3,9.138E2,-4.7210652E-1,1.04455E3,1.1162E3,1.22025E3,4.9646458E-1,7.356431E-1,7.144054E-1,-7.558023E-1,-5.952188E-1,-3.521819E-1,-2.5052387E-1,2.9127151E1,1.15355E3,-1.6426935E1,1.24155E3,1.0627353E0,4.8539406E-1,1.12525E3,-6.267863E-2,-4.8852932E-1,4.1163307E-2,2.6556827E-2,1.4007367E-2,4.1769215E1,3.0957022E-1,-1.5833072E-1,-7.584245E-2,-7.122755E-2,2.022041E-2,5.8903724E-2,1.4437114E-1,1.1796918E-1,2.4434075E-1],"split_indices":[3,2,3,3,3,3,3,1,0,3,2,3,0,0,9,0,0,0,0,12,3,12,2,0,0,0,0,12,0,0,14,11,0,0,0,0,0,0,0,0,0],"split_type":[0,0,0,0,0,0,0,0,0,0,0,0,0,0,0,0,0,0,0,0,0,0,0,0,0,0,0,0,0,0,0,0,0,0,0,0,0,0,0,0,0],"sum_hessian":[7.27E2,4.18E2,3.09E2,2.12E2,2.06E2,2.09E2,1E2,1.17E2,9.5E1,1.22E2,8.4E1,1.24E2,8.5E1,3.9E1,6.1E1,3.6E1,8.1E1,8.1E1,4.1E1,6.5E1,1.9E1,2.9E1,9.5E1,5.6E1,5E0,6E1,5E0,1.2E1,7E0,6E0,2.3E1,3.9E1,5.6E1,5.5E1,5E0,7E0,5E0,5E0,1.8E1,6E0,3.3E1],"tree_param":{"num_deleted":"0","num_feature":"16","num_nodes":"41","size_leaf_vector":"1"}},{"base_weights":[-3.0370355E-1,-1.3976392E2,1.8216669E2,-2.0102585E2,-8.532921E1,1.0536411E2,2.8982684E2,-6.998336E-1,-5.243003E-1,-1.1058523E2,-3.8315712E1,7.316731E1,1.4392142E2,6.757775E-1,1.0286837E0,-3.6602148E-1,-2.4977815E-1,-4.8192844E1,-1.197845E1,3.8386654E1,8.633532E1,3.4743854E-1,4.6946946E-1,-1.5973537E-1,-1.1313398E-1,-2.581569E1,7.022215E0,2.0181513E1,1.5156533E-1,8.865702E1,1.407643E-1,-3.473889E-2,-1.10320255E-1,-3.0788131E-2,6.810604E-2,2.789152E-2,8.247793E-2,2.1176684E-1,2.9355195E-1],"categories":[],"categories_nodes":[],"categories_segments":[],"categories_sizes":[],"default_left":[0,0,0,0,0,0,0,0,0,0,0,0,0,0,0,0,0,0,0,0,0,0,0,0,0,0,0,0,0,0,0,0,0,0,0,0,0,0,0],"id":37,"left_children":[1,3,5,7,9,11,13,-1,-1,15,17,19,21,-1,-1,-1,-1,23,25,27,29,-1,-1,-1,-1,31,33,35,-1,37,-1,-1,-1,-1,-1,-1,-1,-1,-1],"loss_changes":[1.9238218E7,1.403193E6,2.662114E6,1.086105E5,2.6613175E5,2.2439825E5,3.48369E5,0E0,0E0,3.1091E4,2.0589352E4,4.4708438E4,3.346E3,0E0,0E0,0E0,0E0,1.2984375E2,6.7152637E3,5.6434727E3,8.384375E2,0E0,0E0,0E0,0E0,1.6183574E3,3.4674978E3,8.4635596E2,0E0,1.4993125E3,0E0,0E0,0E0,0E0,0E0,0E0,0E0,0E0,0E0],"parents":[2147483647,0,0,1,1,2,2,3,3,4,4,5,5,6,6,9,9,10,10,11,11,12,12,17,17,18,18,19,19,20,20,25,25,26,26,27,27,29,29],"right_children":[2,4,6,8,10,12,14,-1,-1,16,18,20,22,-1,-1,-1,-1,24,26,28,30,-1,-1,-1,-1,32,34,36,-1,38,-1,-1,-1,-1,-1,-1,-1,-1,-1],"split_conditions":[1.15035E3,9.832E2,1.36385E3,9.279E2,1.07765E3,1.27955E3,1.4759E3,-6.998336E-1,-5.243003E-1,1.04455E3,1.12365E3,1.22025E3,1.3128E3,6.757775E-1,1.0286837E0,-3.6602148E-1,-2.4977815E-1,1.1021E3,3.18E1,1.5148858E-2,1.2977E3,3.4743854E-1,4.6946946E-1,-1.5973537E-1,-1.1313398E-1,1.12845E3,8.404412E9,1.19745E3,1.5156533E-1,1.249E3,1.407643E-1,-3.473889E-2,-1.10320255E-1,-3.0788131E-2,6.810604E-2,2.789152E-2,8.247793E-2,2.1176684E-1,2.9355195E-1],"split_indices":[2,2,3,3,3,3,0,0,0,3,3,3,3,0,0,0,0,3,15,14,5,0,0,0,0,5,10,3,0,3,0,0,0,0,0,0,0,0,0],"split_type":[0,0,0,0,0,0,0,0,0,0,0,0,0,0,0,0,0,0,0,0,0,0,0,0,0,0,0,0,0,0,0,0,0,0,0,0,0,0,0],"sum_hessian":[7.53E2,4.27E2,3.26E2,1.99E2,2.28E2,1.92E2,1.34E2,8.4E1,1.15E2,1.47E2,8.1E1,1.07E2,8.5E1,6.4E1,7E1,1E2,4.7E1,5.8E1,2.3E1,3.1E1,7.6E1,3.1E1,5.4E1,3.5E1,2.3E1,1.3E1,1E1,1.4E1,1.7E1,7E1,6E0,7E0,6E0,5E0,5E0,7E0,7E0,2.8E1,4.2E1],"tree_param":{"num_deleted":"0","num_feature":"16","num_nodes":"39","size_leaf_vector":"1"}},{"base_weights":[2.5041342E0,-1.3713132E2,1.8450647E2,-1.9830865E2,-8.401519E1,1.2418517E2,3.220695E2,-6.7809045E-1,-5.0876117E-1,-1.1207471E2,-4.2000893E1,8.2362236E1,1.7471361E2,7.5719416E-1,3.453571E2,-3.6536628E-1,-2.5216785E-1,-5.19604E1,3.6597986E0,4.780082E1,9.813113E1,4.455666E-1,5.776689E-1,1.0662796E0,5.6902546E-1,-1.692793E-1,-3.7078735E1,-6.9008026E0,5.194077E-2,3.1839094E1,1.8171415E-1,1.361331E-1,1.00502045E2,-6.671039E-2,-1.4509869E-1,1.4404417E-2,-5.1077906E-2,4.0175725E-2,1.2187375E-1,2.4790594E-1,3.3499962E-1],"categories":[],"categories_nodes":[],"categories_segments":[],"categories_sizes":[],"default_left":[0,0,0,0,0,0,0,0,0,0,0,0,0,0,0,0,0,0,0,0,0,0,0,0,0,0,0,0,0,0,0,0,0,0,0,0,0,0,0,0,0],"id":38,"left_children":[1,3,5,7,9,11,13,-1,-1,15,17,19,21,-1,23,-1,-1,25,27,29,31,-1,-1,-1,-1,-1,33,35,-1,37,-1,-1,39,-1,-1,-1,-1,-1,-1,-1,-1],"loss_changes":[1.9289046E7,1.370642E6,2.674145E6,1.005095E5,2.6701812E5,4.6760625E5,3.0626E4,0E0,0E0,2.232025E4,4.3719484E4,6.3526125E4,5.43575E3,0E0,9.34E3,0E0,0E0,2.0695938E3,2.847814E3,5.964992E3,4.088625E3,0E0,0E0,0E0,0E0,0E0,2.1490645E3,1.4864531E3,0E0,2.8250586E3,0E0,0E0,2.5956875E3,0E0,0E0,0E0,0E0,0E0,0E0,0E0,0E0],"parents":[2147483647,0,0,1,1,2,2,3,3,4,4,5,5,6,6,9,9,10,10,11,11,12,12,14,14,17,17,18,18,19,19,20,20,26,26,27,27,29,29,32,32],"right_children":[2,4,6,8,10,12,14,-1,-1,16,18,20,22,-1,24,-1,-1,26,28,30,32,-1,-1,-1,-1,-1,34,36,-1,38,-1,-1,40,-1,-1,-1,-1,-1,-1,-1,-1],"split_conditions":[1.1685E3,9.915E2,1.41635E3,9.36E2,1.06715E3,1.3101E3,1.49115E3,-6.7809045E-1,-5.0876117E-1,1.04455E3,1.1162E3,1.23515E3,1.3441E3,7.5719416E-1,1.0140202E0,-3.6536628E-1,-2.5216785E-1,1.109E3,1.14E3,1.2138E3,5.3148405E-3,4.455666E-1,5.776689E-1,1.0662796E0,5.6902546E-1,-1.692793E-1,1.10545E3,1.1139476E3,5.194077E-2,6.6887566E1,1.8171415E-1,1.361331E-1,1.26535E3,-6.671039E-2,-1.4509869E-1,1.4404417E-2,-5.1077906E-2,4.0175725E-2,1.2187375E-1,2.4790594E-1,3.3499962E-1],"split_indices":[3,3,3,3,3,3,3,0,0,3,2,3,3,0,13,0,0,3,2,3,13,0,0,0,0,0,2,7,0,11,0,0,3,0,0,0,0,0,0,0,0],"split_type":[0,0,0,0,0,0,0,0,0,0,0,0,0,0,0,0,0,0,0,0,0,0,0,0,0,0,0,0,0,0,0,0,0,0,0,0,0,0,0,0,0],"sum_hessian":[7.56E2,4.28E2,3.28E2,1.97E2,2.31E2,2.3E2,9.8E1,9.5E1,1.02E2,1.37E2,9.4E1,1.28E2,1.02E2,2.9E1,6.9E1,9.8E1,3.9E1,7.7E1,1.7E1,4.2E1,8.6E1,4.7E1,5.5E1,6.3E1,6E0,5.6E1,2.1E1,1E1,7E0,2.1E1,2.1E1,5E0,8.1E1,1.1E1,1E1,5E0,5E0,8E0,1.3E1,3.6E1,4.5E1],"tree_param":{"num_deleted":"0","num_feature":"16","num_nodes":"41","size_leaf_vector":"1"}},{"base_weights":[7.7853556E0,-1.4156404E2,1.8767377E2,-1.9321683E2,-8.215249E1,1.1174451E2,2.9804663E2,-2.2620825E2,-4.9854386E-1,-1.10584724E2,-4.394328E1,7.5884926E1,4.8768017E-1,7.0984143E-1,1.0261672E0,-8.276589E-1,-6.191585E-1,-3.5381678E-1,-2.5583637E-1,-5.3862614E1,-1.1448908E1,4.7529354E1,2.816531E-1,-6.430043E-2,-5.620307E1,-7.0266426E-2,5.9187956E-2,3.3264565E1,1.6585483E-1,-1.763263E-1,-9.4786584E-2,1.19094156E-1,3.0694045E-2],"categories":[],"categories_nodes":[],"categories_segments":[],"categories_sizes":[],"default_left":[0,0,0,0,0,0,0,0,0,0,0,0,0,0,0,0,0,0,0,0,0,0,0,0,0,0,0,0,0,0,0,0,0],"id":39,"left_children":[1,3,5,7,9,11,13,15,-1,17,19,21,-1,-1,-1,-1,-1,-1,-1,23,25,27,-1,-1,29,-1,-1,31,-1,-1,-1,-1,-1],"loss_changes":[1.8805914E7,1.149968E6,2.61082E6,1.25084E5,1.8878575E5,3.28606E5,2.25952E5,7.06E2,0E0,3.968875E3,2.469311E4,5.1731562E4,0E0,0E0,0E0,0E0,0E0,0E0,0E0,2.7771875E3,8.346259E3,2.4876094E3,0E0,0E0,7.1853125E2,0E0,0E0,2.4235312E3,0E0,0E0,0E0,0E0,0E0],"parents":[2147483647,0,0,1,1,2,2,3,3,4,4,5,5,6,6,7,7,9,9,10,10,11,11,19,19,20,20,21,21,24,24,27,27],"right_children":[2,4,6,8,10,12,14,16,-1,18,20,22,-1,-1,-1,-1,-1,-1,-1,24,26,28,-1,-1,30,-1,-1,32,-1,-1,-1,-1,-1],"split_conditions":[1.1685E3,9.9095E2,1.395E3,9.439E2,1.0702E3,1.3041E3,1.49115E3,8.827E2,-4.9854386E-1,1.04455E3,1.1119E3,1.226E3,4.8768017E-1,7.0984143E-1,1.0261672E0,-8.276589E-1,-6.191585E-1,-3.5381678E-1,-2.5583637E-1,9.194374E-3,1.15355E3,1.2225E3,2.816531E-1,-6.430043E-2,7.325E1,-7.0266426E-2,5.9187956E-2,1.2329143E3,1.6585483E-1,-1.763263E-1,-9.4786584E-2,1.19094156E-1,3.0694045E-2],"split_indices":[3,2,1,1,1,3,3,3,0,3,2,2,0,0,0,0,0,0,0,14,3,1,0,0,15,0,0,7,0,0,0,0,0],"split_type":[0,0,0,0,0,0,0,0,0,0,0,0,0,0,0,0,0,0,0,0,0,0,0,0,0,0,0,0,0,0,0,0,0],"sum_hessian":[6.97E2,3.81E2,3.16E2,2.02E2,1.79E2,1.89E2,1.27E2,8.6E1,1.16E2,1.01E2,7.8E1,1.13E2,7.6E1,5.7E1,7E1,1.9E1,6.7E1,7.4E1,2.7E1,5.9E1,1.9E1,4.6E1,6.7E1,5E0,5.4E1,1.4E1,5E0,1.9E1,2.7E1,4.7E1,7E0,1.4E1,5E0],"tree_param":{"num_deleted":"0","num_feature":"16","num_nodes":"33","size_leaf_vector":"1"}},{"base_weights":[2.465618E0,-1.405198E2,1.8027277E2,-1.934586E2,-8.227826E1,1.20942406E2,3.2141248E2,-6.9828546E-1,-5.0157726E-1,-1.0735264E2,-3.7101395E1,7.429495E1,1.6884543E2,7.424115E-1,1.0604597E0,-3.496911E-1,-2.3878515E-1,-4.572095E1,-4.1650233E-1,4.2924194E1,8.711638E1,4.2516485E-1,5.6996405E-1,-5.0788345E1,-2.7891829E1,-5.7276975E-2,5.4963168E-2,4.5905758E1,6.421777E-2,1.9969672E-1,9.4416756E1,-9.867522E-2,-1.6362838E-1,-3.536088E-2,-1.0620371E-1,7.536235E-2,1.534518E-1,2.9271373E-1,1.3849127E-1],"categories":[],"categories_nodes":[],"categories_segments":[],"categories_sizes":[],"default_left":[0,0,0,0,0,0,0,0,0,0,0,0,0,0,0,0,0,0,0,0,0,0,0,0,0,0,0,0,0,0,0,0,0,0,0,0,0,0,0],"id":40,"left_children":[1,3,5,7,9,11,13,-1,-1,15,17,19,21,-1,-1,-1,-1,23,25,27,29,-1,-1,31,33,-1,-1,35,-1,-1,37,-1,-1,-1,-1,-1,-1,-1,-1],"loss_changes":[1.8966044E7,1.2510155E6,2.725958E6,1.64056E5,2.2000112E5,5.0963125E5,9.9958E4,0E0,0E0,1.86625E4,2.3208078E4,4.3649562E4,2.581425E4,0E0,0E0,0E0,0E0,3.2429219E3,5.9488237E3,9.893672E2,3.384E3,0E0,0E0,2.9028125E2,1.3648496E3,0E0,0E0,1.6079141E3,0E0,0E0,2.2859375E3,0E0,0E0,0E0,0E0,0E0,0E0,0E0,0E0],"parents":[2147483647,0,0,1,1,2,2,3,3,4,4,5,5,6,6,9,9,10,10,11,11,12,12,17,17,18,18,19,19,20,20,23,23,24,24,27,27,30,30],"right_children":[2,4,6,8,10,12,14,-1,-1,16,18,20,22,-1,-1,-1,-1,24,26,28,30,-1,-1,32,34,-1,-1,36,-1,-1,38,-1,-1,-1,-1,-1,-1,-1,-1],"split_conditions":[1.15035E3,9.933E2,1.41165E3,9.2935E2,1.07765E3,1.2909E3,1.49115E3,-6.9828546E-1,-5.0157726E-1,1.0608E3,1.1162E3,1.2263E3,1.3441E3,7.424115E-1,1.0604597E0,-3.496911E-1,-2.3878515E-1,1.11075E3,8.431371E-1,1.2375072E3,1.249E3,4.2516485E-1,5.6996405E-1,1.055762E3,1.1107E3,-5.7276975E-2,5.4963168E-2,1.1188619E3,6.421777E-2,1.9969672E-1,1.3321809E3,-9.867522E-2,-1.6362838E-1,-3.536088E-2,-1.0620371E-1,7.536235E-2,1.534518E-1,2.9271373E-1,1.3849127E-1],"split_indices":[2,2,3,3,3,3,3,0,0,1,2,3,3,0,0,0,0,3,12,6,3,0,0,7,4,0,0,7,0,0,7,0,0,0,0,0,0,0,0],"split_type":[0,0,0,0,0,0,0,0,0,0,0,0,0,0,0,0,0,0,0,0,0,0,0,0,0,0,0,0,0,0,0,0,0,0,0,0,0,0,0],"sum_hessian":[7.43E2,4.12E2,3.31E2,2.14E2,1.98E2,2.35E2,9.6E1,8.1E1,1.33E2,1.26E2,7.2E1,1.21E2,1.14E2,3.3E1,6.3E1,9.1E1,3.5E1,5.8E1,1.4E1,3.7E1,8.4E1,5.5E1,5.9E1,4.3E1,1.5E1,7E0,7E0,3.1E1,6E0,2.6E1,5.8E1,1E1,3.3E1,6E0,9E0,8E0,2.3E1,5.3E1,5E0],"tree_param":{"num_deleted":"0","num_feature":"16","num_nodes":"39","size_leaf_vector":"1"}},{"base_weights":[2.4321518E0,-1.3612183E2,1.8286844E2,-1.8180988E2,-7.198281E1,1.2201715E2,3.16303E2,-2.0908754E2,-4.3719777E-1,-2.9740453E-1,-4.0609905E1,7.789139E1,1.6815236E2,7.388384E-1,1.028963E0,-7.5662327E-1,-5.7529444E-1,-5.0082726E1,-1.4727428E1,4.9899208E1,9.534019E1,4.3214187E-1,5.6397474E-1,-5.385662E1,-7.322544E-2,-2.24978E1,3.590083E-2,6.796299E-2,1.6614872E-1,2.2112396E-1,3.1295535E-1,-1.7292622E-1,-7.356841E-2,-2.5446225E-2,-8.796228E-2],"categories":[],"categories_nodes":[],"categories_segments":[],"categories_sizes":[],"default_left":[0,0,0,0,0,0,0,0,0,0,0,0,0,0,0,0,0,0,0,0,0,0,0,0,0,0,0,0,0,0,0,0,0,0,0],"id":41,"left_children":[1,3,5,7,9,11,13,15,-1,-1,17,19,21,-1,-1,-1,-1,23,25,27,29,-1,-1,31,-1,33,-1,-1,-1,-1,-1,-1,-1,-1,-1],"loss_changes":[1.8274964E7,1.192058E6,2.520058E6,1.909355E5,1.4259306E5,4.2921175E5,5.7288E4,2.7128E4,0E0,0E0,1.9359672E4,4.9263E4,1.02785E4,0E0,0E0,0E0,0E0,3.8822969E3,5.4868154E3,5.206828E3,1.9468125E3,0E0,0E0,3.5901094E3,0E0,1.4879297E3,0E0,0E0,0E0,0E0,0E0,0E0,0E0,0E0,0E0],"parents":[2147483647,0,0,1,1,2,2,3,3,4,4,5,5,6,6,7,7,10,10,11,11,12,12,17,17,18,18,19,19,20,20,23,23,25,25],"right_children":[2,4,6,8,10,12,14,16,-1,-1,18,20,22,-1,-1,-1,-1,24,26,28,30,-1,-1,32,-1,34,-1,-1,-1,-1,-1,-1,-1,-1,-1],"split_conditions":[1.15035E3,1.01805E3,1.41165E3,9.4915E2,1.07245E3,1.29585E3,1.49115E3,9.016E2,-4.3719777E-1,-2.9740453E-1,1.12365E3,1.23515E3,1.3441E3,7.388384E-1,1.028963E0,-7.5662327E-1,-5.7529444E-1,1.12525E3,2.8203487E-1,1.1188619E3,1.25325E3,4.3214187E-1,5.6397474E-1,6.711062E1,-7.322544E-2,1.1206738E3,3.590083E-2,6.796299E-2,1.6614872E-1,2.2112396E-1,3.1295535E-1,-1.7292622E-1,-7.356841E-2,-2.5446225E-2,-8.796228E-2],"split_indices":[2,3,3,2,4,3,4,3,0,0,3,3,3,0,0,0,0,0,9,7,3,0,0,11,0,7,0,0,0,0,0,0,0,0,0],"split_type":[0,0,0,0,0,0,0,0,0,0,0,0,0,0,0,0,0,0,0,0,0,0,0,0,0,0,0,0,0,0,0,0,0,0,0],"sum_hessian":[7.28E2,4.12E2,3.16E2,2.39E2,1.73E2,2.19E2,9.7E1,1.32E2,1.07E2,9.1E1,8.2E1,1.14E2,1.05E2,3.1E1,6.6E1,3.2E1,1E2,5.9E1,2.3E1,4.6E1,6.8E1,5.3E1,5.2E1,5E1,9E0,1.8E1,5E0,9E0,3.7E1,2.4E1,4.4E1,4.3E1,7E0,7E0,